<?xml version="1.0"?>
<opencv_storage>
<cascade>
  <stageType>BOOST</stageType>
  <featureType>HAAR</featureType>
  <height>50</height>
  <width>25</width>
  <stageParams>
    <boostType>GAB</boostType>
    <minHitRate>9.9500000476837158e-01</minHitRate>
    <maxFalseAlarm>5.0000000000000000e-01</maxFalseAlarm>
    <weightTrimRate>9.4999999999999996e-01</weightTrimRate>
    <maxDepth>1</maxDepth>
    <maxWeakCount>100</maxWeakCount></stageParams>
  <featureParams>
    <maxCatCount>0</maxCatCount>
    <featSize>1</featSize>
    <mode>ALL</mode></featureParams>
  <stageNum>10</stageNum>
  <stages>
    <!-- stage 0 -->
    <_>
      <maxWeakCount>3</maxWeakCount>
      <stageThreshold>-1.2741911411285400e+00</stageThreshold>
      <weakClassifiers>
        <_>
          <internalNodes>
            0 -1 29 1.9980620592832565e-02</internalNodes>
          <leafValues>
            -8.0425530672073364e-01 8.5242718458175659e-01</leafValues></_>
        <_>
          <internalNodes>
            0 -1 33 6.0189522802829742e-02</internalNodes>
          <leafValues>
            -8.1366926431655884e-01 6.0737293958663940e-01</leafValues></_>
        <_>
          <internalNodes>
            0 -1 49 1.0869749821722507e-03</internalNodes>
          <leafValues>
            -7.2638809680938721e-01 3.4373340010643005e-01</leafValues></_></weakClassifiers></_>
    <!-- stage 1 -->
    <_>
      <maxWeakCount>5</maxWeakCount>
      <stageThreshold>-6.5347057580947876e-01</stageThreshold>
      <weakClassifiers>
        <_>
          <internalNodes>
            0 -1 42 8.7446309626102448e-02</internalNodes>
          <leafValues>
            -6.8275862932205200e-01 7.4835681915283203e-01</leafValues></_>
        <_>
          <internalNodes>
            0 -1 20 1.5155443921685219e-02</internalNodes>
          <leafValues>
            -7.9881310462951660e-01 4.7692340612411499e-01</leafValues></_>
        <_>
          <internalNodes>
            0 -1 27 -1.8569331150501966e-03</internalNodes>
          <leafValues>
            6.6276443004608154e-01 -3.9173907041549683e-01</leafValues></_>
        <_>
          <internalNodes>
            0 -1 11 -4.2254747822880745e-03</internalNodes>
          <leafValues>
            4.6213126182556152e-01 -4.7484526038169861e-01</leafValues></_>
        <_>
          <internalNodes>
            0 -1 99 -6.7224330268800259e-03</internalNodes>
          <leafValues>
            8.0996423959732056e-01 -2.9679453372955322e-01</leafValues></_></weakClassifiers></_>
    <!-- stage 2 -->
    <_>
      <maxWeakCount>7</maxWeakCount>
      <stageThreshold>-9.7890985012054443e-01</stageThreshold>
      <weakClassifiers>
        <_>
          <internalNodes>
            0 -1 54 1.8210094422101974e-02</internalNodes>
          <leafValues>
            -6.3862925767898560e-01 5.9796440601348877e-01</leafValues></_>
        <_>
          <internalNodes>
            0 -1 18 -3.0352810863405466e-03</internalNodes>
          <leafValues>
            6.0195326805114746e-01 -2.8509324789047241e-01</leafValues></_>
        <_>
          <internalNodes>
            0 -1 84 -1.5568889211863279e-03</internalNodes>
          <leafValues>
            7.0530200004577637e-01 -2.8999927639961243e-01</leafValues></_>
        <_>
          <internalNodes>
            0 -1 93 2.7907020412385464e-03</internalNodes>
          <leafValues>
            -2.8016158938407898e-01 7.0030748844146729e-01</leafValues></_>
        <_>
          <internalNodes>
            0 -1 26 7.9498998820781708e-03</internalNodes>
          <leafValues>
            -6.7332863807678223e-01 3.2313379645347595e-01</leafValues></_>
        <_>
          <internalNodes>
            0 -1 59 -4.8536788672208786e-03</internalNodes>
          <leafValues>
            2.4656155705451965e-01 -7.6188367605209351e-01</leafValues></_>
        <_>
          <internalNodes>
            0 -1 36 -2.7479105629026890e-03</internalNodes>
          <leafValues>
            7.0476526021957397e-01 -2.6687684655189514e-01</leafValues></_></weakClassifiers></_>
    <!-- stage 3 -->
    <_>
      <maxWeakCount>10</maxWeakCount>
      <stageThreshold>-7.2202479839324951e-01</stageThreshold>
      <weakClassifiers>
        <_>
          <internalNodes>
            0 -1 57 1.9233550410717726e-03</internalNodes>
          <leafValues>
            -3.4134614467620850e-01 5.9225094318389893e-01</leafValues></_>
        <_>
          <internalNodes>
            0 -1 39 1.5701662749052048e-02</internalNodes>
          <leafValues>
            -1.3831953704357147e-01 7.6255410909652710e-01</leafValues></_>
        <_>
          <internalNodes>
            0 -1 5 -6.2916376627981663e-03</internalNodes>
          <leafValues>
            7.1100455522537231e-01 -1.8321675062179565e-01</leafValues></_>
        <_>
          <internalNodes>
            0 -1 102 7.4888803064823151e-03</internalNodes>
          <leafValues>
            -1.9062004983425140e-01 7.6144850254058838e-01</leafValues></_>
        <_>
          <internalNodes>
            0 -1 78 -2.7141242753714323e-03</internalNodes>
          <leafValues>
            6.2013095617294312e-01 -2.5127434730529785e-01</leafValues></_>
        <_>
          <internalNodes>
            0 -1 19 4.8995167016983032e-03</internalNodes>
          <leafValues>
            -7.1595239639282227e-01 2.1355748176574707e-01</leafValues></_>
        <_>
          <internalNodes>
            0 -1 95 -1.0225317673757672e-03</internalNodes>
          <leafValues>
            5.9883475303649902e-01 -2.6689106225967407e-01</leafValues></_>
        <_>
          <internalNodes>
            0 -1 14 6.3115553930401802e-03</internalNodes>
          <leafValues>
            -2.8381162881851196e-01 4.9573975801467896e-01</leafValues></_>
        <_>
          <internalNodes>
            0 -1 88 -1.8598651513457298e-03</internalNodes>
          <leafValues>
            5.8832693099975586e-01 -2.7121624350547791e-01</leafValues></_>
        <_>
          <internalNodes>
            0 -1 58 1.7377613112330437e-02</internalNodes>
          <leafValues>
            2.1889720857143402e-01 -7.7548593282699585e-01</leafValues></_></weakClassifiers></_>
    <!-- stage 4 -->
    <_>
      <maxWeakCount>13</maxWeakCount>
      <stageThreshold>-8.1340193748474121e-01</stageThreshold>
      <weakClassifiers>
        <_>
          <internalNodes>
            0 -1 90 -3.4443852491676807e-03</internalNodes>
          <leafValues>
            4.7846153378486633e-01 -6.1000001430511475e-01</leafValues></_>
        <_>
          <internalNodes>
            0 -1 27 -2.7937004342675209e-03</internalNodes>
          <leafValues>
            5.5412840843200684e-01 -2.3567654192447662e-01</leafValues></_>
        <_>
          <internalNodes>
            0 -1 80 1.8383216811344028e-03</internalNodes>
          <leafValues>
            -1.9300663471221924e-01 7.3745101690292358e-01</leafValues></_>
        <_>
          <internalNodes>
            0 -1 15 8.2958145067095757e-03</internalNodes>
          <leafValues>
            -2.0523244142532349e-01 6.2838250398635864e-01</leafValues></_>
        <_>
          <internalNodes>
            0 -1 72 -2.1710195869673043e-04</internalNodes>
          <leafValues>
            1.7944735288619995e-01 -7.7682411670684814e-01</leafValues></_>
        <_>
          <internalNodes>
            0 -1 86 -3.4648906439542770e-03</internalNodes>
          <leafValues>
            6.2909770011901855e-01 -2.3448415100574493e-01</leafValues></_>
        <_>
          <internalNodes>
            0 -1 83 4.2640715837478638e-03</internalNodes>
          <leafValues>
            -1.8097653985023499e-01 7.6482880115509033e-01</leafValues></_>
        <_>
          <internalNodes>
            0 -1 98 1.0543985990807414e-03</internalNodes>
          <leafValues>
            -2.3306468129158020e-01 5.6652027368545532e-01</leafValues></_>
        <_>
          <internalNodes>
            0 -1 31 -6.5762072801589966e-02</internalNodes>
          <leafValues>
            -7.9044073820114136e-01 1.6313304007053375e-01</leafValues></_>
        <_>
          <internalNodes>
            0 -1 101 -7.2581470012664795e-03</internalNodes>
          <leafValues>
            5.7129102945327759e-01 -2.1583841741085052e-01</leafValues></_>
        <_>
          <internalNodes>
            0 -1 23 6.3269045203924179e-03</internalNodes>
          <leafValues>
            -1.7364512383937836e-01 5.9851497411727905e-01</leafValues></_>
        <_>
          <internalNodes>
            0 -1 48 2.1754199638962746e-02</internalNodes>
          <leafValues>
            -1.2065305560827255e-01 7.7625387907028198e-01</leafValues></_>
        <_>
          <internalNodes>
            0 -1 4 -1.4691383112221956e-03</internalNodes>
          <leafValues>
            5.1148396730422974e-01 -2.2013813257217407e-01</leafValues></_></weakClassifiers></_>
    <!-- stage 5 -->
    <_>
      <maxWeakCount>12</maxWeakCount>
      <stageThreshold>-8.5203850269317627e-01</stageThreshold>
      <weakClassifiers>
        <_>
          <internalNodes>
            0 -1 56 9.0861450880765915e-03</internalNodes>
          <leafValues>
            -2.8311687707901001e-01 5.4618835449218750e-01</leafValues></_>
        <_>
          <internalNodes>
            0 -1 25 3.6546602845191956e-02</internalNodes>
          <leafValues>
            -8.3627027273178101e-01 1.6414995491504669e-01</leafValues></_>
        <_>
          <internalNodes>
            0 -1 13 2.6496930047869682e-02</internalNodes>
          <leafValues>
            1.8225555121898651e-01 -6.1397457122802734e-01</leafValues></_>
        <_>
          <internalNodes>
            0 -1 9 1.3589099049568176e-02</internalNodes>
          <leafValues>
            -1.5330088138580322e-01 9.1414946317672729e-01</leafValues></_>
        <_>
          <internalNodes>
            0 -1 67 2.1983105689287186e-03</internalNodes>
          <leafValues>
            -2.4711497128009796e-01 4.5005995035171509e-01</leafValues></_>
        <_>
          <internalNodes>
            0 -1 100 -1.1863861000165343e-03</internalNodes>
          <leafValues>
            5.7247328758239746e-01 -1.8923670053482056e-01</leafValues></_>
        <_>
          <internalNodes>
            0 -1 40 4.5332987792789936e-03</internalNodes>
          <leafValues>
            -2.0735906064510345e-01 6.0582220554351807e-01</leafValues></_>
        <_>
          <internalNodes>
            0 -1 6 2.8895166516304016e-01</internalNodes>
          <leafValues>
            -4.3462783098220825e-01 2.6186454296112061e-01</leafValues></_>
        <_>
          <internalNodes>
            0 -1 30 -1.2043654918670654e-02</internalNodes>
          <leafValues>
            4.1643592715263367e-01 -2.7067443728446960e-01</leafValues></_>
        <_>
          <internalNodes>
            0 -1 17 -4.2258203029632568e-03</internalNodes>
          <leafValues>
            4.4077771902084351e-01 -2.3982033133506775e-01</leafValues></_>
        <_>
          <internalNodes>
            0 -1 55 -3.6595794372260571e-03</internalNodes>
          <leafValues>
            1.9599327445030212e-01 -5.3223377466201782e-01</leafValues></_>
        <_>
          <internalNodes>
            0 -1 53 1.4714579097926617e-02</internalNodes>
          <leafValues>
            -2.1585036814212799e-01 4.9636092782020569e-01</leafValues></_></weakClassifiers></_>
    <!-- stage 6 -->
    <_>
      <maxWeakCount>13</maxWeakCount>
      <stageThreshold>-7.3480892181396484e-01</stageThreshold>
      <weakClassifiers>
        <_>
          <internalNodes>
            0 -1 52 5.3670851048082113e-04</internalNodes>
          <leafValues>
            -2.2631579637527466e-01 5.2321428060531616e-01</leafValues></_>
        <_>
          <internalNodes>
            0 -1 32 3.2561220228672028e-02</internalNodes>
          <leafValues>
            -5.6089538335800171e-01 2.3851539194583893e-01</leafValues></_>
        <_>
          <internalNodes>
            0 -1 60 9.9033303558826447e-03</internalNodes>
          <leafValues>
            1.1312282830476761e-01 -9.3638646602630615e-01</leafValues></_>
        <_>
          <internalNodes>
            0 -1 74 5.0956150516867638e-03</internalNodes>
          <leafValues>
            -5.2615731954574585e-01 1.6646704077720642e-01</leafValues></_>
        <_>
          <internalNodes>
            0 -1 92 -4.8447679728269577e-03</internalNodes>
          <leafValues>
            5.9003752470016479e-01 -1.9442743062973022e-01</leafValues></_>
        <_>
          <internalNodes>
            0 -1 77 -3.2262373715639114e-03</internalNodes>
          <leafValues>
            5.4870873689651489e-01 -1.8607182800769806e-01</leafValues></_>
        <_>
          <internalNodes>
            0 -1 87 -2.7353572659194469e-03</internalNodes>
          <leafValues>
            4.6204921603202820e-01 -2.0476213097572327e-01</leafValues></_>
        <_>
          <internalNodes>
            0 -1 12 3.7196143530309200e-03</internalNodes>
          <leafValues>
            -2.5357809662818909e-01 4.4862326979637146e-01</leafValues></_>
        <_>
          <internalNodes>
            0 -1 43 1.1944353580474854e-02</internalNodes>
          <leafValues>
            -4.0945523977279663e-01 2.4383284151554108e-01</leafValues></_>
        <_>
          <internalNodes>
            0 -1 7 5.2764177322387695e-02</internalNodes>
          <leafValues>
            1.2713977694511414e-01 -7.4272513389587402e-01</leafValues></_>
        <_>
          <internalNodes>
            0 -1 62 -5.5230234283953905e-04</internalNodes>
          <leafValues>
            8.4636479616165161e-02 -8.2773137092590332e-01</leafValues></_>
        <_>
          <internalNodes>
            0 -1 70 -1.7983164638280869e-02</internalNodes>
          <leafValues>
            -8.0050611495971680e-01 1.1709977686405182e-01</leafValues></_>
        <_>
          <internalNodes>
            0 -1 21 -3.4774446394294500e-03</internalNodes>
          <leafValues>
            -7.5210165977478027e-01 1.0939710587263107e-01</leafValues></_></weakClassifiers></_>
    <!-- stage 7 -->
    <_>
      <maxWeakCount>14</maxWeakCount>
      <stageThreshold>-7.2704821825027466e-01</stageThreshold>
      <weakClassifiers>
        <_>
          <internalNodes>
            0 -1 76 -4.9945982173085213e-03</internalNodes>
          <leafValues>
            -6.7938929796218872e-01 4.3024104833602905e-01</leafValues></_>
        <_>
          <internalNodes>
            0 -1 52 1.5559853054583073e-03</internalNodes>
          <leafValues>
            -3.9947730302810669e-01 3.2386034727096558e-01</leafValues></_>
        <_>
          <internalNodes>
            0 -1 40 7.2988299652934074e-03</internalNodes>
          <leafValues>
            -1.6374593973159790e-01 7.2812992334365845e-01</leafValues></_>
        <_>
          <internalNodes>
            0 -1 108 6.6646002233028412e-03</internalNodes>
          <leafValues>
            -1.7456993460655212e-01 6.4916896820068359e-01</leafValues></_>
        <_>
          <internalNodes>
            0 -1 0 -1.6051873564720154e-02</internalNodes>
          <leafValues>
            5.8866810798645020e-01 -1.6354681551456451e-01</leafValues></_>
        <_>
          <internalNodes>
            0 -1 44 1.3774046301841736e-01</internalNodes>
          <leafValues>
            1.5303219854831696e-01 -8.7931787967681885e-01</leafValues></_>
        <_>
          <internalNodes>
            0 -1 96 -4.3455311097204685e-03</internalNodes>
          <leafValues>
            5.3239607810974121e-01 -2.0323714613914490e-01</leafValues></_>
        <_>
          <internalNodes>
            0 -1 46 -1.7392213921993971e-03</internalNodes>
          <leafValues>
            1.2429970502853394e-01 -7.7643281221389771e-01</leafValues></_>
        <_>
          <internalNodes>
            0 -1 103 -6.4705209806561470e-03</internalNodes>
          <leafValues>
            5.1910150051116943e-01 -1.9634927809238434e-01</leafValues></_>
        <_>
          <internalNodes>
            0 -1 75 1.1891288682818413e-02</internalNodes>
          <leafValues>
            -2.1295826137065887e-01 5.2277565002441406e-01</leafValues></_>
        <_>
          <internalNodes>
            0 -1 89 -1.9901958294212818e-03</internalNodes>
          <leafValues>
            -8.5742402076721191e-01 1.2349986284971237e-01</leafValues></_>
        <_>
          <internalNodes>
            0 -1 45 -1.5569197712466121e-03</internalNodes>
          <leafValues>
            5.8637475967407227e-01 -1.7748717963695526e-01</leafValues></_>
        <_>
          <internalNodes>
            0 -1 38 4.2217005044221878e-02</internalNodes>
          <leafValues>
            -4.1386511921882629e-01 3.0635458230972290e-01</leafValues></_>
        <_>
          <internalNodes>
            0 -1 81 -1.9040368497371674e-03</internalNodes>
          <leafValues>
            -8.2306593656539917e-01 1.0966978967189789e-01</leafValues></_></weakClassifiers></_>
    <!-- stage 8 -->
    <_>
      <maxWeakCount>19</maxWeakCount>
      <stageThreshold>-8.5431969165802002e-01</stageThreshold>
      <weakClassifiers>
        <_>
          <internalNodes>
            0 -1 2 1.4267519116401672e-01</internalNodes>
          <leafValues>
            3.9466291666030884e-01 -8.1578946113586426e-01</leafValues></_>
        <_>
          <internalNodes>
            0 -1 34 6.1446893960237503e-03</internalNodes>
          <leafValues>
            -9.8744958639144897e-02 7.0300722122192383e-01</leafValues></_>
        <_>
          <internalNodes>
            0 -1 94 5.1440857350826263e-03</internalNodes>
          <leafValues>
            -1.7028301954269409e-01 5.7671594619750977e-01</leafValues></_>
        <_>
          <internalNodes>
            0 -1 63 8.5442868294194341e-04</internalNodes>
          <leafValues>
            -4.0700301527976990e-01 2.2402416169643402e-01</leafValues></_>
        <_>
          <internalNodes>
            0 -1 16 -1.2161999940872192e-02</internalNodes>
          <leafValues>
            8.8059157133102417e-01 -1.0864383727312088e-01</leafValues></_>
        <_>
          <internalNodes>
            0 -1 50 1.2140738544985652e-03</internalNodes>
          <leafValues>
            -2.5193408131599426e-01 3.9565220475196838e-01</leafValues></_>
        <_>
          <internalNodes>
            0 -1 106 1.9425638020038605e-03</internalNodes>
          <leafValues>
            -1.7177462577819824e-01 5.1015800237655640e-01</leafValues></_>
        <_>
          <internalNodes>
            0 -1 35 -1.8831790657714009e-04</internalNodes>
          <leafValues>
            4.6673581004142761e-01 -1.7809703946113586e-01</leafValues></_>
        <_>
          <internalNodes>
            0 -1 107 9.1516096144914627e-03</internalNodes>
          <leafValues>
            -1.1880367994308472e-01 7.1040749549865723e-01</leafValues></_>
        <_>
          <internalNodes>
            0 -1 8 7.6507325284183025e-03</internalNodes>
          <leafValues>
            -1.2039157003164291e-01 6.5035390853881836e-01</leafValues></_>
        <_>
          <internalNodes>
            0 -1 69 4.3015880510210991e-03</internalNodes>
          <leafValues>
            -1.9485178589820862e-01 4.5900917053222656e-01</leafValues></_>
        <_>
          <internalNodes>
            0 -1 61 1.2113307602703571e-03</internalNodes>
          <leafValues>
            -1.8587438762187958e-01 4.6088394522666931e-01</leafValues></_>
        <_>
          <internalNodes>
            0 -1 51 1.7308764159679413e-02</internalNodes>
          <leafValues>
            1.0661470890045166e-01 -8.6420083045959473e-01</leafValues></_>
        <_>
          <internalNodes>
            0 -1 104 1.5485486947000027e-03</internalNodes>
          <leafValues>
            1.3959719240665436e-01 -5.5447095632553101e-01</leafValues></_>
        <_>
          <internalNodes>
            0 -1 47 -2.8259786777198315e-03</internalNodes>
          <leafValues>
            7.9085850715637207e-01 -1.0724165290594101e-01</leafValues></_>
        <_>
          <internalNodes>
            0 -1 65 1.3342166785150766e-03</internalNodes>
          <leafValues>
            1.8335364758968353e-01 -4.9089741706848145e-01</leafValues></_>
        <_>
          <internalNodes>
            0 -1 85 -3.6180987954139709e-03</internalNodes>
          <leafValues>
            5.7655304670333862e-01 -1.4018739759922028e-01</leafValues></_>
        <_>
          <internalNodes>
            0 -1 66 9.2462841421365738e-03</internalNodes>
          <leafValues>
            -1.4314030110836029e-01 5.5983352661132812e-01</leafValues></_>
        <_>
          <internalNodes>
            0 -1 68 -2.9974032659083605e-03</internalNodes>
          <leafValues>
            6.6517424583435059e-01 -1.1078799515962601e-01</leafValues></_></weakClassifiers></_>
    <!-- stage 9 -->
    <_>
      <maxWeakCount>16</maxWeakCount>
      <stageThreshold>-6.3912373781204224e-01</stageThreshold>
      <weakClassifiers>
        <_>
          <internalNodes>
            0 -1 24 6.9019179791212082e-03</internalNodes>
          <leafValues>
            -1.6753926873207092e-01 5.0447225570678711e-01</leafValues></_>
        <_>
          <internalNodes>
            0 -1 105 2.8031058609485626e-03</internalNodes>
          <leafValues>
            -2.1196043491363525e-01 4.1908198595046997e-01</leafValues></_>
        <_>
          <internalNodes>
            0 -1 79 3.3641704358160496e-03</internalNodes>
          <leafValues>
            -1.3225056231021881e-01 6.0259497165679932e-01</leafValues></_>
        <_>
          <internalNodes>
            0 -1 82 8.1140520051121712e-03</internalNodes>
          <leafValues>
            -1.1892544478178024e-01 6.3726162910461426e-01</leafValues></_>
        <_>
          <internalNodes>
            0 -1 10 -1.9955434836447239e-03</internalNodes>
          <leafValues>
            -5.3353065252304077e-01 1.3744889199733734e-01</leafValues></_>
        <_>
          <internalNodes>
            0 -1 91 -2.7009770274162292e-03</internalNodes>
          <leafValues>
            6.1846768856048584e-01 -1.1745201796293259e-01</leafValues></_>
        <_>
          <internalNodes>
            0 -1 37 6.1026336625218391e-03</internalNodes>
          <leafValues>
            -1.0887706279754639e-01 6.7446911334991455e-01</leafValues></_>
        <_>
          <internalNodes>
            0 -1 71 -7.8957370715215802e-04</internalNodes>
          <leafValues>
            1.5328918397426605e-01 -6.2896686792373657e-01</leafValues></_>
        <_>
          <internalNodes>
            0 -1 41 1.3826822862029076e-02</internalNodes>
          <leafValues>
            -1.9269950687885284e-01 4.6219253540039062e-01</leafValues></_>
        <_>
          <internalNodes>
            0 -1 22 8.9079309254884720e-03</internalNodes>
          <leafValues>
            -1.0509049147367477e-01 5.7893633842468262e-01</leafValues></_>
        <_>
          <internalNodes>
            0 -1 64 -4.4011566205881536e-04</internalNodes>
          <leafValues>
            4.5235997438430786e-01 -1.7297780513763428e-01</leafValues></_>
        <_>
          <internalNodes>
            0 -1 28 2.6376534253358841e-02</internalNodes>
          <leafValues>
            9.2722751200199127e-02 -8.4544199705123901e-01</leafValues></_>
        <_>
          <internalNodes>
            0 -1 97 4.2922948487102985e-03</internalNodes>
          <leafValues>
            -2.6844564080238342e-01 2.9753232002258301e-01</leafValues></_>
        <_>
          <internalNodes>
            0 -1 3 5.4163816384971142e-03</internalNodes>
          <leafValues>
            1.1089181900024414e-01 -7.7483242750167847e-01</leafValues></_>
        <_>
          <internalNodes>
            0 -1 1 6.1457796255126595e-04</internalNodes>
          <leafValues>
            -4.5462831854820251e-01 1.8487860262393951e-01</leafValues></_>
        <_>
          <internalNodes>
            0 -1 73 1.0204529389739037e-03</internalNodes>
          <leafValues>
            -2.2473223507404327e-01 3.9731949567794800e-01</leafValues></_></weakClassifiers></_></stages>
  <features>
    <_>
      <rects>
        <_>
          0 15 4 30 -1.</_>
        <_>
          0 15 2 15 2.</_>
        <_>
          2 30 2 15 2.</_></rects>
      <tilted>0</tilted></_>
    <_>
      <rects>
        <_>
          0 18 13 16 -1.</_>
        <_>
          0 22 13 8 2.</_></rects>
      <tilted>0</tilted></_>
    <_>
      <rects>
        <_>
          0 20 15 24 -1.</_>
        <_>
          5 28 5 8 9.</_></rects>
      <tilted>0</tilted></_>
    <_>
      <rects>
        <_>
          0 27 25 3 -1.</_>
        <_>
          0 28 25 1 3.</_></rects>
      <tilted>0</tilted></_>
    <_>
      <rects>
        <_>
          0 28 2 7 -1.</_>
        <_>
          1 28 1 7 2.</_></rects>
      <tilted>0</tilted></_>
    <_>
      <rects>
        <_>
          1 9 2 40 -1.</_>
        <_>
          1 9 1 20 2.</_>
        <_>
          2 29 1 20 2.</_></rects>
      <tilted>0</tilted></_>
    <_>
      <rects>
        <_>
          1 10 24 33 -1.</_>
        <_>
          9 21 8 11 9.</_></rects>
      <tilted>0</tilted></_>
    <_>
      <rects>
        <_>
          1 15 9 24 -1.</_>
        <_>
          4 23 3 8 9.</_></rects>
      <tilted>0</tilted></_>
    <_>
      <rects>
        <_>
          1 25 4 6 -1.</_>
        <_>
          3 25 2 6 2.</_></rects>
      <tilted>0</tilted></_>
    <_>
      <rects>
        <_>
          1 28 6 4 -1.</_>
        <_>
          3 28 2 4 3.</_></rects>
      <tilted>0</tilted></_>
    <_>
      <rects>
        <_>
          2 3 23 3 -1.</_>
        <_>
          2 4 23 1 3.</_></rects>
      <tilted>0</tilted></_>
    <_>
      <rects>
        <_>
          2 22 12 5 -1.</_>
        <_>
          5 22 6 5 2.</_></rects>
      <tilted>0</tilted></_>
    <_>
      <rects>
        <_>
          3 16 2 22 -1.</_>
        <_>
          3 16 1 11 2.</_>
        <_>
          4 27 1 11 2.</_></rects>
      <tilted>0</tilted></_>
    <_>
      <rects>
        <_>
          3 16 16 3 -1.</_>
        <_>
          7 20 8 3 2.</_></rects>
      <tilted>1</tilted></_>
    <_>
      <rects>
        <_>
          3 22 4 22 -1.</_>
        <_>
          3 22 2 11 2.</_>
        <_>
          5 33 2 11 2.</_></rects>
      <tilted>0</tilted></_>
    <_>
      <rects>
        <_>
          3 24 4 16 -1.</_>
        <_>
          3 24 2 8 2.</_>
        <_>
          5 32 2 8 2.</_></rects>
      <tilted>0</tilted></_>
    <_>
      <rects>
        <_>
          4 6 4 3 -1.</_>
        <_>
          4 6 2 3 2.</_></rects>
      <tilted>1</tilted></_>
    <_>
      <rects>
        <_>
          4 15 3 18 -1.</_>
        <_>
          5 15 1 18 3.</_></rects>
      <tilted>0</tilted></_>
    <_>
      <rects>
        <_>
          4 16 3 17 -1.</_>
        <_>
          5 16 1 17 3.</_></rects>
      <tilted>0</tilted></_>
    <_>
      <rects>
        <_>
          4 21 8 10 -1.</_>
        <_>
          8 21 4 10 2.</_></rects>
      <tilted>0</tilted></_>
    <_>
      <rects>
        <_>
          4 22 16 9 -1.</_>
        <_>
          8 22 8 9 2.</_></rects>
      <tilted>0</tilted></_>
    <_>
      <rects>
        <_>
          4 24 21 3 -1.</_>
        <_>
          4 25 21 1 3.</_></rects>
      <tilted>0</tilted></_>
    <_>
      <rects>
        <_>
          4 31 11 4 -1.</_>
        <_>
          3 32 11 2 2.</_></rects>
      <tilted>1</tilted></_>
    <_>
      <rects>
        <_>
          4 32 11 4 -1.</_>
        <_>
          3 33 11 2 2.</_></rects>
      <tilted>1</tilted></_>
    <_>
      <rects>
        <_>
          5 14 10 12 -1.</_>
        <_>
          5 14 5 6 2.</_>
        <_>
          10 20 5 6 2.</_></rects>
      <tilted>0</tilted></_>
    <_>
      <rects>
        <_>
          5 15 12 21 -1.</_>
        <_>
          9 22 4 7 9.</_></rects>
      <tilted>0</tilted></_>
    <_>
      <rects>
        <_>
          5 20 10 7 -1.</_>
        <_>
          10 20 5 7 2.</_></rects>
      <tilted>0</tilted></_>
    <_>
      <rects>
        <_>
          5 22 2 14 -1.</_>
        <_>
          5 22 1 7 2.</_>
        <_>
          6 29 1 7 2.</_></rects>
      <tilted>0</tilted></_>
    <_>
      <rects>
        <_>
          5 22 9 6 -1.</_>
        <_>
          8 24 3 2 9.</_></rects>
      <tilted>0</tilted></_>
    <_>
      <rects>
        <_>
          5 22 15 8 -1.</_>
        <_>
          10 22 5 8 3.</_></rects>
      <tilted>0</tilted></_>
    <_>
      <rects>
        <_>
          6 4 12 10 -1.</_>
        <_>
          6 9 12 5 2.</_></rects>
      <tilted>0</tilted></_>
    <_>
      <rects>
        <_>
          6 14 14 26 -1.</_>
        <_>
          13 14 7 26 2.</_></rects>
      <tilted>0</tilted></_>
    <_>
      <rects>
        <_>
          6 15 9 21 -1.</_>
        <_>
          9 22 3 7 9.</_></rects>
      <tilted>0</tilted></_>
    <_>
      <rects>
        <_>
          6 15 12 21 -1.</_>
        <_>
          10 22 4 7 9.</_></rects>
      <tilted>0</tilted></_>
    <_>
      <rects>
        <_>
          6 24 4 7 -1.</_>
        <_>
          7 24 2 7 2.</_></rects>
      <tilted>0</tilted></_>
    <_>
      <rects>
        <_>
          6 25 2 1 -1.</_>
        <_>
          7 25 1 1 2.</_></rects>
      <tilted>0</tilted></_>
    <_>
      <rects>
        <_>
          6 26 2 10 -1.</_>
        <_>
          6 26 1 5 2.</_>
        <_>
          7 31 1 5 2.</_></rects>
      <tilted>0</tilted></_>
    <_>
      <rects>
        <_>
          6 29 2 4 -1.</_>
        <_>
          5 30 2 2 2.</_></rects>
      <tilted>1</tilted></_>
    <_>
      <rects>
        <_>
          7 13 18 36 -1.</_>
        <_>
          13 25 6 12 9.</_></rects>
      <tilted>0</tilted></_>
    <_>
      <rects>
        <_>
          7 31 8 6 -1.</_>
        <_>
          5 33 8 2 3.</_></rects>
      <tilted>1</tilted></_>
    <_>
      <rects>
        <_>
          7 33 3 4 -1.</_>
        <_>
          6 34 3 2 2.</_></rects>
      <tilted>1</tilted></_>
    <_>
      <rects>
        <_>
          8 1 6 8 -1.</_>
        <_>
          10 3 2 8 3.</_></rects>
      <tilted>1</tilted></_>
    <_>
      <rects>
        <_>
          8 12 9 27 -1.</_>
        <_>
          11 21 3 9 9.</_></rects>
      <tilted>0</tilted></_>
    <_>
      <rects>
        <_>
          8 15 9 12 -1.</_>
        <_>
          11 19 3 4 9.</_></rects>
      <tilted>0</tilted></_>
    <_>
      <rects>
        <_>
          8 18 15 15 -1.</_>
        <_>
          13 23 5 5 9.</_></rects>
      <tilted>0</tilted></_>
    <_>
      <rects>
        <_>
          8 19 2 8 -1.</_>
        <_>
          8 19 1 4 2.</_>
        <_>
          9 23 1 4 2.</_></rects>
      <tilted>0</tilted></_>
    <_>
      <rects>
        <_>
          8 19 6 4 -1.</_>
        <_>
          8 19 3 4 2.</_></rects>
      <tilted>1</tilted></_>
    <_>
      <rects>
        <_>
          8 30 1 3 -1.</_>
        <_>
          7 31 1 1 3.</_></rects>
      <tilted>1</tilted></_>
    <_>
      <rects>
        <_>
          9 1 8 9 -1.</_>
        <_>
          11 3 4 9 2.</_></rects>
      <tilted>1</tilted></_>
    <_>
      <rects>
        <_>
          9 12 4 14 -1.</_>
        <_>
          9 19 4 7 2.</_></rects>
      <tilted>0</tilted></_>
    <_>
      <rects>
        <_>
          9 21 3 4 -1.</_>
        <_>
          10 21 1 4 3.</_></rects>
      <tilted>0</tilted></_>
    <_>
      <rects>
        <_>
          9 22 6 6 -1.</_>
        <_>
          11 22 2 6 3.</_></rects>
      <tilted>0</tilted></_>
    <_>
      <rects>
        <_>
          9 25 6 4 -1.</_>
        <_>
          12 25 3 4 2.</_></rects>
      <tilted>0</tilted></_>
    <_>
      <rects>
        <_>
          10 3 10 10 -1.</_>
        <_>
          15 3 5 10 2.</_></rects>
      <tilted>0</tilted></_>
    <_>
      <rects>
        <_>
          10 12 5 28 -1.</_>
        <_>
          10 19 5 14 2.</_></rects>
      <tilted>0</tilted></_>
    <_>
      <rects>
        <_>
          10 22 8 7 -1.</_>
        <_>
          14 22 4 7 2.</_></rects>
      <tilted>0</tilted></_>
    <_>
      <rects>
        <_>
          10 23 6 9 -1.</_>
        <_>
          12 26 2 3 9.</_></rects>
      <tilted>0</tilted></_>
    <_>
      <rects>
        <_>
          10 26 6 4 -1.</_>
        <_>
          12 26 2 4 3.</_></rects>
      <tilted>0</tilted></_>
    <_>
      <rects>
        <_>
          11 21 9 14 -1.</_>
        <_>
          14 21 3 14 3.</_></rects>
      <tilted>0</tilted></_>
    <_>
      <rects>
        <_>
          11 22 10 6 -1.</_>
        <_>
          16 22 5 6 2.</_></rects>
      <tilted>0</tilted></_>
    <_>
      <rects>
        <_>
          11 23 4 8 -1.</_>
        <_>
          11 25 4 4 2.</_></rects>
      <tilted>0</tilted></_>
    <_>
      <rects>
        <_>
          11 29 3 3 -1.</_>
        <_>
          12 29 1 3 3.</_></rects>
      <tilted>0</tilted></_>
    <_>
      <rects>
        <_>
          12 22 8 9 -1.</_>
        <_>
          16 22 4 9 2.</_></rects>
      <tilted>0</tilted></_>
    <_>
      <rects>
        <_>
          12 23 2 9 -1.</_>
        <_>
          12 26 2 3 3.</_></rects>
      <tilted>0</tilted></_>
    <_>
      <rects>
        <_>
          12 25 3 4 -1.</_>
        <_>
          13 25 1 4 3.</_></rects>
      <tilted>0</tilted></_>
    <_>
      <rects>
        <_>
          12 45 13 3 -1.</_>
        <_>
          12 46 13 1 3.</_></rects>
      <tilted>0</tilted></_>
    <_>
      <rects>
        <_>
          13 6 6 8 -1.</_>
        <_>
          16 6 3 8 2.</_></rects>
      <tilted>0</tilted></_>
    <_>
      <rects>
        <_>
          13 20 3 8 -1.</_>
        <_>
          14 20 1 8 3.</_></rects>
      <tilted>0</tilted></_>
    <_>
      <rects>
        <_>
          13 40 1 8 -1.</_>
        <_>
          13 44 1 4 2.</_></rects>
      <tilted>0</tilted></_>
    <_>
      <rects>
        <_>
          14 1 11 4 -1.</_>
        <_>
          13 2 11 2 2.</_></rects>
      <tilted>1</tilted></_>
    <_>
      <rects>
        <_>
          14 20 6 9 -1.</_>
        <_>
          17 20 3 9 2.</_></rects>
      <tilted>0</tilted></_>
    <_>
      <rects>
        <_>
          14 22 1 20 -1.</_>
        <_>
          14 32 1 10 2.</_></rects>
      <tilted>0</tilted></_>
    <_>
      <rects>
        <_>
          14 23 1 18 -1.</_>
        <_>
          14 32 1 9 2.</_></rects>
      <tilted>0</tilted></_>
    <_>
      <rects>
        <_>
          14 31 2 6 -1.</_>
        <_>
          14 31 1 3 2.</_>
        <_>
          15 34 1 3 2.</_></rects>
      <tilted>0</tilted></_>
    <_>
      <rects>
        <_>
          15 23 1 14 -1.</_>
        <_>
          15 23 1 7 2.</_></rects>
      <tilted>1</tilted></_>
    <_>
      <rects>
        <_>
          16 0 9 6 -1.</_>
        <_>
          14 2 9 2 3.</_></rects>
      <tilted>1</tilted></_>
    <_>
      <rects>
        <_>
          16 20 8 9 -1.</_>
        <_>
          16 20 4 9 2.</_></rects>
      <tilted>1</tilted></_>
    <_>
      <rects>
        <_>
          16 21 3 6 -1.</_>
        <_>
          17 21 1 6 3.</_></rects>
      <tilted>0</tilted></_>
    <_>
      <rects>
        <_>
          16 21 3 7 -1.</_>
        <_>
          17 21 1 7 3.</_></rects>
      <tilted>0</tilted></_>
    <_>
      <rects>
        <_>
          16 22 2 10 -1.</_>
        <_>
          16 22 1 5 2.</_>
        <_>
          17 27 1 5 2.</_></rects>
      <tilted>0</tilted></_>
    <_>
      <rects>
        <_>
          16 26 4 2 -1.</_>
        <_>
          17 26 2 2 2.</_></rects>
      <tilted>0</tilted></_>
    <_>
      <rects>
        <_>
          16 28 5 3 -1.</_>
        <_>
          16 29 5 1 3.</_></rects>
      <tilted>0</tilted></_>
    <_>
      <rects>
        <_>
          16 29 4 8 -1.</_>
        <_>
          16 29 2 4 2.</_>
        <_>
          18 33 2 4 2.</_></rects>
      <tilted>0</tilted></_>
    <_>
      <rects>
        <_>
          17 23 4 5 -1.</_>
        <_>
          18 23 2 5 2.</_></rects>
      <tilted>0</tilted></_>
    <_>
      <rects>
        <_>
          17 24 2 10 -1.</_>
        <_>
          17 24 1 5 2.</_>
        <_>
          18 29 1 5 2.</_></rects>
      <tilted>0</tilted></_>
    <_>
      <rects>
        <_>
          17 25 2 7 -1.</_>
        <_>
          18 25 1 7 2.</_></rects>
      <tilted>0</tilted></_>
    <_>
      <rects>
        <_>
          17 27 3 7 -1.</_>
        <_>
          18 27 1 7 3.</_></rects>
      <tilted>0</tilted></_>
    <_>
      <rects>
        <_>
          17 29 3 7 -1.</_>
        <_>
          18 29 1 7 3.</_></rects>
      <tilted>0</tilted></_>
    <_>
      <rects>
        <_>
          17 30 3 4 -1.</_>
        <_>
          18 30 1 4 3.</_></rects>
      <tilted>0</tilted></_>
    <_>
      <rects>
        <_>
          17 31 6 3 -1.</_>
        <_>
          17 32 6 1 3.</_></rects>
      <tilted>0</tilted></_>
    <_>
      <rects>
        <_>
          18 17 4 8 -1.</_>
        <_>
          18 17 4 4 2.</_></rects>
      <tilted>1</tilted></_>
    <_>
      <rects>
        <_>
          18 18 2 6 -1.</_>
        <_>
          19 18 1 6 2.</_></rects>
      <tilted>0</tilted></_>
    <_>
      <rects>
        <_>
          18 22 3 10 -1.</_>
        <_>
          19 22 1 10 3.</_></rects>
      <tilted>0</tilted></_>
    <_>
      <rects>
        <_>
          18 23 2 14 -1.</_>
        <_>
          18 23 1 7 2.</_>
        <_>
          19 30 1 7 2.</_></rects>
      <tilted>0</tilted></_>
    <_>
      <rects>
        <_>
          18 24 2 14 -1.</_>
        <_>
          18 24 1 7 2.</_>
        <_>
          19 31 1 7 2.</_></rects>
      <tilted>0</tilted></_>
    <_>
      <rects>
        <_>
          18 28 3 2 -1.</_>
        <_>
          19 28 1 2 3.</_></rects>
      <tilted>0</tilted></_>
    <_>
      <rects>
        <_>
          18 33 3 6 -1.</_>
        <_>
          19 34 1 6 3.</_></rects>
      <tilted>1</tilted></_>
    <_>
      <rects>
        <_>
          19 15 4 16 -1.</_>
        <_>
          21 15 2 16 2.</_></rects>
      <tilted>0</tilted></_>
    <_>
      <rects>
        <_>
          19 23 2 6 -1.</_>
        <_>
          20 23 1 6 2.</_></rects>
      <tilted>0</tilted></_>
    <_>
      <rects>
        <_>
          19 25 4 14 -1.</_>
        <_>
          19 25 2 7 2.</_>
        <_>
          21 32 2 7 2.</_></rects>
      <tilted>0</tilted></_>
    <_>
      <rects>
        <_>
          19 32 2 6 -1.</_>
        <_>
          19 32 1 3 2.</_>
        <_>
          20 35 1 3 2.</_></rects>
      <tilted>0</tilted></_>
    <_>
      <rects>
        <_>
          20 27 4 11 -1.</_>
        <_>
          21 28 2 11 2.</_></rects>
      <tilted>1</tilted></_>
    <_>
      <rects>
        <_>
          20 33 4 11 -1.</_>
        <_>
          21 34 2 11 2.</_></rects>
      <tilted>1</tilted></_>
    <_>
      <rects>
        <_>
          21 17 4 16 -1.</_>
        <_>
          21 17 2 8 2.</_>
        <_>
          23 25 2 8 2.</_></rects>
      <tilted>0</tilted></_>
    <_>
      <rects>
        <_>
          21 17 3 14 -1.</_>
        <_>
          21 17 3 7 2.</_></rects>
      <tilted>1</tilted></_>
    <_>
      <rects>
        <_>
          21 20 2 6 -1.</_>
        <_>
          19 22 2 2 3.</_></rects>
      <tilted>1</tilted></_>
    <_>
      <rects>
        <_>
          21 22 1 4 -1.</_>
        <_>
          20 23 1 2 2.</_></rects>
      <tilted>1</tilted></_>
    <_>
      <rects>
        <_>
          21 30 4 7 -1.</_>
        <_>
          22 31 2 7 2.</_></rects>
      <tilted>1</tilted></_>
    <_>
      <rects>
        <_>
          21 32 3 9 -1.</_>
        <_>
          22 33 1 9 3.</_></rects>
      <tilted>1</tilted></_></features></cascade>
</opencv_storage>
