<?xml version="1.0"?>
<opencv_storage>
<stage9>
  <maxWeakCount>13</maxWeakCount>
  <stageThreshold>-6.4777630567550659e-01</stageThreshold>
  <weakClassifiers>
    <_>
      <internalNodes>
        0 -1 748448 1.1231435928493738e-03</internalNodes>
      <leafValues>
        -2.3393316566944122e-01 5.3195321559906006e-01</leafValues></_>
    <_>
      <internalNodes>
        0 -1 912803 -1.1384231038391590e-03</internalNodes>
      <leafValues>
        4.4806450605392456e-01 -2.5120693445205688e-01</leafValues></_>
    <_>
      <internalNodes>
        0 -1 692121 1.8208376131951809e-03</internalNodes>
      <leafValues>
        -3.8236349821090698e-01 3.3594512939453125e-01</leafValues></_>
    <_>
      <internalNodes>
        0 -1 974971 3.8993605412542820e-03</internalNodes>
      <leafValues>
        1.2036282569169998e-01 -8.8716661930084229e-01</leafValues></_>
    <_>
      <internalNodes>
        0 -1 1014024 4.1157831437885761e-03</internalNodes>
      <leafValues>
        -2.4267193675041199e-01 5.1276946067810059e-01</leafValues></_>
    <_>
      <internalNodes>
        0 -1 1168864 1.7430543899536133e-02</internalNodes>
      <leafValues>
        -1.7636509239673615e-01 6.1907422542572021e-01</leafValues></_>
    <_>
      <internalNodes>
        0 -1 891903 -3.7983162328600883e-03</internalNodes>
      <leafValues>
        -7.8592252731323242e-01 1.3677042722702026e-01</leafValues></_>
    <_>
      <internalNodes>
        0 -1 720795 -1.7115870723500848e-03</internalNodes>
      <leafValues>
        5.6509047746658325e-01 -2.1983256936073303e-01</leafValues></_>
    <_>
      <internalNodes>
        0 -1 779906 5.5349515751004219e-03</internalNodes>
      <leafValues>
        -2.8554633259773254e-01 4.3132027983665466e-01</leafValues></_>
    <_>
      <internalNodes>
        0 -1 712111 -8.2194618880748749e-03</internalNodes>
      <leafValues>
        -7.9135370254516602e-01 1.6980910301208496e-01</leafValues></_>
    <_>
      <internalNodes>
        0 -1 824871 2.1285377442836761e-04</internalNodes>
      <leafValues>
        -4.3283787369728088e-01 2.4443435668945312e-01</leafValues></_>
    <_>
      <internalNodes>
        0 -1 1170953 1.1099341791123152e-03</internalNodes>
      <leafValues>
        1.5889163315296173e-01 -7.0687717199325562e-01</leafValues></_>
    <_>
      <internalNodes>
        0 -1 1037021 3.6559579893946648e-03</internalNodes>
      <leafValues>
        -2.8475999832153320e-01 3.5459855198860168e-01</leafValues></_></weakClassifiers></stage9>
</opencv_storage>
