<?xml version="1.0"?>
<opencv_storage>
<stage10>
  <maxWeakCount>34</maxWeakCount>
  <stageThreshold>-7.9290652275085449e-01</stageThreshold>
  <weakClassifiers>
    <_>
      <internalNodes>
        0 -1 272825 9.8049873486161232e-03</internalNodes>
      <leafValues>
        3.7533226609230042e-01 -8.1159418821334839e-01</leafValues></_>
    <_>
      <internalNodes>
        0 -1 33459 6.6685574129223824e-03</internalNodes>
      <leafValues>
        -1.4557066559791565e-01 3.5745811462402344e-01</leafValues></_>
    <_>
      <internalNodes>
        0 -1 5862 -1.6211714595556259e-02</internalNodes>
      <leafValues>
        5.5340248346328735e-01 -9.7544945776462555e-02</leafValues></_>
    <_>
      <internalNodes>
        0 -1 474635 1.2065724004060030e-03</internalNodes>
      <leafValues>
        -1.8649479746818542e-01 2.3707051575183868e-01</leafValues></_>
    <_>
      <internalNodes>
        0 -1 454594 -7.6990621164441109e-04</internalNodes>
      <leafValues>
        1.8052606284618378e-01 -2.7163484692573547e-01</leafValues></_>
    <_>
      <internalNodes>
        0 -1 400636 -1.7353633302263916e-04</internalNodes>
      <leafValues>
        2.6145356893539429e-01 -1.6850924491882324e-01</leafValues></_>
    <_>
      <internalNodes>
        0 -1 436407 -1.2491095112636685e-03</internalNodes>
      <leafValues>
        3.4719464182853699e-01 -1.8663711845874786e-01</leafValues></_>
    <_>
      <internalNodes>
        0 -1 401342 -7.1637872606515884e-03</internalNodes>
      <leafValues>
        -7.2762846946716309e-01 7.9564496874809265e-02</leafValues></_>
    <_>
      <internalNodes>
        0 -1 474146 -8.7451227009296417e-03</internalNodes>
      <leafValues>
        5.0695919990539551e-01 -1.1588520556688309e-01</leafValues></_>
    <_>
      <internalNodes>
        0 -1 395124 -1.2124369386583567e-03</internalNodes>
      <leafValues>
        2.4109530448913574e-01 -2.2272372245788574e-01</leafValues></_>
    <_>
      <internalNodes>
        0 -1 470734 3.5556652583181858e-03</internalNodes>
      <leafValues>
        7.3028437793254852e-02 -7.0264554023742676e-01</leafValues></_>
    <_>
      <internalNodes>
        0 -1 253154 7.8892372548580170e-03</internalNodes>
      <leafValues>
        6.9615751504898071e-02 -6.2753248214721680e-01</leafValues></_>
    <_>
      <internalNodes>
        0 -1 114835 6.5808808431029320e-03</internalNodes>
      <leafValues>
        -1.2985934317111969e-01 4.1082364320755005e-01</leafValues></_>
    <_>
      <internalNodes>
        0 -1 400225 -5.4211653769016266e-03</internalNodes>
      <leafValues>
        2.7258720993995667e-01 -1.8411955237388611e-01</leafValues></_>
    <_>
      <internalNodes>
        0 -1 9884 -4.9489904195070267e-03</internalNodes>
      <leafValues>
        2.2992528975009918e-01 -2.0408166944980621e-01</leafValues></_>
    <_>
      <internalNodes>
        0 -1 381308 -8.1349455285817385e-04</internalNodes>
      <leafValues>
        2.2112734615802765e-01 -2.3173139989376068e-01</leafValues></_>
    <_>
      <internalNodes>
        0 -1 359668 -3.9207097142934799e-03</internalNodes>
      <leafValues>
        5.4636573791503906e-01 -1.0250324010848999e-01</leafValues></_>
    <_>
      <internalNodes>
        0 -1 478012 -3.0957732815295458e-04</internalNodes>
      <leafValues>
        -4.6552956104278564e-01 1.0894582420587540e-01</leafValues></_>
    <_>
      <internalNodes>
        0 -1 325596 -1.2515290291048586e-04</internalNodes>
      <leafValues>
        2.1461077034473419e-01 -2.0575128495693207e-01</leafValues></_>
    <_>
      <internalNodes>
        0 -1 453729 -9.5651310402899981e-04</internalNodes>
      <leafValues>
        2.7023333311080933e-01 -1.6343271732330322e-01</leafValues></_>
    <_>
      <internalNodes>
        0 -1 168457 2.8632567264139652e-03</internalNodes>
      <leafValues>
        -1.6915550827980042e-01 2.4650327861309052e-01</leafValues></_>
    <_>
      <internalNodes>
        0 -1 175055 -7.9493671655654907e-03</internalNodes>
      <leafValues>
        -7.8446453809738159e-01 5.8860134333372116e-02</leafValues></_>
    <_>
      <internalNodes>
        0 -1 470277 -1.6821056604385376e-02</internalNodes>
      <leafValues>
        -6.3976299762725830e-01 5.8464013040065765e-02</leafValues></_>
    <_>
      <internalNodes>
        0 -1 251570 -2.3152393987402320e-04</internalNodes>
      <leafValues>
        -4.5432782173156738e-01 9.2053003609180450e-02</leafValues></_>
    <_>
      <internalNodes>
        0 -1 43463 -1.3688015751540661e-03</internalNodes>
      <leafValues>
        2.7951869368553162e-01 -1.6050782799720764e-01</leafValues></_>
    <_>
      <internalNodes>
        0 -1 9533 2.9387036338448524e-03</internalNodes>
      <leafValues>
        -1.2803570926189423e-01 3.4771966934204102e-01</leafValues></_>
    <_>
      <internalNodes>
        0 -1 449058 6.9666737690567970e-03</internalNodes>
      <leafValues>
        7.4170254170894623e-02 -6.2575209140777588e-01</leafValues></_>
    <_>
      <internalNodes>
        0 -1 368465 -1.2165148509666324e-03</internalNodes>
      <leafValues>
        2.8506037592887878e-01 -1.4875087141990662e-01</leafValues></_>
    <_>
      <internalNodes>
        0 -1 5748 1.3550543226301670e-03</internalNodes>
      <leafValues>
        6.2303621321916580e-02 -7.1183389425277710e-01</leafValues></_>
    <_>
      <internalNodes>
        0 -1 93186 -9.0598389506340027e-03</internalNodes>
      <leafValues>
        -3.9409154653549194e-01 1.0134605318307877e-01</leafValues></_>
    <_>
      <internalNodes>
        0 -1 70538 -5.2481010789051652e-04</internalNodes>
      <leafValues>
        -3.5040032863616943e-01 1.1581242084503174e-01</leafValues></_>
    <_>
      <internalNodes>
        0 -1 212210 2.3364494554698467e-03</internalNodes>
      <leafValues>
        -1.4034478366374969e-01 3.2300466299057007e-01</leafValues></_>
    <_>
      <internalNodes>
        0 -1 331614 -3.9900955744087696e-04</internalNodes>
      <leafValues>
        3.4553357958793640e-01 -1.4424072206020355e-01</leafValues></_>
    <_>
      <internalNodes>
        0 -1 454478 -7.5463473331183195e-04</internalNodes>
      <leafValues>
        -5.0711375474929810e-01 9.5935054123401642e-02</leafValues></_></weakClassifiers></stage10>
</opencv_storage>
