<?xml version="1.0"?>
<opencv_storage>
<stage12>
  <maxWeakCount>14</maxWeakCount>
  <stageThreshold>-5.8603310585021973e-01</stageThreshold>
  <weakClassifiers>
    <_>
      <internalNodes>
        0 -1 798479 2.3654373944737017e-04</internalNodes>
      <leafValues>
        -4.9152541160583496e-01 4.4368860125541687e-01</leafValues></_>
    <_>
      <internalNodes>
        0 -1 961422 -5.1147013437002897e-04</internalNodes>
      <leafValues>
        2.9904708266258240e-01 -3.7015268206596375e-01</leafValues></_>
    <_>
      <internalNodes>
        0 -1 773471 3.2445689430460334e-04</internalNodes>
      <leafValues>
        -2.8151646256446838e-01 3.5002103447914124e-01</leafValues></_>
    <_>
      <internalNodes>
        0 -1 890281 -4.7036266187205911e-04</internalNodes>
      <leafValues>
        3.6494806408882141e-01 -3.0885174870491028e-01</leafValues></_>
    <_>
      <internalNodes>
        0 -1 829774 4.2478330433368683e-03</internalNodes>
      <leafValues>
        -2.1612443029880524e-01 7.2743690013885498e-01</leafValues></_>
    <_>
      <internalNodes>
        0 -1 28554 4.7931197332218289e-04</internalNodes>
      <leafValues>
        2.2914192080497742e-01 -5.9286236763000488e-01</leafValues></_>
    <_>
      <internalNodes>
        0 -1 1035444 -6.0316612944006920e-03</internalNodes>
      <leafValues>
        -8.8360351324081421e-01 1.1132524907588959e-01</leafValues></_>
    <_>
      <internalNodes>
        0 -1 1102923 1.9407495856285095e-02</internalNodes>
      <leafValues>
        -2.1817421913146973e-01 5.3261721134185791e-01</leafValues></_>
    <_>
      <internalNodes>
        0 -1 445210 1.9062932580709457e-02</internalNodes>
      <leafValues>
        -2.0250397920608521e-01 5.7421404123306274e-01</leafValues></_>
    <_>
      <internalNodes>
        0 -1 781961 -3.1535231391899288e-04</internalNodes>
      <leafValues>
        -6.7123717069625854e-01 1.7699401080608368e-01</leafValues></_>
    <_>
      <internalNodes>
        0 -1 796101 4.6464940533041954e-03</internalNodes>
      <leafValues>
        -2.0373547077178955e-01 5.2994805574417114e-01</leafValues></_>
    <_>
      <internalNodes>
        0 -1 696239 8.2731377333402634e-03</internalNodes>
      <leafValues>
        -1.5297225117683411e-01 7.0048338174819946e-01</leafValues></_>
    <_>
      <internalNodes>
        0 -1 859541 -1.0705728782340884e-03</internalNodes>
      <leafValues>
        -7.5775736570358276e-01 1.6528408229351044e-01</leafValues></_>
    <_>
      <internalNodes>
        0 -1 65961 1.4567019417881966e-02</internalNodes>
      <leafValues>
        -2.1554182469844818e-01 5.2054530382156372e-01</leafValues></_></weakClassifiers></stage12>
</opencv_storage>
