<?xml version="1.0"?>
<opencv_storage>
<stage1>
  <maxWeakCount>6</maxWeakCount>
  <stageThreshold>-7.3348039388656616e-01</stageThreshold>
  <weakClassifiers>
    <_>
      <internalNodes>
        0 -1 739284 1.9362322986125946e-02</internalNodes>
      <leafValues>
        -7.0960187911987305e-01 7.4836903810501099e-01</leafValues></_>
    <_>
      <internalNodes>
        0 -1 800653 2.3555508814752102e-03</internalNodes>
      <leafValues>
        -4.9909263849258423e-01 6.6009527444839478e-01</leafValues></_>
    <_>
      <internalNodes>
        0 -1 749860 8.0491174012422562e-03</internalNodes>
      <leafValues>
        -6.0417515039443970e-01 4.9183347821235657e-01</leafValues></_>
    <_>
      <internalNodes>
        0 -1 869061 -2.2406373172998428e-03</internalNodes>
      <leafValues>
        7.5449597835540771e-01 -3.8994035124778748e-01</leafValues></_>
    <_>
      <internalNodes>
        0 -1 530577 -3.0192332342267036e-03</internalNodes>
      <leafValues>
        6.9315427541732788e-01 -4.3782490491867065e-01</leafValues></_>
    <_>
      <internalNodes>
        0 -1 870236 9.6454517915844917e-04</internalNodes>
      <leafValues>
        -2.8061351180076599e-01 7.7617537975311279e-01</leafValues></_></weakClassifiers></stage1>
</opencv_storage>
