<?xml version="1.0"?>
<opencv_storage>
<stage0>
  <maxWeakCount>9</maxWeakCount>
  <stageThreshold>-1.0967549085617065e+00</stageThreshold>
  <weakClassifiers>
    <_>
      <internalNodes>
        0 -1 108768 -8.6754895746707916e-03</internalNodes>
      <leafValues>
        6.5494608879089355e-01 -4.5790082216262817e-01</leafValues></_>
    <_>
      <internalNodes>
        0 -1 57512 4.3641676893457770e-04</internalNodes>
      <leafValues>
        -5.3568768501281738e-01 4.7355419397354126e-01</leafValues></_>
    <_>
      <internalNodes>
        0 -1 5834 2.4358656257390976e-02</internalNodes>
      <leafValues>
        -2.2557953000068665e-01 8.4008431434631348e-01</leafValues></_>
    <_>
      <internalNodes>
        0 -1 37321 -2.7156192809343338e-02</internalNodes>
      <leafValues>
        6.0540616512298584e-01 -2.4200770258903503e-01</leafValues></_>
    <_>
      <internalNodes>
        0 -1 30218 1.3193315826356411e-02</internalNodes>
      <leafValues>
        -3.2076317071914673e-01 5.1313614845275879e-01</leafValues></_>
    <_>
      <internalNodes>
        0 -1 81998 1.0523911565542221e-02</internalNodes>
      <leafValues>
        1.3502144813537598e-01 -8.6136752367019653e-01</leafValues></_>
    <_>
      <internalNodes>
        0 -1 81604 4.4628111936617643e-05</internalNodes>
      <leafValues>
        -4.4528076052665710e-01 2.4130931496620178e-01</leafValues></_>
    <_>
      <internalNodes>
        0 -1 108447 -2.4866150692105293e-02</internalNodes>
      <leafValues>
        3.9443612098693848e-01 -2.6020145416259766e-01</leafValues></_>
    <_>
      <internalNodes>
        0 -1 48856 -3.5282941535115242e-03</internalNodes>
      <leafValues>
        -7.0103704929351807e-01 1.4279782772064209e-01</leafValues></_></weakClassifiers></stage0>
</opencv_storage>
