<?xml version="1.0"?>
<opencv_storage>
<stage1>
  <maxWeakCount>9</maxWeakCount>
  <stageThreshold>-5.6351333856582642e-01</stageThreshold>
  <weakClassifiers>
    <_>
      <internalNodes>
        0 -1 452301 -4.0401022881269455e-02</internalNodes>
      <leafValues>
        7.5907588005065918e-01 -1.0101009905338287e-01</leafValues></_>
    <_>
      <internalNodes>
        0 -1 2235699 2.6474505662918091e-02</internalNodes>
      <leafValues>
        -1.5493971109390259e-01 7.2860622406005859e-01</leafValues></_>
    <_>
      <internalNodes>
        0 -1 1235852 4.3640539050102234e-02</internalNodes>
      <leafValues>
        -1.7570485174655914e-01 8.4586536884307861e-01</leafValues></_>
    <_>
      <internalNodes>
        0 -1 239759 -7.7472785487771034e-03</internalNodes>
      <leafValues>
        6.5649241209030151e-01 -2.1979439258575439e-01</leafValues></_>
    <_>
      <internalNodes>
        0 -1 125174 1.0388658381998539e-02</internalNodes>
      <leafValues>
        -2.3492333292961121e-01 6.2141221761703491e-01</leafValues></_>
    <_>
      <internalNodes>
        0 -1 1744489 1.3225135393440723e-02</internalNodes>
      <leafValues>
        -2.2512695193290710e-01 6.3635194301605225e-01</leafValues></_>
    <_>
      <internalNodes>
        0 -1 2413236 -3.4720913972705603e-03</internalNodes>
      <leafValues>
        6.1761981248855591e-01 -2.3093912005424500e-01</leafValues></_>
    <_>
      <internalNodes>
        0 -1 2025347 -5.9982361271977425e-03</internalNodes>
      <leafValues>
        6.0397076606750488e-01 -2.2540597617626190e-01</leafValues></_>
    <_>
      <internalNodes>
        0 -1 457790 -7.3905661702156067e-04</internalNodes>
      <leafValues>
        -7.5550162792205811e-01 2.0702207088470459e-01</leafValues></_></weakClassifiers></stage1>
</opencv_storage>
