<?xml version="1.0"?>
<opencv_storage>
<stage13>
  <maxWeakCount>14</maxWeakCount>
  <stageThreshold>-7.4683308601379395e-01</stageThreshold>
  <weakClassifiers>
    <_>
      <internalNodes>
        0 -1 878223 -3.2062376849353313e-03</internalNodes>
      <leafValues>
        -7.4311923980712891e-01 4.1768512129783630e-01</leafValues></_>
    <_>
      <internalNodes>
        0 -1 823708 6.5809488296508789e-03</internalNodes>
      <leafValues>
        -1.8163010478019714e-01 4.9670991301536560e-01</leafValues></_>
    <_>
      <internalNodes>
        0 -1 1164282 -6.1209294945001602e-03</internalNodes>
      <leafValues>
        4.9060696363449097e-01 -2.0158280432224274e-01</leafValues></_>
    <_>
      <internalNodes>
        0 -1 790574 -5.3250542841851711e-03</internalNodes>
      <leafValues>
        4.1312405467033386e-01 -2.7038514614105225e-01</leafValues></_>
    <_>
      <internalNodes>
        0 -1 699874 5.3078904747962952e-03</internalNodes>
      <leafValues>
        -1.3478119671344757e-01 7.7219009399414062e-01</leafValues></_>
    <_>
      <internalNodes>
        0 -1 904058 2.2488762624561787e-03</internalNodes>
      <leafValues>
        1.8031466007232666e-01 -7.4875509738922119e-01</leafValues></_>
    <_>
      <internalNodes>
        0 -1 958538 -3.1592587474733591e-03</internalNodes>
      <leafValues>
        6.6196888685226440e-01 -1.8371435999870300e-01</leafValues></_>
    <_>
      <internalNodes>
        0 -1 771849 1.0623656213283539e-02</internalNodes>
      <leafValues>
        1.5010738372802734e-01 -8.0713993310928345e-01</leafValues></_>
    <_>
      <internalNodes>
        0 -1 748226 -4.0437054121866822e-04</internalNodes>
      <leafValues>
        4.4861146807670593e-01 -2.3009061813354492e-01</leafValues></_>
    <_>
      <internalNodes>
        0 -1 754903 4.8163533210754395e-04</internalNodes>
      <leafValues>
        1.2767414748668671e-01 -7.5106060504913330e-01</leafValues></_>
    <_>
      <internalNodes>
        0 -1 800547 2.3464963305741549e-04</internalNodes>
      <leafValues>
        -3.4517717361450195e-01 2.8151759505271912e-01</leafValues></_>
    <_>
      <internalNodes>
        0 -1 1096931 -4.9420963041484356e-03</internalNodes>
      <leafValues>
        3.5261100530624390e-01 -2.8798902034759521e-01</leafValues></_>
    <_>
      <internalNodes>
        0 -1 1130022 3.6642904160544276e-04</internalNodes>
      <leafValues>
        1.5515629947185516e-01 -6.8928188085556030e-01</leafValues></_>
    <_>
      <internalNodes>
        0 -1 956875 2.6228523347526789e-04</internalNodes>
      <leafValues>
        -3.7228906154632568e-01 2.7532318234443665e-01</leafValues></_></weakClassifiers></stage13>
</opencv_storage>
