<?xml version="1.0"?>
<opencv_storage>
<stage11>
  <maxWeakCount>12</maxWeakCount>
  <stageThreshold>-5.8591485023498535e-01</stageThreshold>
  <weakClassifiers>
    <_>
      <internalNodes>
        0 -1 471695 1.0842191986739635e-03</internalNodes>
      <leafValues>
        -5.1578944921493530e-01 4.5648854970932007e-01</leafValues></_>
    <_>
      <internalNodes>
        0 -1 849714 1.4415346086025238e-03</internalNodes>
      <leafValues>
        -2.0259912312030792e-01 5.7881230115890503e-01</leafValues></_>
    <_>
      <internalNodes>
        0 -1 913128 -1.1749863624572754e-02</internalNodes>
      <leafValues>
        -8.2391285896301270e-01 1.5056453645229340e-01</leafValues></_>
    <_>
      <internalNodes>
        0 -1 1132749 1.6451485455036163e-02</internalNodes>
      <leafValues>
        -1.3605822622776031e-01 9.4755107164382935e-01</leafValues></_>
    <_>
      <internalNodes>
        0 -1 288293 -4.2847502045333385e-03</internalNodes>
      <leafValues>
        5.7941412925720215e-01 -2.1126352250576019e-01</leafValues></_>
    <_>
      <internalNodes>
        0 -1 799562 1.5199451008811593e-03</internalNodes>
      <leafValues>
        -5.7647615671157837e-01 2.0484818518161774e-01</leafValues></_>
    <_>
      <internalNodes>
        0 -1 854966 -2.9549964237958193e-03</internalNodes>
      <leafValues>
        6.9097614288330078e-01 -1.7991006374359131e-01</leafValues></_>
    <_>
      <internalNodes>
        0 -1 693346 3.3346332609653473e-02</internalNodes>
      <leafValues>
        1.5073463320732117e-01 -8.9229434728622437e-01</leafValues></_>
    <_>
      <internalNodes>
        0 -1 799832 -3.3207032829523087e-02</internalNodes>
      <leafValues>
        -7.8830718994140625e-01 1.1351475119590759e-01</leafValues></_>
    <_>
      <internalNodes>
        0 -1 979270 1.0848002508282661e-02</internalNodes>
      <leafValues>
        1.4426860213279724e-01 -7.1694457530975342e-01</leafValues></_>
    <_>
      <internalNodes>
        0 -1 1170795 -3.4682955592870712e-03</internalNodes>
      <leafValues>
        -7.8291863203048706e-01 9.8843358457088470e-02</leafValues></_>
    <_>
      <internalNodes>
        0 -1 767809 6.9759408943355083e-03</internalNodes>
      <leafValues>
        -1.7213276028633118e-01 6.5939211845397949e-01</leafValues></_></weakClassifiers></stage11>
</opencv_storage>
