<?xml version="1.0"?>
<opencv_storage>
<stage5>
  <maxWeakCount>12</maxWeakCount>
  <stageThreshold>-7.0898610353469849e-01</stageThreshold>
  <weakClassifiers>
    <_>
      <internalNodes>
        0 -1 957033 6.5410404931753874e-04</internalNodes>
      <leafValues>
        -7.5880758464336395e-02 7.2965878248214722e-01</leafValues></_>
    <_>
      <internalNodes>
        0 -1 821364 2.1468573249876499e-03</internalNodes>
      <leafValues>
        -2.1581988036632538e-01 6.6217809915542603e-01</leafValues></_>
    <_>
      <internalNodes>
        0 -1 1037021 5.7318559847772121e-03</internalNodes>
      <leafValues>
        -2.5459313392639160e-01 5.8377134799957275e-01</leafValues></_>
    <_>
      <internalNodes>
        0 -1 2689 1.0230809450149536e-02</internalNodes>
      <leafValues>
        -2.1226340532302856e-01 7.7041929960250854e-01</leafValues></_>
    <_>
      <internalNodes>
        0 -1 74284 3.3493568189442158e-03</internalNodes>
      <leafValues>
        -3.8505199551582336e-01 4.1467320919036865e-01</leafValues></_>
    <_>
      <internalNodes>
        0 -1 743872 -3.5123135894536972e-03</internalNodes>
      <leafValues>
        5.1581645011901855e-01 -2.7461206912994385e-01</leafValues></_>
    <_>
      <internalNodes>
        0 -1 173318 -9.2796273529529572e-03</internalNodes>
      <leafValues>
        3.4656944870948792e-01 -4.6398189663887024e-01</leafValues></_>
    <_>
      <internalNodes>
        0 -1 1047443 3.2665203325450420e-03</internalNodes>
      <leafValues>
        -2.4087424576282501e-01 5.9759706258773804e-01</leafValues></_>
    <_>
      <internalNodes>
        0 -1 919066 2.8854273841716349e-04</internalNodes>
      <leafValues>
        -6.9487982988357544e-01 2.3511236906051636e-01</leafValues></_>
    <_>
      <internalNodes>
        0 -1 940808 -7.1486625820398331e-03</internalNodes>
      <leafValues>
        -8.8275831937789917e-01 1.2378980219364166e-01</leafValues></_>
    <_>
      <internalNodes>
        0 -1 831615 4.3179914355278015e-03</internalNodes>
      <leafValues>
        -2.1971026062965393e-01 7.8287225961685181e-01</leafValues></_>
    <_>
      <internalNodes>
        0 -1 849714 9.9147600121796131e-04</internalNodes>
      <leafValues>
        -2.3917585611343384e-01 5.6669497489929199e-01</leafValues></_></weakClassifiers></stage5>
</opencv_storage>
