<?xml version="1.0"?>
<opencv_storage>
<stage10>
  <maxWeakCount>37</maxWeakCount>
  <stageThreshold>-9.4595795869827271e-01</stageThreshold>
  <weakClassifiers>
    <_>
      <internalNodes>
        0 -1 311852 -2.8537428006529808e-03</internalNodes>
      <leafValues>
        -1.4243759214878082e-01 4.2950430512428284e-01</leafValues></_>
    <_>
      <internalNodes>
        0 -1 356586 -1.3412584085017443e-03</internalNodes>
      <leafValues>
        3.3694246411323547e-01 -1.1925093829631805e-01</leafValues></_>
    <_>
      <internalNodes>
        0 -1 85626 -2.0492952316999435e-02</internalNodes>
      <leafValues>
        3.3614772558212280e-01 -1.2076030671596527e-01</leafValues></_>
    <_>
      <internalNodes>
        0 -1 224721 6.6409092396497726e-03</internalNodes>
      <leafValues>
        -1.5441794693470001e-01 3.2399821281433105e-01</leafValues></_>
    <_>
      <internalNodes>
        0 -1 33089 -2.5683581829071045e-02</internalNodes>
      <leafValues>
        3.3608967065811157e-01 -1.2407371401786804e-01</leafValues></_>
    <_>
      <internalNodes>
        0 -1 277976 -7.6902459841221571e-04</internalNodes>
      <leafValues>
        3.1154939532279968e-01 -1.5263830125331879e-01</leafValues></_>
    <_>
      <internalNodes>
        0 -1 169009 1.3950234279036522e-02</internalNodes>
      <leafValues>
        9.7838938236236572e-02 -4.6041446924209595e-01</leafValues></_>
    <_>
      <internalNodes>
        0 -1 31898 -4.2690611444413662e-03</internalNodes>
      <leafValues>
        -6.6014903783798218e-01 8.1066474318504333e-02</leafValues></_>
    <_>
      <internalNodes>
        0 -1 454478 -1.1372973676770926e-03</internalNodes>
      <leafValues>
        -5.3846108913421631e-01 7.5666807591915131e-02</leafValues></_>
    <_>
      <internalNodes>
        0 -1 70438 -6.2471054494380951e-02</internalNodes>
      <leafValues>
        -7.3405456542968750e-01 4.6440150588750839e-02</leafValues></_>
    <_>
      <internalNodes>
        0 -1 244891 -1.2116298079490662e-02</internalNodes>
      <leafValues>
        -6.4559811353683472e-01 6.0279548168182373e-02</leafValues></_>
    <_>
      <internalNodes>
        0 -1 337788 -1.0324581526219845e-02</internalNodes>
      <leafValues>
        4.1780874133110046e-01 -9.6646085381507874e-02</leafValues></_>
    <_>
      <internalNodes>
        0 -1 474283 7.5087621808052063e-03</internalNodes>
      <leafValues>
        -1.0952420532703400e-01 4.4816446304321289e-01</leafValues></_>
    <_>
      <internalNodes>
        0 -1 14588 4.5491620898246765e-02</internalNodes>
      <leafValues>
        -8.9991725981235504e-02 4.8468077182769775e-01</leafValues></_>
    <_>
      <internalNodes>
        0 -1 113185 1.8433623015880585e-02</internalNodes>
      <leafValues>
        -9.6256367862224579e-02 4.4633054733276367e-01</leafValues></_>
    <_>
      <internalNodes>
        0 -1 27961 -6.9589158520102501e-03</internalNodes>
      <leafValues>
        2.7326291799545288e-01 -1.5701191127300262e-01</leafValues></_>
    <_>
      <internalNodes>
        0 -1 329619 -8.1351445987820625e-04</internalNodes>
      <leafValues>
        2.7117070555686951e-01 -1.6036990284919739e-01</leafValues></_>
    <_>
      <internalNodes>
        0 -1 209728 2.7003784198313951e-03</internalNodes>
      <leafValues>
        -1.5165059268474579e-01 3.0377545952796936e-01</leafValues></_>
    <_>
      <internalNodes>
        0 -1 171865 -8.9162366930395365e-04</internalNodes>
      <leafValues>
        2.6960846781730652e-01 -1.5471039712429047e-01</leafValues></_>
    <_>
      <internalNodes>
        0 -1 189412 -1.1332701891660690e-02</internalNodes>
      <leafValues>
        4.6782535314559937e-01 -8.3094999194145203e-02</leafValues></_>
    <_>
      <internalNodes>
        0 -1 186481 -6.7944433540105820e-03</internalNodes>
      <leafValues>
        -6.3862860202789307e-01 6.8831823766231537e-02</leafValues></_>
    <_>
      <internalNodes>
        0 -1 27950 2.2150198929011822e-03</internalNodes>
      <leafValues>
        4.9148995429277420e-02 -7.4922639131546021e-01</leafValues></_>
    <_>
      <internalNodes>
        0 -1 272999 1.5326289576478302e-04</internalNodes>
      <leafValues>
        -1.9608794152736664e-01 2.1493275463581085e-01</leafValues></_>
    <_>
      <internalNodes>
        0 -1 355890 -5.9285468887537718e-04</internalNodes>
      <leafValues>
        2.4301292002201080e-01 -1.8190005421638489e-01</leafValues></_>
    <_>
      <internalNodes>
        0 -1 2814 -1.9393093883991241e-02</internalNodes>
      <leafValues>
        2.4941772222518921e-01 -1.8821191787719727e-01</leafValues></_>
    <_>
      <internalNodes>
        0 -1 5857 1.2440689839422703e-02</internalNodes>
      <leafValues>
        -8.8935390114784241e-02 4.8864021897315979e-01</leafValues></_>
    <_>
      <internalNodes>
        0 -1 17481 -9.7615523263812065e-03</internalNodes>
      <leafValues>
        4.9068230390548706e-01 -1.0778619349002838e-01</leafValues></_>
    <_>
      <internalNodes>
        0 -1 479412 -9.6859934274107218e-05</internalNodes>
      <leafValues>
        -2.8626978397369385e-01 1.4835260808467865e-01</leafValues></_>
    <_>
      <internalNodes>
        0 -1 346554 6.1076819896697998e-02</internalNodes>
      <leafValues>
        4.9665905535221100e-02 -7.0624887943267822e-01</leafValues></_>
    <_>
      <internalNodes>
        0 -1 352715 -4.0416000410914421e-03</internalNodes>
      <leafValues>
        5.3648680448532104e-01 -8.9794002473354340e-02</leafValues></_>
    <_>
      <internalNodes>
        0 -1 171844 -3.8655329262837768e-04</internalNodes>
      <leafValues>
        2.1385636925697327e-01 -1.9182702898979187e-01</leafValues></_>
    <_>
      <internalNodes>
        0 -1 2366 -3.7912977859377861e-03</internalNodes>
      <leafValues>
        -4.4040411710739136e-01 9.7838677465915680e-02</leafValues></_>
    <_>
      <internalNodes>
        0 -1 401873 -5.2053099498152733e-03</internalNodes>
      <leafValues>
        -6.7411333322525024e-01 6.1122883111238480e-02</leafValues></_>
    <_>
      <internalNodes>
        0 -1 470178 -1.6899611800909042e-02</internalNodes>
      <leafValues>
        5.0453001260757446e-01 -9.1927424073219299e-02</leafValues></_>
    <_>
      <internalNodes>
        0 -1 464687 6.0048662126064301e-03</internalNodes>
      <leafValues>
        -1.0654456168413162e-01 3.9854589104652405e-01</leafValues></_>
    <_>
      <internalNodes>
        0 -1 9355 4.4043781235814095e-03</internalNodes>
      <leafValues>
        6.1916444450616837e-02 -6.9329571723937988e-01</leafValues></_>
    <_>
      <internalNodes>
        0 -1 7567 -2.9388894326984882e-03</internalNodes>
      <leafValues>
        -5.6455689668655396e-01 6.7040383815765381e-02</leafValues></_></weakClassifiers></stage10>
</opencv_storage>
