<?xml version="1.0"?>
<opencv_storage>
<stage7>
  <maxWeakCount>18</maxWeakCount>
  <stageThreshold>-6.7204111814498901e-01</stageThreshold>
  <weakClassifiers>
    <_>
      <internalNodes>
        0 -1 50410 3.3055822132155299e-04</internalNodes>
      <leafValues>
        -8.8204041123390198e-02 5.2598351240158081e-01</leafValues></_>
    <_>
      <internalNodes>
        0 -1 120771 -1.3483876362442970e-02</internalNodes>
      <leafValues>
        5.9035301208496094e-01 -1.3388036191463470e-01</leafValues></_>
    <_>
      <internalNodes>
        0 -1 33205 7.2028622031211853e-02</internalNodes>
      <leafValues>
        1.2641061842441559e-01 -6.4900553226470947e-01</leafValues></_>
    <_>
      <internalNodes>
        0 -1 105493 -2.0022322132717818e-04</internalNodes>
      <leafValues>
        2.1357908844947815e-01 -3.2172420620918274e-01</leafValues></_>
    <_>
      <internalNodes>
        0 -1 99852 3.7182628875598311e-04</internalNodes>
      <leafValues>
        -3.0612006783485413e-01 2.3535627126693726e-01</leafValues></_>
    <_>
      <internalNodes>
        0 -1 65731 5.2401423454284668e-03</internalNodes>
      <leafValues>
        1.1511822044849396e-01 -7.3555964231491089e-01</leafValues></_>
    <_>
      <internalNodes>
        0 -1 4597 2.4578872323036194e-01</internalNodes>
      <leafValues>
        -1.4734257757663727e-01 5.0295794010162354e-01</leafValues></_>
    <_>
      <internalNodes>
        0 -1 81366 5.5960342288017273e-03</internalNodes>
      <leafValues>
        6.7915618419647217e-02 -7.8874462842941284e-01</leafValues></_>
    <_>
      <internalNodes>
        0 -1 91017 -8.7870616698637605e-04</internalNodes>
      <leafValues>
        3.1876727938652039e-01 -2.0957557857036591e-01</leafValues></_>
    <_>
      <internalNodes>
        0 -1 70269 -6.0558148106792942e-05</internalNodes>
      <leafValues>
        2.2765356302261353e-01 -2.8791502118110657e-01</leafValues></_>
    <_>
      <internalNodes>
        0 -1 86790 6.4741674577817321e-04</internalNodes>
      <leafValues>
        -2.7568057179450989e-01 2.3377838730812073e-01</leafValues></_>
    <_>
      <internalNodes>
        0 -1 124467 -1.3703972101211548e-02</internalNodes>
      <leafValues>
        6.6641962528228760e-01 -1.0073556005954742e-01</leafValues></_>
    <_>
      <internalNodes>
        0 -1 57934 -7.7070444822311401e-03</internalNodes>
      <leafValues>
        3.0317634344100952e-01 -1.9245506823062897e-01</leafValues></_>
    <_>
      <internalNodes>
        0 -1 45853 1.2604119256138802e-03</internalNodes>
      <leafValues>
        -2.7359914779663086e-01 2.7160948514938354e-01</leafValues></_>
    <_>
      <internalNodes>
        0 -1 9205 -3.7979759275913239e-02</internalNodes>
      <leafValues>
        4.4909444451332092e-01 -1.4568653702735901e-01</leafValues></_>
    <_>
      <internalNodes>
        0 -1 74592 6.7581213079392910e-04</internalNodes>
      <leafValues>
        -3.0202314257621765e-01 2.2238036990165710e-01</leafValues></_>
    <_>
      <internalNodes>
        0 -1 10818 -6.6134177148342133e-02</internalNodes>
      <leafValues>
        4.7417625784873962e-01 -1.3787572085857391e-01</leafValues></_>
    <_>
      <internalNodes>
        0 -1 59734 3.1494558788836002e-04</internalNodes>
      <leafValues>
        -2.2586002945899963e-01 2.7255129814147949e-01</leafValues></_></weakClassifiers></stage7>
</opencv_storage>
