<?xml version="1.0"?>
<opencv_storage>
<stage3>
  <maxWeakCount>13</maxWeakCount>
  <stageThreshold>-7.2739422321319580e-01</stageThreshold>
  <weakClassifiers>
    <_>
      <internalNodes>
        0 -1 85560 1.9868817180395126e-02</internalNodes>
      <leafValues>
        -8.6922474205493927e-02 6.4480555057525635e-01</leafValues></_>
    <_>
      <internalNodes>
        0 -1 19330 -5.3174961358308792e-03</internalNodes>
      <leafValues>
        4.1939145326614380e-01 -2.7655011415481567e-01</leafValues></_>
    <_>
      <internalNodes>
        0 -1 73271 1.5500558540225029e-02</internalNodes>
      <leafValues>
        -2.8097259998321533e-01 3.6618316173553467e-01</leafValues></_>
    <_>
      <internalNodes>
        0 -1 113399 -1.0568017140030861e-02</internalNodes>
      <leafValues>
        2.0904076099395752e-01 -4.6613284945487976e-01</leafValues></_>
    <_>
      <internalNodes>
        0 -1 117013 -4.7947751590982080e-04</internalNodes>
      <leafValues>
        2.5381040573120117e-01 -3.5541111230850220e-01</leafValues></_>
    <_>
      <internalNodes>
        0 -1 58859 6.7120119638275355e-05</internalNodes>
      <leafValues>
        -4.2674279212951660e-01 1.7885844409465790e-01</leafValues></_>
    <_>
      <internalNodes>
        0 -1 81999 -2.4259947240352631e-03</internalNodes>
      <leafValues>
        -6.0721844434738159e-01 1.2129177153110504e-01</leafValues></_>
    <_>
      <internalNodes>
        0 -1 15067 -6.1453498899936676e-02</internalNodes>
      <leafValues>
        5.5275630950927734e-01 -1.4803555607795715e-01</leafValues></_>
    <_>
      <internalNodes>
        0 -1 36364 2.0242065191268921e-02</internalNodes>
      <leafValues>
        -2.1309754252433777e-01 5.1914054155349731e-01</leafValues></_>
    <_>
      <internalNodes>
        0 -1 113260 1.3240320608019829e-02</internalNodes>
      <leafValues>
        -1.4107255637645721e-01 6.2311369180679321e-01</leafValues></_>
    <_>
      <internalNodes>
        0 -1 120662 -7.2426555561833084e-05</internalNodes>
      <leafValues>
        2.5188779830932617e-01 -3.3754393458366394e-01</leafValues></_>
    <_>
      <internalNodes>
        0 -1 88891 3.6639361642301083e-03</internalNodes>
      <leafValues>
        1.0723529011011124e-01 -8.6090928316116333e-01</leafValues></_>
    <_>
      <internalNodes>
        0 -1 5095 -2.4423757568001747e-03</internalNodes>
      <leafValues>
        3.6976897716522217e-01 -2.2388409078121185e-01</leafValues></_></weakClassifiers></stage3>
</opencv_storage>
