<?xml version="1.0"?>
<opencv_storage>
<cascade>
  <stageType>BOOST</stageType>
  <featureType>HAAR</featureType>
  <height>50</height>
  <width>25</width>
  <stageParams>
    <boostType>GAB</boostType>
    <minHitRate>9.9500000476837158e-01</minHitRate>
    <maxFalseAlarm>5.0000000000000000e-01</maxFalseAlarm>
    <weightTrimRate>9.4999999999999996e-01</weightTrimRate>
    <maxDepth>1</maxDepth>
    <maxWeakCount>100</maxWeakCount></stageParams>
  <featureParams>
    <maxCatCount>0</maxCatCount>
    <featSize>1</featSize>
    <mode>ALL</mode></featureParams>
  <stageNum>15</stageNum>
  <stages>
    <!-- stage 0 -->
    <_>
      <maxWeakCount>3</maxWeakCount>
      <stageThreshold>-1.2741911411285400e+00</stageThreshold>
      <weakClassifiers>
        <_>
          <internalNodes>
            0 -1 53 1.9980620592832565e-02</internalNodes>
          <leafValues>
            -8.0425530672073364e-01 8.5242718458175659e-01</leafValues></_>
        <_>
          <internalNodes>
            0 -1 60 6.0189522802829742e-02</internalNodes>
          <leafValues>
            -8.1366926431655884e-01 6.0737293958663940e-01</leafValues></_>
        <_>
          <internalNodes>
            0 -1 87 1.0869749821722507e-03</internalNodes>
          <leafValues>
            -7.2638809680938721e-01 3.4373340010643005e-01</leafValues></_></weakClassifiers></_>
    <!-- stage 1 -->
    <_>
      <maxWeakCount>5</maxWeakCount>
      <stageThreshold>-6.5347057580947876e-01</stageThreshold>
      <weakClassifiers>
        <_>
          <internalNodes>
            0 -1 76 8.7446309626102448e-02</internalNodes>
          <leafValues>
            -6.8275862932205200e-01 7.4835681915283203e-01</leafValues></_>
        <_>
          <internalNodes>
            0 -1 40 1.5155443921685219e-02</internalNodes>
          <leafValues>
            -7.9881310462951660e-01 4.7692340612411499e-01</leafValues></_>
        <_>
          <internalNodes>
            0 -1 51 -1.8569331150501966e-03</internalNodes>
          <leafValues>
            6.6276443004608154e-01 -3.9173907041549683e-01</leafValues></_>
        <_>
          <internalNodes>
            0 -1 22 -4.2254747822880745e-03</internalNodes>
          <leafValues>
            4.6213126182556152e-01 -4.7484526038169861e-01</leafValues></_>
        <_>
          <internalNodes>
            0 -1 178 -6.7224330268800259e-03</internalNodes>
          <leafValues>
            8.0996423959732056e-01 -2.9679453372955322e-01</leafValues></_></weakClassifiers></_>
    <!-- stage 2 -->
    <_>
      <maxWeakCount>7</maxWeakCount>
      <stageThreshold>-9.7890985012054443e-01</stageThreshold>
      <weakClassifiers>
        <_>
          <internalNodes>
            0 -1 100 1.8210094422101974e-02</internalNodes>
          <leafValues>
            -6.3862925767898560e-01 5.9796440601348877e-01</leafValues></_>
        <_>
          <internalNodes>
            0 -1 35 -3.0352810863405466e-03</internalNodes>
          <leafValues>
            6.0195326805114746e-01 -2.8509324789047241e-01</leafValues></_>
        <_>
          <internalNodes>
            0 -1 156 -1.5568889211863279e-03</internalNodes>
          <leafValues>
            7.0530200004577637e-01 -2.8999927639961243e-01</leafValues></_>
        <_>
          <internalNodes>
            0 -1 167 2.7907020412385464e-03</internalNodes>
          <leafValues>
            -2.8016158938407898e-01 7.0030748844146729e-01</leafValues></_>
        <_>
          <internalNodes>
            0 -1 49 7.9498998820781708e-03</internalNodes>
          <leafValues>
            -6.7332863807678223e-01 3.2313379645347595e-01</leafValues></_>
        <_>
          <internalNodes>
            0 -1 109 -4.8536788672208786e-03</internalNodes>
          <leafValues>
            2.4656155705451965e-01 -7.6188367605209351e-01</leafValues></_>
        <_>
          <internalNodes>
            0 -1 64 -2.7479105629026890e-03</internalNodes>
          <leafValues>
            7.0476526021957397e-01 -2.6687684655189514e-01</leafValues></_></weakClassifiers></_>
    <!-- stage 3 -->
    <_>
      <maxWeakCount>10</maxWeakCount>
      <stageThreshold>-7.2202479839324951e-01</stageThreshold>
      <weakClassifiers>
        <_>
          <internalNodes>
            0 -1 106 1.9233550410717726e-03</internalNodes>
          <leafValues>
            -3.4134614467620850e-01 5.9225094318389893e-01</leafValues></_>
        <_>
          <internalNodes>
            0 -1 71 1.5701662749052048e-02</internalNodes>
          <leafValues>
            -1.3831953704357147e-01 7.6255410909652710e-01</leafValues></_>
        <_>
          <internalNodes>
            0 -1 12 -6.2916376627981663e-03</internalNodes>
          <leafValues>
            7.1100455522537231e-01 -1.8321675062179565e-01</leafValues></_>
        <_>
          <internalNodes>
            0 -1 181 7.4888803064823151e-03</internalNodes>
          <leafValues>
            -1.9062004983425140e-01 7.6144850254058838e-01</leafValues></_>
        <_>
          <internalNodes>
            0 -1 142 -2.7141242753714323e-03</internalNodes>
          <leafValues>
            6.2013095617294312e-01 -2.5127434730529785e-01</leafValues></_>
        <_>
          <internalNodes>
            0 -1 38 4.8995167016983032e-03</internalNodes>
          <leafValues>
            -7.1595239639282227e-01 2.1355748176574707e-01</leafValues></_>
        <_>
          <internalNodes>
            0 -1 170 -1.0225317673757672e-03</internalNodes>
          <leafValues>
            5.9883475303649902e-01 -2.6689106225967407e-01</leafValues></_>
        <_>
          <internalNodes>
            0 -1 29 6.3115553930401802e-03</internalNodes>
          <leafValues>
            -2.8381162881851196e-01 4.9573975801467896e-01</leafValues></_>
        <_>
          <internalNodes>
            0 -1 160 -1.8598651513457298e-03</internalNodes>
          <leafValues>
            5.8832693099975586e-01 -2.7121624350547791e-01</leafValues></_>
        <_>
          <internalNodes>
            0 -1 107 1.7377613112330437e-02</internalNodes>
          <leafValues>
            2.1889720857143402e-01 -7.7548593282699585e-01</leafValues></_></weakClassifiers></_>
    <!-- stage 4 -->
    <_>
      <maxWeakCount>13</maxWeakCount>
      <stageThreshold>-8.1340193748474121e-01</stageThreshold>
      <weakClassifiers>
        <_>
          <internalNodes>
            0 -1 163 -3.4443852491676807e-03</internalNodes>
          <leafValues>
            4.7846153378486633e-01 -6.1000001430511475e-01</leafValues></_>
        <_>
          <internalNodes>
            0 -1 51 -2.7937004342675209e-03</internalNodes>
          <leafValues>
            5.5412840843200684e-01 -2.3567654192447662e-01</leafValues></_>
        <_>
          <internalNodes>
            0 -1 146 1.8383216811344028e-03</internalNodes>
          <leafValues>
            -1.9300663471221924e-01 7.3745101690292358e-01</leafValues></_>
        <_>
          <internalNodes>
            0 -1 30 8.2958145067095757e-03</internalNodes>
          <leafValues>
            -2.0523244142532349e-01 6.2838250398635864e-01</leafValues></_>
        <_>
          <internalNodes>
            0 -1 134 -2.1710195869673043e-04</internalNodes>
          <leafValues>
            1.7944735288619995e-01 -7.7682411670684814e-01</leafValues></_>
        <_>
          <internalNodes>
            0 -1 158 -3.4648906439542770e-03</internalNodes>
          <leafValues>
            6.2909770011901855e-01 -2.3448415100574493e-01</leafValues></_>
        <_>
          <internalNodes>
            0 -1 155 4.2640715837478638e-03</internalNodes>
          <leafValues>
            -1.8097653985023499e-01 7.6482880115509033e-01</leafValues></_>
        <_>
          <internalNodes>
            0 -1 177 1.0543985990807414e-03</internalNodes>
          <leafValues>
            -2.3306468129158020e-01 5.6652027368545532e-01</leafValues></_>
        <_>
          <internalNodes>
            0 -1 58 -6.5762072801589966e-02</internalNodes>
          <leafValues>
            -7.9044073820114136e-01 1.6313304007053375e-01</leafValues></_>
        <_>
          <internalNodes>
            0 -1 180 -7.2581470012664795e-03</internalNodes>
          <leafValues>
            5.7129102945327759e-01 -2.1583841741085052e-01</leafValues></_>
        <_>
          <internalNodes>
            0 -1 45 6.3269045203924179e-03</internalNodes>
          <leafValues>
            -1.7364512383937836e-01 5.9851497411727905e-01</leafValues></_>
        <_>
          <internalNodes>
            0 -1 84 2.1754199638962746e-02</internalNodes>
          <leafValues>
            -1.2065305560827255e-01 7.7625387907028198e-01</leafValues></_>
        <_>
          <internalNodes>
            0 -1 9 -1.4691383112221956e-03</internalNodes>
          <leafValues>
            5.1148396730422974e-01 -2.2013813257217407e-01</leafValues></_></weakClassifiers></_>
    <!-- stage 5 -->
    <_>
      <maxWeakCount>12</maxWeakCount>
      <stageThreshold>-8.5203850269317627e-01</stageThreshold>
      <weakClassifiers>
        <_>
          <internalNodes>
            0 -1 103 9.0861450880765915e-03</internalNodes>
          <leafValues>
            -2.8311687707901001e-01 5.4618835449218750e-01</leafValues></_>
        <_>
          <internalNodes>
            0 -1 48 3.6546602845191956e-02</internalNodes>
          <leafValues>
            -8.3627027273178101e-01 1.6414995491504669e-01</leafValues></_>
        <_>
          <internalNodes>
            0 -1 28 2.6496930047869682e-02</internalNodes>
          <leafValues>
            1.8225555121898651e-01 -6.1397457122802734e-01</leafValues></_>
        <_>
          <internalNodes>
            0 -1 18 1.3589099049568176e-02</internalNodes>
          <leafValues>
            -1.5330088138580322e-01 9.1414946317672729e-01</leafValues></_>
        <_>
          <internalNodes>
            0 -1 124 2.1983105689287186e-03</internalNodes>
          <leafValues>
            -2.4711497128009796e-01 4.5005995035171509e-01</leafValues></_>
        <_>
          <internalNodes>
            0 -1 179 -1.1863861000165343e-03</internalNodes>
          <leafValues>
            5.7247328758239746e-01 -1.8923670053482056e-01</leafValues></_>
        <_>
          <internalNodes>
            0 -1 72 4.5332987792789936e-03</internalNodes>
          <leafValues>
            -2.0735906064510345e-01 6.0582220554351807e-01</leafValues></_>
        <_>
          <internalNodes>
            0 -1 13 2.8895166516304016e-01</internalNodes>
          <leafValues>
            -4.3462783098220825e-01 2.6186454296112061e-01</leafValues></_>
        <_>
          <internalNodes>
            0 -1 55 -1.2043654918670654e-02</internalNodes>
          <leafValues>
            4.1643592715263367e-01 -2.7067443728446960e-01</leafValues></_>
        <_>
          <internalNodes>
            0 -1 34 -4.2258203029632568e-03</internalNodes>
          <leafValues>
            4.4077771902084351e-01 -2.3982033133506775e-01</leafValues></_>
        <_>
          <internalNodes>
            0 -1 102 -3.6595794372260571e-03</internalNodes>
          <leafValues>
            1.9599327445030212e-01 -5.3223377466201782e-01</leafValues></_>
        <_>
          <internalNodes>
            0 -1 99 1.4714579097926617e-02</internalNodes>
          <leafValues>
            -2.1585036814212799e-01 4.9636092782020569e-01</leafValues></_></weakClassifiers></_>
    <!-- stage 6 -->
    <_>
      <maxWeakCount>13</maxWeakCount>
      <stageThreshold>-7.3480892181396484e-01</stageThreshold>
      <weakClassifiers>
        <_>
          <internalNodes>
            0 -1 92 5.3670851048082113e-04</internalNodes>
          <leafValues>
            -2.2631579637527466e-01 5.2321428060531616e-01</leafValues></_>
        <_>
          <internalNodes>
            0 -1 59 3.2561220228672028e-02</internalNodes>
          <leafValues>
            -5.6089538335800171e-01 2.3851539194583893e-01</leafValues></_>
        <_>
          <internalNodes>
            0 -1 112 9.9033303558826447e-03</internalNodes>
          <leafValues>
            1.1312282830476761e-01 -9.3638646602630615e-01</leafValues></_>
        <_>
          <internalNodes>
            0 -1 137 5.0956150516867638e-03</internalNodes>
          <leafValues>
            -5.2615731954574585e-01 1.6646704077720642e-01</leafValues></_>
        <_>
          <internalNodes>
            0 -1 165 -4.8447679728269577e-03</internalNodes>
          <leafValues>
            5.9003752470016479e-01 -1.9442743062973022e-01</leafValues></_>
        <_>
          <internalNodes>
            0 -1 141 -3.2262373715639114e-03</internalNodes>
          <leafValues>
            5.4870873689651489e-01 -1.8607182800769806e-01</leafValues></_>
        <_>
          <internalNodes>
            0 -1 159 -2.7353572659194469e-03</internalNodes>
          <leafValues>
            4.6204921603202820e-01 -2.0476213097572327e-01</leafValues></_>
        <_>
          <internalNodes>
            0 -1 27 3.7196143530309200e-03</internalNodes>
          <leafValues>
            -2.5357809662818909e-01 4.4862326979637146e-01</leafValues></_>
        <_>
          <internalNodes>
            0 -1 78 1.1944353580474854e-02</internalNodes>
          <leafValues>
            -4.0945523977279663e-01 2.4383284151554108e-01</leafValues></_>
        <_>
          <internalNodes>
            0 -1 16 5.2764177322387695e-02</internalNodes>
          <leafValues>
            1.2713977694511414e-01 -7.4272513389587402e-01</leafValues></_>
        <_>
          <internalNodes>
            0 -1 117 -5.5230234283953905e-04</internalNodes>
          <leafValues>
            8.4636479616165161e-02 -8.2773137092590332e-01</leafValues></_>
        <_>
          <internalNodes>
            0 -1 132 -1.7983164638280869e-02</internalNodes>
          <leafValues>
            -8.0050611495971680e-01 1.1709977686405182e-01</leafValues></_>
        <_>
          <internalNodes>
            0 -1 42 -3.4774446394294500e-03</internalNodes>
          <leafValues>
            -7.5210165977478027e-01 1.0939710587263107e-01</leafValues></_></weakClassifiers></_>
    <!-- stage 7 -->
    <_>
      <maxWeakCount>14</maxWeakCount>
      <stageThreshold>-7.2704821825027466e-01</stageThreshold>
      <weakClassifiers>
        <_>
          <internalNodes>
            0 -1 140 -4.9945982173085213e-03</internalNodes>
          <leafValues>
            -6.7938929796218872e-01 4.3024104833602905e-01</leafValues></_>
        <_>
          <internalNodes>
            0 -1 92 1.5559853054583073e-03</internalNodes>
          <leafValues>
            -3.9947730302810669e-01 3.2386034727096558e-01</leafValues></_>
        <_>
          <internalNodes>
            0 -1 72 7.2988299652934074e-03</internalNodes>
          <leafValues>
            -1.6374593973159790e-01 7.2812992334365845e-01</leafValues></_>
        <_>
          <internalNodes>
            0 -1 190 6.6646002233028412e-03</internalNodes>
          <leafValues>
            -1.7456993460655212e-01 6.4916896820068359e-01</leafValues></_>
        <_>
          <internalNodes>
            0 -1 2 -1.6051873564720154e-02</internalNodes>
          <leafValues>
            5.8866810798645020e-01 -1.6354681551456451e-01</leafValues></_>
        <_>
          <internalNodes>
            0 -1 80 1.3774046301841736e-01</internalNodes>
          <leafValues>
            1.5303219854831696e-01 -8.7931787967681885e-01</leafValues></_>
        <_>
          <internalNodes>
            0 -1 174 -4.3455311097204685e-03</internalNodes>
          <leafValues>
            5.3239607810974121e-01 -2.0323714613914490e-01</leafValues></_>
        <_>
          <internalNodes>
            0 -1 82 -1.7392213921993971e-03</internalNodes>
          <leafValues>
            1.2429970502853394e-01 -7.7643281221389771e-01</leafValues></_>
        <_>
          <internalNodes>
            0 -1 183 -6.4705209806561470e-03</internalNodes>
          <leafValues>
            5.1910150051116943e-01 -1.9634927809238434e-01</leafValues></_>
        <_>
          <internalNodes>
            0 -1 139 1.1891288682818413e-02</internalNodes>
          <leafValues>
            -2.1295826137065887e-01 5.2277565002441406e-01</leafValues></_>
        <_>
          <internalNodes>
            0 -1 161 -1.9901958294212818e-03</internalNodes>
          <leafValues>
            -8.5742402076721191e-01 1.2349986284971237e-01</leafValues></_>
        <_>
          <internalNodes>
            0 -1 81 -1.5569197712466121e-03</internalNodes>
          <leafValues>
            5.8637475967407227e-01 -1.7748717963695526e-01</leafValues></_>
        <_>
          <internalNodes>
            0 -1 69 4.2217005044221878e-02</internalNodes>
          <leafValues>
            -4.1386511921882629e-01 3.0635458230972290e-01</leafValues></_>
        <_>
          <internalNodes>
            0 -1 148 -1.9040368497371674e-03</internalNodes>
          <leafValues>
            -8.2306593656539917e-01 1.0966978967189789e-01</leafValues></_></weakClassifiers></_>
    <!-- stage 8 -->
    <_>
      <maxWeakCount>19</maxWeakCount>
      <stageThreshold>-8.5431969165802002e-01</stageThreshold>
      <weakClassifiers>
        <_>
          <internalNodes>
            0 -1 5 1.4267519116401672e-01</internalNodes>
          <leafValues>
            3.9466291666030884e-01 -8.1578946113586426e-01</leafValues></_>
        <_>
          <internalNodes>
            0 -1 61 6.1446893960237503e-03</internalNodes>
          <leafValues>
            -9.8744958639144897e-02 7.0300722122192383e-01</leafValues></_>
        <_>
          <internalNodes>
            0 -1 168 5.1440857350826263e-03</internalNodes>
          <leafValues>
            -1.7028301954269409e-01 5.7671594619750977e-01</leafValues></_>
        <_>
          <internalNodes>
            0 -1 118 8.5442868294194341e-04</internalNodes>
          <leafValues>
            -4.0700301527976990e-01 2.2402416169643402e-01</leafValues></_>
        <_>
          <internalNodes>
            0 -1 33 -1.2161999940872192e-02</internalNodes>
          <leafValues>
            8.8059157133102417e-01 -1.0864383727312088e-01</leafValues></_>
        <_>
          <internalNodes>
            0 -1 89 1.2140738544985652e-03</internalNodes>
          <leafValues>
            -2.5193408131599426e-01 3.9565220475196838e-01</leafValues></_>
        <_>
          <internalNodes>
            0 -1 186 1.9425638020038605e-03</internalNodes>
          <leafValues>
            -1.7177462577819824e-01 5.1015800237655640e-01</leafValues></_>
        <_>
          <internalNodes>
            0 -1 62 -1.8831790657714009e-04</internalNodes>
          <leafValues>
            4.6673581004142761e-01 -1.7809703946113586e-01</leafValues></_>
        <_>
          <internalNodes>
            0 -1 189 9.1516096144914627e-03</internalNodes>
          <leafValues>
            -1.1880367994308472e-01 7.1040749549865723e-01</leafValues></_>
        <_>
          <internalNodes>
            0 -1 17 7.6507325284183025e-03</internalNodes>
          <leafValues>
            -1.2039157003164291e-01 6.5035390853881836e-01</leafValues></_>
        <_>
          <internalNodes>
            0 -1 127 4.3015880510210991e-03</internalNodes>
          <leafValues>
            -1.9485178589820862e-01 4.5900917053222656e-01</leafValues></_>
        <_>
          <internalNodes>
            0 -1 116 1.2113307602703571e-03</internalNodes>
          <leafValues>
            -1.8587438762187958e-01 4.6088394522666931e-01</leafValues></_>
        <_>
          <internalNodes>
            0 -1 90 1.7308764159679413e-02</internalNodes>
          <leafValues>
            1.0661470890045166e-01 -8.6420083045959473e-01</leafValues></_>
        <_>
          <internalNodes>
            0 -1 184 1.5485486947000027e-03</internalNodes>
          <leafValues>
            1.3959719240665436e-01 -5.5447095632553101e-01</leafValues></_>
        <_>
          <internalNodes>
            0 -1 83 -2.8259786777198315e-03</internalNodes>
          <leafValues>
            7.9085850715637207e-01 -1.0724165290594101e-01</leafValues></_>
        <_>
          <internalNodes>
            0 -1 122 1.3342166785150766e-03</internalNodes>
          <leafValues>
            1.8335364758968353e-01 -4.9089741706848145e-01</leafValues></_>
        <_>
          <internalNodes>
            0 -1 157 -3.6180987954139709e-03</internalNodes>
          <leafValues>
            5.7655304670333862e-01 -1.4018739759922028e-01</leafValues></_>
        <_>
          <internalNodes>
            0 -1 123 9.2462841421365738e-03</internalNodes>
          <leafValues>
            -1.4314030110836029e-01 5.5983352661132812e-01</leafValues></_>
        <_>
          <internalNodes>
            0 -1 125 -2.9974032659083605e-03</internalNodes>
          <leafValues>
            6.6517424583435059e-01 -1.1078799515962601e-01</leafValues></_></weakClassifiers></_>
    <!-- stage 9 -->
    <_>
      <maxWeakCount>16</maxWeakCount>
      <stageThreshold>-6.3912373781204224e-01</stageThreshold>
      <weakClassifiers>
        <_>
          <internalNodes>
            0 -1 47 6.9019179791212082e-03</internalNodes>
          <leafValues>
            -1.6753926873207092e-01 5.0447225570678711e-01</leafValues></_>
        <_>
          <internalNodes>
            0 -1 185 2.8031058609485626e-03</internalNodes>
          <leafValues>
            -2.1196043491363525e-01 4.1908198595046997e-01</leafValues></_>
        <_>
          <internalNodes>
            0 -1 143 3.3641704358160496e-03</internalNodes>
          <leafValues>
            -1.3225056231021881e-01 6.0259497165679932e-01</leafValues></_>
        <_>
          <internalNodes>
            0 -1 149 8.1140520051121712e-03</internalNodes>
          <leafValues>
            -1.1892544478178024e-01 6.3726162910461426e-01</leafValues></_>
        <_>
          <internalNodes>
            0 -1 19 -1.9955434836447239e-03</internalNodes>
          <leafValues>
            -5.3353065252304077e-01 1.3744889199733734e-01</leafValues></_>
        <_>
          <internalNodes>
            0 -1 164 -2.7009770274162292e-03</internalNodes>
          <leafValues>
            6.1846768856048584e-01 -1.1745201796293259e-01</leafValues></_>
        <_>
          <internalNodes>
            0 -1 65 6.1026336625218391e-03</internalNodes>
          <leafValues>
            -1.0887706279754639e-01 6.7446911334991455e-01</leafValues></_>
        <_>
          <internalNodes>
            0 -1 133 -7.8957370715215802e-04</internalNodes>
          <leafValues>
            1.5328918397426605e-01 -6.2896686792373657e-01</leafValues></_>
        <_>
          <internalNodes>
            0 -1 75 1.3826822862029076e-02</internalNodes>
          <leafValues>
            -1.9269950687885284e-01 4.6219253540039062e-01</leafValues></_>
        <_>
          <internalNodes>
            0 -1 44 8.9079309254884720e-03</internalNodes>
          <leafValues>
            -1.0509049147367477e-01 5.7893633842468262e-01</leafValues></_>
        <_>
          <internalNodes>
            0 -1 120 -4.4011566205881536e-04</internalNodes>
          <leafValues>
            4.5235997438430786e-01 -1.7297780513763428e-01</leafValues></_>
        <_>
          <internalNodes>
            0 -1 52 2.6376534253358841e-02</internalNodes>
          <leafValues>
            9.2722751200199127e-02 -8.4544199705123901e-01</leafValues></_>
        <_>
          <internalNodes>
            0 -1 176 4.2922948487102985e-03</internalNodes>
          <leafValues>
            -2.6844564080238342e-01 2.9753232002258301e-01</leafValues></_>
        <_>
          <internalNodes>
            0 -1 8 5.4163816384971142e-03</internalNodes>
          <leafValues>
            1.1089181900024414e-01 -7.7483242750167847e-01</leafValues></_>
        <_>
          <internalNodes>
            0 -1 4 6.1457796255126595e-04</internalNodes>
          <leafValues>
            -4.5462831854820251e-01 1.8487860262393951e-01</leafValues></_>
        <_>
          <internalNodes>
            0 -1 135 1.0204529389739037e-03</internalNodes>
          <leafValues>
            -2.2473223507404327e-01 3.9731949567794800e-01</leafValues></_></weakClassifiers></_>
    <!-- stage 10 -->
    <_>
      <maxWeakCount>21</maxWeakCount>
      <stageThreshold>-7.0156931877136230e-01</stageThreshold>
      <weakClassifiers>
        <_>
          <internalNodes>
            0 -1 130 -3.5516515374183655e-02</internalNodes>
          <leafValues>
            -8.5915493965148926e-01 3.9258223772048950e-01</leafValues></_>
        <_>
          <internalNodes>
            0 -1 57 2.3610998690128326e-01</internalNodes>
          <leafValues>
            -2.4210806190967560e-01 4.1183286905288696e-01</leafValues></_>
        <_>
          <internalNodes>
            0 -1 37 -7.6260054484009743e-03</internalNodes>
          <leafValues>
            4.1983807086944580e-01 -1.9739712774753571e-01</leafValues></_>
        <_>
          <internalNodes>
            0 -1 172 -2.6664098259061575e-03</internalNodes>
          <leafValues>
            5.1766759157180786e-01 -1.4766182005405426e-01</leafValues></_>
        <_>
          <internalNodes>
            0 -1 95 -1.3561360538005829e-03</internalNodes>
          <leafValues>
            3.2020142674446106e-01 -2.5342392921447754e-01</leafValues></_>
        <_>
          <internalNodes>
            0 -1 94 -5.5327750742435455e-02</internalNodes>
          <leafValues>
            -7.4361908435821533e-01 1.2001681327819824e-01</leafValues></_>
        <_>
          <internalNodes>
            0 -1 173 -1.0279251728206873e-03</internalNodes>
          <leafValues>
            3.5864034295082092e-01 -2.2119545936584473e-01</leafValues></_>
        <_>
          <internalNodes>
            0 -1 68 3.6316697951406240e-03</internalNodes>
          <leafValues>
            -1.1408361047506332e-01 6.8139874935150146e-01</leafValues></_>
        <_>
          <internalNodes>
            0 -1 153 1.4674587175250053e-02</internalNodes>
          <leafValues>
            -9.3009442090988159e-02 7.2659015655517578e-01</leafValues></_>
        <_>
          <internalNodes>
            0 -1 121 1.0881420457735658e-03</internalNodes>
          <leafValues>
            1.5447984635829926e-01 -5.7942736148834229e-01</leafValues></_>
        <_>
          <internalNodes>
            0 -1 43 -7.7029541134834290e-03</internalNodes>
          <leafValues>
            7.5823444128036499e-01 -1.2365160882472992e-01</leafValues></_>
        <_>
          <internalNodes>
            0 -1 3 3.2101869583129883e-02</internalNodes>
          <leafValues>
            2.2582095861434937e-01 -4.1863867640495300e-01</leafValues></_>
        <_>
          <internalNodes>
            0 -1 41 -2.1152455359697342e-02</internalNodes>
          <leafValues>
            -6.9356459379196167e-01 1.1061432212591171e-01</leafValues></_>
        <_>
          <internalNodes>
            0 -1 113 -8.2233157008886337e-03</internalNodes>
          <leafValues>
            -7.3862159252166748e-01 9.6444003283977509e-02</leafValues></_>
        <_>
          <internalNodes>
            0 -1 187 1.1538304388523102e-03</internalNodes>
          <leafValues>
            1.0790533572435379e-01 -6.3645571470260620e-01</leafValues></_>
        <_>
          <internalNodes>
            0 -1 136 -5.9368158690631390e-04</internalNodes>
          <leafValues>
            3.7299463152885437e-01 -2.0470660924911499e-01</leafValues></_>
        <_>
          <internalNodes>
            0 -1 15 1.6290456056594849e-02</internalNodes>
          <leafValues>
            -1.1986391991376877e-01 6.4229899644851685e-01</leafValues></_>
        <_>
          <internalNodes>
            0 -1 11 2.0540140569210052e-02</internalNodes>
          <leafValues>
            -7.4176356196403503e-02 9.5022439956665039e-01</leafValues></_>
        <_>
          <internalNodes>
            0 -1 96 -2.7697077021002769e-03</internalNodes>
          <leafValues>
            4.8219454288482666e-01 -1.4177949726581573e-01</leafValues></_>
        <_>
          <internalNodes>
            0 -1 192 5.4052975028753281e-03</internalNodes>
          <leafValues>
            -1.0963056236505508e-01 6.9392716884613037e-01</leafValues></_>
        <_>
          <internalNodes>
            0 -1 166 -8.0943392822518945e-04</internalNodes>
          <leafValues>
            3.7382566928863525e-01 -1.9862307608127594e-01</leafValues></_></weakClassifiers></_>
    <!-- stage 11 -->
    <_>
      <maxWeakCount>19</maxWeakCount>
      <stageThreshold>-6.6650271415710449e-01</stageThreshold>
      <weakClassifiers>
        <_>
          <internalNodes>
            0 -1 14 6.8741366267204285e-02</internalNodes>
          <leafValues>
            4.0990668535232544e-01 -6.6355139017105103e-01</leafValues></_>
        <_>
          <internalNodes>
            0 -1 88 3.8454357534646988e-02</internalNodes>
          <leafValues>
            -3.5559767484664917e-01 2.8329545259475708e-01</leafValues></_>
        <_>
          <internalNodes>
            0 -1 74 7.8247726196423173e-04</internalNodes>
          <leafValues>
            1.4039652049541473e-01 -4.5515909790992737e-01</leafValues></_>
        <_>
          <internalNodes>
            0 -1 138 2.7961572632193565e-03</internalNodes>
          <leafValues>
            9.2834450304508209e-02 -7.5806522369384766e-01</leafValues></_>
        <_>
          <internalNodes>
            0 -1 162 8.7730288505554199e-03</internalNodes>
          <leafValues>
            -1.5923878550529480e-01 4.9327591061592102e-01</leafValues></_>
        <_>
          <internalNodes>
            0 -1 46 -6.1256410554051399e-03</internalNodes>
          <leafValues>
            4.6634969115257263e-01 -2.0430715382099152e-01</leafValues></_>
        <_>
          <internalNodes>
            0 -1 97 -5.9835352003574371e-03</internalNodes>
          <leafValues>
            5.4333424568176270e-01 -1.1109945923089981e-01</leafValues></_>
        <_>
          <internalNodes>
            0 -1 144 -3.4043381456285715e-03</internalNodes>
          <leafValues>
            5.8749651908874512e-01 -1.5054582059383392e-01</leafValues></_>
        <_>
          <internalNodes>
            0 -1 6 3.9462503045797348e-03</internalNodes>
          <leafValues>
            9.6923686563968658e-02 -8.0707687139511108e-01</leafValues></_>
        <_>
          <internalNodes>
            0 -1 191 6.0777538456022739e-03</internalNodes>
          <leafValues>
            -9.7446382045745850e-02 8.1636655330657959e-01</leafValues></_>
        <_>
          <internalNodes>
            0 -1 36 -2.2360412403941154e-03</internalNodes>
          <leafValues>
            3.0165949463844299e-01 -2.4818700551986694e-01</leafValues></_>
        <_>
          <internalNodes>
            0 -1 93 -3.1755156815052032e-03</internalNodes>
          <leafValues>
            1.2612643837928772e-01 -6.2215703725814819e-01</leafValues></_>
        <_>
          <internalNodes>
            0 -1 129 7.1498251054435968e-04</internalNodes>
          <leafValues>
            1.2852913141250610e-01 -5.3636765480041504e-01</leafValues></_>
        <_>
          <internalNodes>
            0 -1 175 3.0953991226851940e-03</internalNodes>
          <leafValues>
            -1.3171119987964630e-01 6.3798087835311890e-01</leafValues></_>
        <_>
          <internalNodes>
            0 -1 150 1.4522280544042587e-03</internalNodes>
          <leafValues>
            -1.5995179116725922e-01 4.8771727085113525e-01</leafValues></_>
        <_>
          <internalNodes>
            0 -1 108 5.7404168182983994e-04</internalNodes>
          <leafValues>
            -2.3529177904129028e-01 3.4622067213058472e-01</leafValues></_>
        <_>
          <internalNodes>
            0 -1 110 -3.1253817724063993e-04</internalNodes>
          <leafValues>
            4.7101533412933350e-01 -1.7273488640785217e-01</leafValues></_>
        <_>
          <internalNodes>
            0 -1 169 -1.1994531378149986e-03</internalNodes>
          <leafValues>
            -5.6153798103332520e-01 1.4978545904159546e-01</leafValues></_>
        <_>
          <internalNodes>
            0 -1 131 -3.7573213921859860e-04</internalNodes>
          <leafValues>
            3.1634768843650818e-01 -2.4721382558345795e-01</leafValues></_></weakClassifiers></_>
    <!-- stage 12 -->
    <_>
      <maxWeakCount>18</maxWeakCount>
      <stageThreshold>-5.7936787605285645e-01</stageThreshold>
      <weakClassifiers>
        <_>
          <internalNodes>
            0 -1 101 6.7269691498950124e-04</internalNodes>
          <leafValues>
            -4.4999998807907104e-01 4.2686566710472107e-01</leafValues></_>
        <_>
          <internalNodes>
            0 -1 25 1.2062287330627441e-01</internalNodes>
          <leafValues>
            -1.3037556409835815e-01 6.1985450983047485e-01</leafValues></_>
        <_>
          <internalNodes>
            0 -1 24 -1.6457107663154602e-01</internalNodes>
          <leafValues>
            7.1962851285934448e-01 -1.0354756563901901e-01</leafValues></_>
        <_>
          <internalNodes>
            0 -1 77 1.2361166998744011e-02</internalNodes>
          <leafValues>
            -6.2793892621994019e-01 1.3304767012596130e-01</leafValues></_>
        <_>
          <internalNodes>
            0 -1 145 -1.4863151591271162e-03</internalNodes>
          <leafValues>
            4.4952788949012756e-01 -1.7574867606163025e-01</leafValues></_>
        <_>
          <internalNodes>
            0 -1 147 3.8341111503541470e-03</internalNodes>
          <leafValues>
            -1.9784867763519287e-01 4.9831762909889221e-01</leafValues></_>
        <_>
          <internalNodes>
            0 -1 63 -5.0663808360695839e-03</internalNodes>
          <leafValues>
            6.1524021625518799e-01 -1.2465146929025650e-01</leafValues></_>
        <_>
          <internalNodes>
            0 -1 56 -1.5635793097317219e-03</internalNodes>
          <leafValues>
            -7.1177268028259277e-01 9.7789250314235687e-02</leafValues></_>
        <_>
          <internalNodes>
            0 -1 91 -8.1443169619888067e-04</internalNodes>
          <leafValues>
            3.4655731916427612e-01 -2.1870101988315582e-01</leafValues></_>
        <_>
          <internalNodes>
            0 -1 115 -4.4833042193204165e-04</internalNodes>
          <leafValues>
            4.4639584422111511e-01 -1.4656841754913330e-01</leafValues></_>
        <_>
          <internalNodes>
            0 -1 0 -1.1744543910026550e-02</internalNodes>
          <leafValues>
            3.8940399885177612e-01 -1.9140018522739410e-01</leafValues></_>
        <_>
          <internalNodes>
            0 -1 85 1.6783606261014938e-03</internalNodes>
          <leafValues>
            1.5110005438327789e-01 -5.7448405027389526e-01</leafValues></_>
        <_>
          <internalNodes>
            0 -1 86 3.6870563053525984e-04</internalNodes>
          <leafValues>
            1.7538294196128845e-01 -4.4108280539512634e-01</leafValues></_>
        <_>
          <internalNodes>
            0 -1 152 -5.5614821612834930e-03</internalNodes>
          <leafValues>
            6.4226520061492920e-01 -1.1776303499937057e-01</leafValues></_>
        <_>
          <internalNodes>
            0 -1 111 -2.5398183614015579e-02</internalNodes>
          <leafValues>
            -5.6142604351043701e-01 1.4699694514274597e-01</leafValues></_>
        <_>
          <internalNodes>
            0 -1 114 -3.4302216954529285e-04</internalNodes>
          <leafValues>
            -6.3872891664505005e-01 1.1542684584856033e-01</leafValues></_>
        <_>
          <internalNodes>
            0 -1 104 -1.0360105661675334e-03</internalNodes>
          <leafValues>
            5.1812207698822021e-01 -1.6154035925865173e-01</leafValues></_>
        <_>
          <internalNodes>
            0 -1 7 1.0792124085128307e-03</internalNodes>
          <leafValues>
            1.2826836109161377e-01 -7.1096962690353394e-01</leafValues></_></weakClassifiers></_>
    <!-- stage 13 -->
    <_>
      <maxWeakCount>11</maxWeakCount>
      <stageThreshold>-4.8353099822998047e-01</stageThreshold>
      <weakClassifiers>
        <_>
          <internalNodes>
            0 -1 50 -1.4755645534023643e-03</internalNodes>
          <leafValues>
            -6.5562915802001953e-01 4.4403260946273804e-01</leafValues></_>
        <_>
          <internalNodes>
            0 -1 105 1.3668421888723969e-04</internalNodes>
          <leafValues>
            -4.4244951009750366e-01 2.7474004030227661e-01</leafValues></_>
        <_>
          <internalNodes>
            0 -1 98 9.2517607845366001e-04</internalNodes>
          <leafValues>
            -2.0349402725696564e-01 5.3088468313217163e-01</leafValues></_>
        <_>
          <internalNodes>
            0 -1 20 5.2718113875016570e-04</internalNodes>
          <leafValues>
            1.4700216054916382e-01 -7.1162331104278564e-01</leafValues></_>
        <_>
          <internalNodes>
            0 -1 67 -5.7831471785902977e-03</internalNodes>
          <leafValues>
            6.7742359638214111e-01 -1.6914276778697968e-01</leafValues></_>
        <_>
          <internalNodes>
            0 -1 21 4.8001634422689676e-04</internalNodes>
          <leafValues>
            1.3289475440979004e-01 -7.4591863155364990e-01</leafValues></_>
        <_>
          <internalNodes>
            0 -1 188 2.9793388675898314e-03</internalNodes>
          <leafValues>
            -2.3706091940402985e-01 4.8302006721496582e-01</leafValues></_>
        <_>
          <internalNodes>
            0 -1 10 4.6797865070402622e-03</internalNodes>
          <leafValues>
            1.3842016458511353e-01 -7.8066188097000122e-01</leafValues></_>
        <_>
          <internalNodes>
            0 -1 126 5.2257850766181946e-02</internalNodes>
          <leafValues>
            1.0734900832176208e-01 -6.4553219079971313e-01</leafValues></_>
        <_>
          <internalNodes>
            0 -1 171 1.6663020942360163e-03</internalNodes>
          <leafValues>
            1.2057834863662720e-01 -6.5626984834671021e-01</leafValues></_>
        <_>
          <internalNodes>
            0 -1 73 -7.1595720946788788e-03</internalNodes>
          <leafValues>
            5.4185593128204346e-01 -1.5593117475509644e-01</leafValues></_></weakClassifiers></_>
    <!-- stage 14 -->
    <_>
      <maxWeakCount>15</maxWeakCount>
      <stageThreshold>-6.4429610967636108e-01</stageThreshold>
      <weakClassifiers>
        <_>
          <internalNodes>
            0 -1 151 2.3946473374962807e-03</internalNodes>
          <leafValues>
            4.4018059968948364e-01 -4.9707603454589844e-01</leafValues></_>
        <_>
          <internalNodes>
            0 -1 119 -2.9741809703409672e-04</internalNodes>
          <leafValues>
            4.8240432143211365e-01 -1.8519243597984314e-01</leafValues></_>
        <_>
          <internalNodes>
            0 -1 66 1.1848686262965202e-02</internalNodes>
          <leafValues>
            -1.2560200691223145e-01 7.9146623611450195e-01</leafValues></_>
        <_>
          <internalNodes>
            0 -1 70 1.3349927961826324e-02</internalNodes>
          <leafValues>
            -5.0438994169235229e-01 2.1788921952247620e-01</leafValues></_>
        <_>
          <internalNodes>
            0 -1 1 -5.9282206930220127e-03</internalNodes>
          <leafValues>
            3.2078278064727783e-01 -3.2205802202224731e-01</leafValues></_>
        <_>
          <internalNodes>
            0 -1 23 -1.2055844999849796e-03</internalNodes>
          <leafValues>
            -7.4067556858062744e-01 1.4270685613155365e-01</leafValues></_>
        <_>
          <internalNodes>
            0 -1 154 -2.1667021792382002e-03</internalNodes>
          <leafValues>
            4.0435490012168884e-01 -2.1816691756248474e-01</leafValues></_>
        <_>
          <internalNodes>
            0 -1 31 -4.7631451161578298e-04</internalNodes>
          <leafValues>
            -7.2312825918197632e-01 1.1774828284978867e-01</leafValues></_>
        <_>
          <internalNodes>
            0 -1 79 -1.2547953519970179e-03</internalNodes>
          <leafValues>
            4.0967535972595215e-01 -2.1825349330902100e-01</leafValues></_>
        <_>
          <internalNodes>
            0 -1 54 1.2667242437601089e-02</internalNodes>
          <leafValues>
            -1.6445986926555634e-01 5.5134224891662598e-01</leafValues></_>
        <_>
          <internalNodes>
            0 -1 32 1.8230158835649490e-02</internalNodes>
          <leafValues>
            -1.0459892451763153e-01 7.8342062234878540e-01</leafValues></_>
        <_>
          <internalNodes>
            0 -1 39 2.6078289374709129e-03</internalNodes>
          <leafValues>
            1.7976103723049164e-01 -5.8561378717422485e-01</leafValues></_>
        <_>
          <internalNodes>
            0 -1 26 1.8155552446842194e-02</internalNodes>
          <leafValues>
            -1.5559160709381104e-01 6.1708998680114746e-01</leafValues></_>
        <_>
          <internalNodes>
            0 -1 128 8.4145009517669678e-02</internalNodes>
          <leafValues>
            1.5450768172740936e-01 -7.2170692682266235e-01</leafValues></_>
        <_>
          <internalNodes>
            0 -1 182 1.4797107316553593e-02</internalNodes>
          <leafValues>
            -1.5555803477764130e-01 6.8843895196914673e-01</leafValues></_></weakClassifiers></_></stages>
  <features>
    <_>
      <rects>
        <_>
          0 7 4 36 -1.</_>
        <_>
          0 7 2 18 2.</_>
        <_>
          2 25 2 18 2.</_></rects>
      <tilted>0</tilted></_>
    <_>
      <rects>
        <_>
          0 8 4 42 -1.</_>
        <_>
          0 8 2 21 2.</_>
        <_>
          2 29 2 21 2.</_></rects>
      <tilted>0</tilted></_>
    <_>
      <rects>
        <_>
          0 15 4 30 -1.</_>
        <_>
          0 15 2 15 2.</_>
        <_>
          2 30 2 15 2.</_></rects>
      <tilted>0</tilted></_>
    <_>
      <rects>
        <_>
          0 16 18 21 -1.</_>
        <_>
          6 16 6 21 3.</_></rects>
      <tilted>0</tilted></_>
    <_>
      <rects>
        <_>
          0 18 13 16 -1.</_>
        <_>
          0 22 13 8 2.</_></rects>
      <tilted>0</tilted></_>
    <_>
      <rects>
        <_>
          0 20 15 24 -1.</_>
        <_>
          5 28 5 8 9.</_></rects>
      <tilted>0</tilted></_>
    <_>
      <rects>
        <_>
          0 26 13 3 -1.</_>
        <_>
          0 27 13 1 3.</_></rects>
      <tilted>0</tilted></_>
    <_>
      <rects>
        <_>
          0 27 3 3 -1.</_>
        <_>
          0 28 3 1 3.</_></rects>
      <tilted>0</tilted></_>
    <_>
      <rects>
        <_>
          0 27 25 3 -1.</_>
        <_>
          0 28 25 1 3.</_></rects>
      <tilted>0</tilted></_>
    <_>
      <rects>
        <_>
          0 28 2 7 -1.</_>
        <_>
          1 28 1 7 2.</_></rects>
      <tilted>0</tilted></_>
    <_>
      <rects>
        <_>
          0 32 20 3 -1.</_>
        <_>
          0 33 20 1 3.</_></rects>
      <tilted>0</tilted></_>
    <_>
      <rects>
        <_>
          1 6 20 2 -1.</_>
        <_>
          6 6 10 2 2.</_></rects>
      <tilted>0</tilted></_>
    <_>
      <rects>
        <_>
          1 9 2 40 -1.</_>
        <_>
          1 9 1 20 2.</_>
        <_>
          2 29 1 20 2.</_></rects>
      <tilted>0</tilted></_>
    <_>
      <rects>
        <_>
          1 10 24 33 -1.</_>
        <_>
          9 21 8 11 9.</_></rects>
      <tilted>0</tilted></_>
    <_>
      <rects>
        <_>
          1 14 9 24 -1.</_>
        <_>
          4 22 3 8 9.</_></rects>
      <tilted>0</tilted></_>
    <_>
      <rects>
        <_>
          1 15 4 21 -1.</_>
        <_>
          3 15 2 21 2.</_></rects>
      <tilted>0</tilted></_>
    <_>
      <rects>
        <_>
          1 15 9 24 -1.</_>
        <_>
          4 23 3 8 9.</_></rects>
      <tilted>0</tilted></_>
    <_>
      <rects>
        <_>
          1 25 4 6 -1.</_>
        <_>
          3 25 2 6 2.</_></rects>
      <tilted>0</tilted></_>
    <_>
      <rects>
        <_>
          1 28 6 4 -1.</_>
        <_>
          3 28 2 4 3.</_></rects>
      <tilted>0</tilted></_>
    <_>
      <rects>
        <_>
          2 3 23 3 -1.</_>
        <_>
          2 4 23 1 3.</_></rects>
      <tilted>0</tilted></_>
    <_>
      <rects>
        <_>
          2 18 1 3 -1.</_>
        <_>
          2 19 1 1 3.</_></rects>
      <tilted>0</tilted></_>
    <_>
      <rects>
        <_>
          2 19 1 3 -1.</_>
        <_>
          2 20 1 1 3.</_></rects>
      <tilted>0</tilted></_>
    <_>
      <rects>
        <_>
          2 22 12 5 -1.</_>
        <_>
          5 22 6 5 2.</_></rects>
      <tilted>0</tilted></_>
    <_>
      <rects>
        <_>
          2 33 2 3 -1.</_>
        <_>
          2 34 2 1 3.</_></rects>
      <tilted>0</tilted></_>
    <_>
      <rects>
        <_>
          3 2 22 42 -1.</_>
        <_>
          3 2 11 21 2.</_>
        <_>
          14 23 11 21 2.</_></rects>
      <tilted>0</tilted></_>
    <_>
      <rects>
        <_>
          3 3 22 44 -1.</_>
        <_>
          3 3 11 22 2.</_>
        <_>
          14 25 11 22 2.</_></rects>
      <tilted>0</tilted></_>
    <_>
      <rects>
        <_>
          3 5 1 36 -1.</_>
        <_>
          3 17 1 12 3.</_></rects>
      <tilted>0</tilted></_>
    <_>
      <rects>
        <_>
          3 16 2 22 -1.</_>
        <_>
          3 16 1 11 2.</_>
        <_>
          4 27 1 11 2.</_></rects>
      <tilted>0</tilted></_>
    <_>
      <rects>
        <_>
          3 16 16 3 -1.</_>
        <_>
          7 20 8 3 2.</_></rects>
      <tilted>1</tilted></_>
    <_>
      <rects>
        <_>
          3 22 4 22 -1.</_>
        <_>
          3 22 2 11 2.</_>
        <_>
          5 33 2 11 2.</_></rects>
      <tilted>0</tilted></_>
    <_>
      <rects>
        <_>
          3 24 4 16 -1.</_>
        <_>
          3 24 2 8 2.</_>
        <_>
          5 32 2 8 2.</_></rects>
      <tilted>0</tilted></_>
    <_>
      <rects>
        <_>
          4 0 1 3 -1.</_>
        <_>
          4 1 1 1 3.</_></rects>
      <tilted>0</tilted></_>
    <_>
      <rects>
        <_>
          4 5 8 12 -1.</_>
        <_>
          4 8 8 6 2.</_></rects>
      <tilted>0</tilted></_>
    <_>
      <rects>
        <_>
          4 6 4 3 -1.</_>
        <_>
          4 6 2 3 2.</_></rects>
      <tilted>1</tilted></_>
    <_>
      <rects>
        <_>
          4 15 3 18 -1.</_>
        <_>
          5 15 1 18 3.</_></rects>
      <tilted>0</tilted></_>
    <_>
      <rects>
        <_>
          4 16 3 17 -1.</_>
        <_>
          5 16 1 17 3.</_></rects>
      <tilted>0</tilted></_>
    <_>
      <rects>
        <_>
          4 18 3 20 -1.</_>
        <_>
          5 18 1 20 3.</_></rects>
      <tilted>0</tilted></_>
    <_>
      <rects>
        <_>
          4 21 4 14 -1.</_>
        <_>
          4 21 2 7 2.</_>
        <_>
          6 28 2 7 2.</_></rects>
      <tilted>0</tilted></_>
    <_>
      <rects>
        <_>
          4 21 8 10 -1.</_>
        <_>
          8 21 4 10 2.</_></rects>
      <tilted>0</tilted></_>
    <_>
      <rects>
        <_>
          4 21 11 3 -1.</_>
        <_>
          4 22 11 1 3.</_></rects>
      <tilted>0</tilted></_>
    <_>
      <rects>
        <_>
          4 22 16 9 -1.</_>
        <_>
          8 22 8 9 2.</_></rects>
      <tilted>0</tilted></_>
    <_>
      <rects>
        <_>
          4 24 12 14 -1.</_>
        <_>
          8 24 4 14 3.</_></rects>
      <tilted>0</tilted></_>
    <_>
      <rects>
        <_>
          4 24 21 3 -1.</_>
        <_>
          4 25 21 1 3.</_></rects>
      <tilted>0</tilted></_>
    <_>
      <rects>
        <_>
          4 30 4 4 -1.</_>
        <_>
          3 31 4 2 2.</_></rects>
      <tilted>1</tilted></_>
    <_>
      <rects>
        <_>
          4 31 11 4 -1.</_>
        <_>
          3 32 11 2 2.</_></rects>
      <tilted>1</tilted></_>
    <_>
      <rects>
        <_>
          4 32 11 4 -1.</_>
        <_>
          3 33 11 2 2.</_></rects>
      <tilted>1</tilted></_>
    <_>
      <rects>
        <_>
          4 34 10 4 -1.</_>
        <_>
          3 35 10 2 2.</_></rects>
      <tilted>1</tilted></_>
    <_>
      <rects>
        <_>
          5 14 10 12 -1.</_>
        <_>
          5 14 5 6 2.</_>
        <_>
          10 20 5 6 2.</_></rects>
      <tilted>0</tilted></_>
    <_>
      <rects>
        <_>
          5 15 12 21 -1.</_>
        <_>
          9 22 4 7 9.</_></rects>
      <tilted>0</tilted></_>
    <_>
      <rects>
        <_>
          5 20 10 7 -1.</_>
        <_>
          10 20 5 7 2.</_></rects>
      <tilted>0</tilted></_>
    <_>
      <rects>
        <_>
          5 21 3 3 -1.</_>
        <_>
          5 22 3 1 3.</_></rects>
      <tilted>0</tilted></_>
    <_>
      <rects>
        <_>
          5 22 2 14 -1.</_>
        <_>
          5 22 1 7 2.</_>
        <_>
          6 29 1 7 2.</_></rects>
      <tilted>0</tilted></_>
    <_>
      <rects>
        <_>
          5 22 9 6 -1.</_>
        <_>
          8 24 3 2 9.</_></rects>
      <tilted>0</tilted></_>
    <_>
      <rects>
        <_>
          5 22 15 8 -1.</_>
        <_>
          10 22 5 8 3.</_></rects>
      <tilted>0</tilted></_>
    <_>
      <rects>
        <_>
          5 35 9 4 -1.</_>
        <_>
          5 35 9 2 2.</_></rects>
      <tilted>1</tilted></_>
    <_>
      <rects>
        <_>
          6 4 12 10 -1.</_>
        <_>
          6 9 12 5 2.</_></rects>
      <tilted>0</tilted></_>
    <_>
      <rects>
        <_>
          6 5 4 3 -1.</_>
        <_>
          6 6 4 1 3.</_></rects>
      <tilted>0</tilted></_>
    <_>
      <rects>
        <_>
          6 13 15 24 -1.</_>
        <_>
          11 21 5 8 9.</_></rects>
      <tilted>0</tilted></_>
    <_>
      <rects>
        <_>
          6 14 14 26 -1.</_>
        <_>
          13 14 7 26 2.</_></rects>
      <tilted>0</tilted></_>
    <_>
      <rects>
        <_>
          6 15 9 21 -1.</_>
        <_>
          9 22 3 7 9.</_></rects>
      <tilted>0</tilted></_>
    <_>
      <rects>
        <_>
          6 15 12 21 -1.</_>
        <_>
          10 22 4 7 9.</_></rects>
      <tilted>0</tilted></_>
    <_>
      <rects>
        <_>
          6 24 4 7 -1.</_>
        <_>
          7 24 2 7 2.</_></rects>
      <tilted>0</tilted></_>
    <_>
      <rects>
        <_>
          6 25 2 1 -1.</_>
        <_>
          7 25 1 1 2.</_></rects>
      <tilted>0</tilted></_>
    <_>
      <rects>
        <_>
          6 25 2 12 -1.</_>
        <_>
          6 25 1 6 2.</_>
        <_>
          7 31 1 6 2.</_></rects>
      <tilted>0</tilted></_>
    <_>
      <rects>
        <_>
          6 26 2 10 -1.</_>
        <_>
          6 26 1 5 2.</_>
        <_>
          7 31 1 5 2.</_></rects>
      <tilted>0</tilted></_>
    <_>
      <rects>
        <_>
          6 29 2 4 -1.</_>
        <_>
          5 30 2 2 2.</_></rects>
      <tilted>1</tilted></_>
    <_>
      <rects>
        <_>
          6 31 12 4 -1.</_>
        <_>
          5 32 12 2 2.</_></rects>
      <tilted>1</tilted></_>
    <_>
      <rects>
        <_>
          6 32 1 6 -1.</_>
        <_>
          4 34 1 2 3.</_></rects>
      <tilted>1</tilted></_>
    <_>
      <rects>
        <_>
          6 36 2 2 -1.</_>
        <_>
          6 36 2 1 2.</_></rects>
      <tilted>1</tilted></_>
    <_>
      <rects>
        <_>
          7 13 18 36 -1.</_>
        <_>
          13 25 6 12 9.</_></rects>
      <tilted>0</tilted></_>
    <_>
      <rects>
        <_>
          7 18 18 2 -1.</_>
        <_>
          13 24 6 2 3.</_></rects>
      <tilted>1</tilted></_>
    <_>
      <rects>
        <_>
          7 31 8 6 -1.</_>
        <_>
          5 33 8 2 3.</_></rects>
      <tilted>1</tilted></_>
    <_>
      <rects>
        <_>
          7 33 3 4 -1.</_>
        <_>
          6 34 3 2 2.</_></rects>
      <tilted>1</tilted></_>
    <_>
      <rects>
        <_>
          7 33 7 6 -1.</_>
        <_>
          7 35 7 2 3.</_></rects>
      <tilted>0</tilted></_>
    <_>
      <rects>
        <_>
          8 0 16 3 -1.</_>
        <_>
          8 1 16 1 3.</_></rects>
      <tilted>0</tilted></_>
    <_>
      <rects>
        <_>
          8 1 6 8 -1.</_>
        <_>
          10 3 2 8 3.</_></rects>
      <tilted>1</tilted></_>
    <_>
      <rects>
        <_>
          8 12 9 27 -1.</_>
        <_>
          11 21 3 9 9.</_></rects>
      <tilted>0</tilted></_>
    <_>
      <rects>
        <_>
          8 14 6 21 -1.</_>
        <_>
          10 21 2 7 9.</_></rects>
      <tilted>0</tilted></_>
    <_>
      <rects>
        <_>
          8 15 9 12 -1.</_>
        <_>
          11 19 3 4 9.</_></rects>
      <tilted>0</tilted></_>
    <_>
      <rects>
        <_>
          8 16 2 16 -1.</_>
        <_>
          8 16 1 8 2.</_>
        <_>
          9 24 1 8 2.</_></rects>
      <tilted>0</tilted></_>
    <_>
      <rects>
        <_>
          8 18 15 15 -1.</_>
        <_>
          13 23 5 5 9.</_></rects>
      <tilted>0</tilted></_>
    <_>
      <rects>
        <_>
          8 19 2 8 -1.</_>
        <_>
          8 19 1 4 2.</_>
        <_>
          9 23 1 4 2.</_></rects>
      <tilted>0</tilted></_>
    <_>
      <rects>
        <_>
          8 19 6 4 -1.</_>
        <_>
          8 19 3 4 2.</_></rects>
      <tilted>1</tilted></_>
    <_>
      <rects>
        <_>
          8 30 1 3 -1.</_>
        <_>
          7 31 1 1 3.</_></rects>
      <tilted>1</tilted></_>
    <_>
      <rects>
        <_>
          9 1 8 9 -1.</_>
        <_>
          11 3 4 9 2.</_></rects>
      <tilted>1</tilted></_>
    <_>
      <rects>
        <_>
          9 7 8 3 -1.</_>
        <_>
          9 8 8 1 3.</_></rects>
      <tilted>0</tilted></_>
    <_>
      <rects>
        <_>
          9 9 11 2 -1.</_>
        <_>
          9 10 11 1 2.</_></rects>
      <tilted>0</tilted></_>
    <_>
      <rects>
        <_>
          9 12 4 14 -1.</_>
        <_>
          9 19 4 7 2.</_></rects>
      <tilted>0</tilted></_>
    <_>
      <rects>
        <_>
          9 17 6 18 -1.</_>
        <_>
          11 23 2 6 9.</_></rects>
      <tilted>0</tilted></_>
    <_>
      <rects>
        <_>
          9 21 3 4 -1.</_>
        <_>
          10 21 1 4 3.</_></rects>
      <tilted>0</tilted></_>
    <_>
      <rects>
        <_>
          9 22 6 6 -1.</_>
        <_>
          11 22 2 6 3.</_></rects>
      <tilted>0</tilted></_>
    <_>
      <rects>
        <_>
          9 24 1 3 -1.</_>
        <_>
          8 25 1 1 3.</_></rects>
      <tilted>1</tilted></_>
    <_>
      <rects>
        <_>
          9 25 6 4 -1.</_>
        <_>
          12 25 3 4 2.</_></rects>
      <tilted>0</tilted></_>
    <_>
      <rects>
        <_>
          9 25 4 14 -1.</_>
        <_>
          9 32 4 7 2.</_></rects>
      <tilted>0</tilted></_>
    <_>
      <rects>
        <_>
          9 26 13 15 -1.</_>
        <_>
          9 31 13 5 3.</_></rects>
      <tilted>0</tilted></_>
    <_>
      <rects>
        <_>
          9 32 2 6 -1.</_>
        <_>
          9 34 2 2 3.</_></rects>
      <tilted>0</tilted></_>
    <_>
      <rects>
        <_>
          9 32 3 3 -1.</_>
        <_>
          8 33 3 1 3.</_></rects>
      <tilted>1</tilted></_>
    <_>
      <rects>
        <_>
          9 37 6 6 -1.</_>
        <_>
          9 39 6 2 3.</_></rects>
      <tilted>0</tilted></_>
    <_>
      <rects>
        <_>
          10 2 7 2 -1.</_>
        <_>
          10 3 7 1 2.</_></rects>
      <tilted>0</tilted></_>
    <_>
      <rects>
        <_>
          10 3 10 10 -1.</_>
        <_>
          15 3 5 10 2.</_></rects>
      <tilted>0</tilted></_>
    <_>
      <rects>
        <_>
          10 12 5 28 -1.</_>
        <_>
          10 19 5 14 2.</_></rects>
      <tilted>0</tilted></_>
    <_>
      <rects>
        <_>
          10 19 6 13 -1.</_>
        <_>
          12 19 2 13 3.</_></rects>
      <tilted>0</tilted></_>
    <_>
      <rects>
        <_>
          10 22 8 7 -1.</_>
        <_>
          14 22 4 7 2.</_></rects>
      <tilted>0</tilted></_>
    <_>
      <rects>
        <_>
          10 23 6 9 -1.</_>
        <_>
          12 26 2 3 9.</_></rects>
      <tilted>0</tilted></_>
    <_>
      <rects>
        <_>
          10 26 2 4 -1.</_>
        <_>
          10 26 1 2 2.</_>
        <_>
          11 28 1 2 2.</_></rects>
      <tilted>0</tilted></_>
    <_>
      <rects>
        <_>
          10 26 4 3 -1.</_>
        <_>
          12 26 2 3 2.</_></rects>
      <tilted>0</tilted></_>
    <_>
      <rects>
        <_>
          10 26 6 4 -1.</_>
        <_>
          12 26 2 4 3.</_></rects>
      <tilted>0</tilted></_>
    <_>
      <rects>
        <_>
          11 21 9 14 -1.</_>
        <_>
          14 21 3 14 3.</_></rects>
      <tilted>0</tilted></_>
    <_>
      <rects>
        <_>
          11 22 3 2 -1.</_>
        <_>
          12 22 1 2 3.</_></rects>
      <tilted>0</tilted></_>
    <_>
      <rects>
        <_>
          11 22 10 6 -1.</_>
        <_>
          16 22 5 6 2.</_></rects>
      <tilted>0</tilted></_>
    <_>
      <rects>
        <_>
          11 23 3 1 -1.</_>
        <_>
          12 23 1 1 3.</_></rects>
      <tilted>0</tilted></_>
    <_>
      <rects>
        <_>
          11 23 9 15 -1.</_>
        <_>
          14 23 3 15 3.</_></rects>
      <tilted>0</tilted></_>
    <_>
      <rects>
        <_>
          11 23 4 8 -1.</_>
        <_>
          11 25 4 4 2.</_></rects>
      <tilted>0</tilted></_>
    <_>
      <rects>
        <_>
          11 24 4 9 -1.</_>
        <_>
          13 24 2 9 2.</_></rects>
      <tilted>0</tilted></_>
    <_>
      <rects>
        <_>
          11 24 8 2 -1.</_>
        <_>
          11 24 4 2 2.</_></rects>
      <tilted>1</tilted></_>
    <_>
      <rects>
        <_>
          11 25 2 4 -1.</_>
        <_>
          11 25 1 2 2.</_>
        <_>
          12 27 1 2 2.</_></rects>
      <tilted>0</tilted></_>
    <_>
      <rects>
        <_>
          11 29 3 3 -1.</_>
        <_>
          12 29 1 3 3.</_></rects>
      <tilted>0</tilted></_>
    <_>
      <rects>
        <_>
          12 22 8 9 -1.</_>
        <_>
          16 22 4 9 2.</_></rects>
      <tilted>0</tilted></_>
    <_>
      <rects>
        <_>
          12 23 2 9 -1.</_>
        <_>
          12 26 2 3 3.</_></rects>
      <tilted>0</tilted></_>
    <_>
      <rects>
        <_>
          12 24 3 6 -1.</_>
        <_>
          13 24 1 6 3.</_></rects>
      <tilted>0</tilted></_>
    <_>
      <rects>
        <_>
          12 25 3 4 -1.</_>
        <_>
          13 25 1 4 3.</_></rects>
      <tilted>0</tilted></_>
    <_>
      <rects>
        <_>
          12 44 5 3 -1.</_>
        <_>
          12 45 5 1 3.</_></rects>
      <tilted>0</tilted></_>
    <_>
      <rects>
        <_>
          12 45 13 3 -1.</_>
        <_>
          12 46 13 1 3.</_></rects>
      <tilted>0</tilted></_>
    <_>
      <rects>
        <_>
          13 6 6 8 -1.</_>
        <_>
          16 6 3 8 2.</_></rects>
      <tilted>0</tilted></_>
    <_>
      <rects>
        <_>
          13 20 3 8 -1.</_>
        <_>
          14 20 1 8 3.</_></rects>
      <tilted>0</tilted></_>
    <_>
      <rects>
        <_>
          13 40 1 8 -1.</_>
        <_>
          13 44 1 4 2.</_></rects>
      <tilted>0</tilted></_>
    <_>
      <rects>
        <_>
          14 0 6 33 -1.</_>
        <_>
          16 11 2 11 9.</_></rects>
      <tilted>0</tilted></_>
    <_>
      <rects>
        <_>
          14 1 11 4 -1.</_>
        <_>
          13 2 11 2 2.</_></rects>
      <tilted>1</tilted></_>
    <_>
      <rects>
        <_>
          14 12 9 24 -1.</_>
        <_>
          17 20 3 8 9.</_></rects>
      <tilted>0</tilted></_>
    <_>
      <rects>
        <_>
          14 16 6 15 -1.</_>
        <_>
          17 16 3 15 2.</_></rects>
      <tilted>0</tilted></_>
    <_>
      <rects>
        <_>
          14 18 6 15 -1.</_>
        <_>
          17 18 3 15 2.</_></rects>
      <tilted>0</tilted></_>
    <_>
      <rects>
        <_>
          14 19 2 4 -1.</_>
        <_>
          14 19 1 2 2.</_>
        <_>
          15 21 1 2 2.</_></rects>
      <tilted>0</tilted></_>
    <_>
      <rects>
        <_>
          14 20 6 9 -1.</_>
        <_>
          17 20 3 9 2.</_></rects>
      <tilted>0</tilted></_>
    <_>
      <rects>
        <_>
          14 22 1 20 -1.</_>
        <_>
          14 32 1 10 2.</_></rects>
      <tilted>0</tilted></_>
    <_>
      <rects>
        <_>
          14 23 1 18 -1.</_>
        <_>
          14 32 1 9 2.</_></rects>
      <tilted>0</tilted></_>
    <_>
      <rects>
        <_>
          14 31 2 6 -1.</_>
        <_>
          14 31 1 3 2.</_>
        <_>
          15 34 1 3 2.</_></rects>
      <tilted>0</tilted></_>
    <_>
      <rects>
        <_>
          15 20 2 4 -1.</_>
        <_>
          15 20 1 2 2.</_>
        <_>
          16 22 1 2 2.</_></rects>
      <tilted>0</tilted></_>
    <_>
      <rects>
        <_>
          15 23 1 14 -1.</_>
        <_>
          15 23 1 7 2.</_></rects>
      <tilted>1</tilted></_>
    <_>
      <rects>
        <_>
          15 31 10 3 -1.</_>
        <_>
          15 32 10 1 3.</_></rects>
      <tilted>0</tilted></_>
    <_>
      <rects>
        <_>
          16 0 9 6 -1.</_>
        <_>
          14 2 9 2 3.</_></rects>
      <tilted>1</tilted></_>
    <_>
      <rects>
        <_>
          16 20 8 9 -1.</_>
        <_>
          16 20 4 9 2.</_></rects>
      <tilted>1</tilted></_>
    <_>
      <rects>
        <_>
          16 21 3 6 -1.</_>
        <_>
          17 21 1 6 3.</_></rects>
      <tilted>0</tilted></_>
    <_>
      <rects>
        <_>
          16 21 3 7 -1.</_>
        <_>
          17 21 1 7 3.</_></rects>
      <tilted>0</tilted></_>
    <_>
      <rects>
        <_>
          16 22 2 10 -1.</_>
        <_>
          16 22 1 5 2.</_>
        <_>
          17 27 1 5 2.</_></rects>
      <tilted>0</tilted></_>
    <_>
      <rects>
        <_>
          16 25 2 12 -1.</_>
        <_>
          16 25 1 6 2.</_>
        <_>
          17 31 1 6 2.</_></rects>
      <tilted>0</tilted></_>
    <_>
      <rects>
        <_>
          16 26 3 2 -1.</_>
        <_>
          17 26 1 2 3.</_></rects>
      <tilted>0</tilted></_>
    <_>
      <rects>
        <_>
          16 26 4 2 -1.</_>
        <_>
          17 26 2 2 2.</_></rects>
      <tilted>0</tilted></_>
    <_>
      <rects>
        <_>
          16 26 3 6 -1.</_>
        <_>
          17 26 1 6 3.</_></rects>
      <tilted>0</tilted></_>
    <_>
      <rects>
        <_>
          16 28 5 3 -1.</_>
        <_>
          16 29 5 1 3.</_></rects>
      <tilted>0</tilted></_>
    <_>
      <rects>
        <_>
          16 29 4 8 -1.</_>
        <_>
          16 29 2 4 2.</_>
        <_>
          18 33 2 4 2.</_></rects>
      <tilted>0</tilted></_>
    <_>
      <rects>
        <_>
          16 30 2 5 -1.</_>
        <_>
          17 30 1 5 2.</_></rects>
      <tilted>0</tilted></_>
    <_>
      <rects>
        <_>
          16 30 9 3 -1.</_>
        <_>
          16 31 9 1 3.</_></rects>
      <tilted>0</tilted></_>
    <_>
      <rects>
        <_>
          16 33 3 4 -1.</_>
        <_>
          17 34 1 4 3.</_></rects>
      <tilted>1</tilted></_>
    <_>
      <rects>
        <_>
          16 34 6 6 -1.</_>
        <_>
          18 34 2 6 3.</_></rects>
      <tilted>0</tilted></_>
    <_>
      <rects>
        <_>
          17 17 8 2 -1.</_>
        <_>
          19 17 4 2 2.</_></rects>
      <tilted>0</tilted></_>
    <_>
      <rects>
        <_>
          17 23 4 5 -1.</_>
        <_>
          18 23 2 5 2.</_></rects>
      <tilted>0</tilted></_>
    <_>
      <rects>
        <_>
          17 24 2 10 -1.</_>
        <_>
          17 24 1 5 2.</_>
        <_>
          18 29 1 5 2.</_></rects>
      <tilted>0</tilted></_>
    <_>
      <rects>
        <_>
          17 25 2 7 -1.</_>
        <_>
          18 25 1 7 2.</_></rects>
      <tilted>0</tilted></_>
    <_>
      <rects>
        <_>
          17 27 3 7 -1.</_>
        <_>
          18 27 1 7 3.</_></rects>
      <tilted>0</tilted></_>
    <_>
      <rects>
        <_>
          17 29 3 7 -1.</_>
        <_>
          18 29 1 7 3.</_></rects>
      <tilted>0</tilted></_>
    <_>
      <rects>
        <_>
          17 30 3 4 -1.</_>
        <_>
          18 30 1 4 3.</_></rects>
      <tilted>0</tilted></_>
    <_>
      <rects>
        <_>
          17 31 6 3 -1.</_>
        <_>
          17 32 6 1 3.</_></rects>
      <tilted>0</tilted></_>
    <_>
      <rects>
        <_>
          18 16 4 16 -1.</_>
        <_>
          18 16 2 8 2.</_>
        <_>
          20 24 2 8 2.</_></rects>
      <tilted>0</tilted></_>
    <_>
      <rects>
        <_>
          18 17 4 8 -1.</_>
        <_>
          18 17 4 4 2.</_></rects>
      <tilted>1</tilted></_>
    <_>
      <rects>
        <_>
          18 18 2 6 -1.</_>
        <_>
          19 18 1 6 2.</_></rects>
      <tilted>0</tilted></_>
    <_>
      <rects>
        <_>
          18 22 3 10 -1.</_>
        <_>
          19 22 1 10 3.</_></rects>
      <tilted>0</tilted></_>
    <_>
      <rects>
        <_>
          18 22 4 6 -1.</_>
        <_>
          18 22 2 3 2.</_>
        <_>
          20 25 2 3 2.</_></rects>
      <tilted>0</tilted></_>
    <_>
      <rects>
        <_>
          18 23 2 14 -1.</_>
        <_>
          18 23 1 7 2.</_>
        <_>
          19 30 1 7 2.</_></rects>
      <tilted>0</tilted></_>
    <_>
      <rects>
        <_>
          18 24 2 14 -1.</_>
        <_>
          18 24 1 7 2.</_>
        <_>
          19 31 1 7 2.</_></rects>
      <tilted>0</tilted></_>
    <_>
      <rects>
        <_>
          18 24 6 3 -1.</_>
        <_>
          18 25 6 1 3.</_></rects>
      <tilted>0</tilted></_>
    <_>
      <rects>
        <_>
          18 28 3 2 -1.</_>
        <_>
          19 28 1 2 3.</_></rects>
      <tilted>0</tilted></_>
    <_>
      <rects>
        <_>
          18 28 7 3 -1.</_>
        <_>
          18 29 7 1 3.</_></rects>
      <tilted>0</tilted></_>
    <_>
      <rects>
        <_>
          18 30 3 4 -1.</_>
        <_>
          19 30 1 4 3.</_></rects>
      <tilted>0</tilted></_>
    <_>
      <rects>
        <_>
          18 32 3 1 -1.</_>
        <_>
          19 33 1 1 3.</_></rects>
      <tilted>1</tilted></_>
    <_>
      <rects>
        <_>
          18 33 3 6 -1.</_>
        <_>
          19 34 1 6 3.</_></rects>
      <tilted>1</tilted></_>
    <_>
      <rects>
        <_>
          18 34 4 1 -1.</_>
        <_>
          19 35 2 1 2.</_></rects>
      <tilted>1</tilted></_>
    <_>
      <rects>
        <_>
          19 15 4 16 -1.</_>
        <_>
          21 15 2 16 2.</_></rects>
      <tilted>0</tilted></_>
    <_>
      <rects>
        <_>
          19 23 2 6 -1.</_>
        <_>
          20 23 1 6 2.</_></rects>
      <tilted>0</tilted></_>
    <_>
      <rects>
        <_>
          19 25 4 14 -1.</_>
        <_>
          19 25 2 7 2.</_>
        <_>
          21 32 2 7 2.</_></rects>
      <tilted>0</tilted></_>
    <_>
      <rects>
        <_>
          19 32 2 6 -1.</_>
        <_>
          19 32 1 3 2.</_>
        <_>
          20 35 1 3 2.</_></rects>
      <tilted>0</tilted></_>
    <_>
      <rects>
        <_>
          20 27 4 11 -1.</_>
        <_>
          21 28 2 11 2.</_></rects>
      <tilted>1</tilted></_>
    <_>
      <rects>
        <_>
          20 33 4 11 -1.</_>
        <_>
          21 34 2 11 2.</_></rects>
      <tilted>1</tilted></_>
    <_>
      <rects>
        <_>
          21 8 4 30 -1.</_>
        <_>
          21 8 2 15 2.</_>
        <_>
          23 23 2 15 2.</_></rects>
      <tilted>0</tilted></_>
    <_>
      <rects>
        <_>
          21 17 4 16 -1.</_>
        <_>
          21 17 2 8 2.</_>
        <_>
          23 25 2 8 2.</_></rects>
      <tilted>0</tilted></_>
    <_>
      <rects>
        <_>
          21 17 3 14 -1.</_>
        <_>
          21 17 3 7 2.</_></rects>
      <tilted>1</tilted></_>
    <_>
      <rects>
        <_>
          21 20 2 6 -1.</_>
        <_>
          19 22 2 2 3.</_></rects>
      <tilted>1</tilted></_>
    <_>
      <rects>
        <_>
          21 22 1 4 -1.</_>
        <_>
          20 23 1 2 2.</_></rects>
      <tilted>1</tilted></_>
    <_>
      <rects>
        <_>
          21 24 4 3 -1.</_>
        <_>
          21 25 4 1 3.</_></rects>
      <tilted>0</tilted></_>
    <_>
      <rects>
        <_>
          21 26 1 12 -1.</_>
        <_>
          21 30 1 4 3.</_></rects>
      <tilted>0</tilted></_>
    <_>
      <rects>
        <_>
          21 30 4 7 -1.</_>
        <_>
          22 31 2 7 2.</_></rects>
      <tilted>1</tilted></_>
    <_>
      <rects>
        <_>
          21 32 3 9 -1.</_>
        <_>
          22 33 1 9 3.</_></rects>
      <tilted>1</tilted></_>
    <_>
      <rects>
        <_>
          22 6 1 10 -1.</_>
        <_>
          22 11 1 5 2.</_></rects>
      <tilted>0</tilted></_>
    <_>
      <rects>
        <_>
          22 24 2 16 -1.</_>
        <_>
          22 24 1 8 2.</_>
        <_>
          23 32 1 8 2.</_></rects>
      <tilted>0</tilted></_></features></cascade>
</opencv_storage>
