<?xml version="1.0"?>
<opencv_storage>
<cascade>
  <stageType>BOOST</stageType>
  <featureType>HAAR</featureType>
  <height>60</height>
  <width>30</width>
  <stageParams>
    <boostType>GAB</boostType>
    <minHitRate>9.9500000476837158e-01</minHitRate>
    <maxFalseAlarm>5.0000000000000000e-01</maxFalseAlarm>
    <weightTrimRate>9.4999999999999996e-01</weightTrimRate>
    <maxDepth>1</maxDepth>
    <maxWeakCount>100</maxWeakCount></stageParams>
  <featureParams>
    <maxCatCount>0</maxCatCount>
    <featSize>1</featSize>
    <mode>ALL</mode></featureParams>
  <stageNum>13</stageNum>
  <stages>
    <!-- stage 0 -->
    <_>
      <maxWeakCount>8</maxWeakCount>
      <stageThreshold>-1.1685482263565063e+00</stageThreshold>
      <weakClassifiers>
        <_>
          <internalNodes>
            0 -1 37 -9.1504007577896118e-03</internalNodes>
          <leafValues>
            7.8560489416122437e-01 -2.0658135414123535e-01</leafValues></_>
        <_>
          <internalNodes>
            0 -1 183 2.2259727120399475e-02</internalNodes>
          <leafValues>
            -1.8331900238990784e-01 7.9777967929840088e-01</leafValues></_>
        <_>
          <internalNodes>
            0 -1 0 -7.5323283672332764e-03</internalNodes>
          <leafValues>
            6.3275295495986938e-01 -3.1941628456115723e-01</leafValues></_>
        <_>
          <internalNodes>
            0 -1 34 -1.5067965723574162e-03</internalNodes>
          <leafValues>
            6.9007861614227295e-01 -2.7247998118400574e-01</leafValues></_>
        <_>
          <internalNodes>
            0 -1 137 5.5348789319396019e-03</internalNodes>
          <leafValues>
            -3.8553863763809204e-01 5.1276403665542603e-01</leafValues></_>
        <_>
          <internalNodes>
            0 -1 170 7.0660845376551151e-03</internalNodes>
          <leafValues>
            -2.3775270581245422e-01 7.2461926937103271e-01</leafValues></_>
        <_>
          <internalNodes>
            0 -1 87 4.3780533596873283e-03</internalNodes>
          <leafValues>
            -2.6703736186027527e-01 7.2587811946868896e-01</leafValues></_>
        <_>
          <internalNodes>
            0 -1 144 -1.4757556840777397e-02</internalNodes>
          <leafValues>
            6.4052957296371460e-01 -2.5879493355751038e-01</leafValues></_></weakClassifiers></_>
    <!-- stage 1 -->
    <_>
      <maxWeakCount>9</maxWeakCount>
      <stageThreshold>-5.6351333856582642e-01</stageThreshold>
      <weakClassifiers>
        <_>
          <internalNodes>
            0 -1 26 -4.0401022881269455e-02</internalNodes>
          <leafValues>
            7.5907588005065918e-01 -1.0101009905338287e-01</leafValues></_>
        <_>
          <internalNodes>
            0 -1 184 2.6474505662918091e-02</internalNodes>
          <leafValues>
            -1.5493971109390259e-01 7.2860622406005859e-01</leafValues></_>
        <_>
          <internalNodes>
            0 -1 86 4.3640539050102234e-02</internalNodes>
          <leafValues>
            -1.7570485174655914e-01 8.4586536884307861e-01</leafValues></_>
        <_>
          <internalNodes>
            0 -1 15 -7.7472785487771034e-03</internalNodes>
          <leafValues>
            6.5649241209030151e-01 -2.1979439258575439e-01</leafValues></_>
        <_>
          <internalNodes>
            0 -1 8 1.0388658381998539e-02</internalNodes>
          <leafValues>
            -2.3492333292961121e-01 6.2141221761703491e-01</leafValues></_>
        <_>
          <internalNodes>
            0 -1 141 1.3225135393440723e-02</internalNodes>
          <leafValues>
            -2.2512695193290710e-01 6.3635194301605225e-01</leafValues></_>
        <_>
          <internalNodes>
            0 -1 211 -3.4720913972705603e-03</internalNodes>
          <leafValues>
            6.1761981248855591e-01 -2.3093912005424500e-01</leafValues></_>
        <_>
          <internalNodes>
            0 -1 162 -5.9982361271977425e-03</internalNodes>
          <leafValues>
            6.0397076606750488e-01 -2.2540597617626190e-01</leafValues></_>
        <_>
          <internalNodes>
            0 -1 27 -7.3905661702156067e-04</internalNodes>
          <leafValues>
            -7.5550162792205811e-01 2.0702207088470459e-01</leafValues></_></weakClassifiers></_>
    <!-- stage 2 -->
    <_>
      <maxWeakCount>14</maxWeakCount>
      <stageThreshold>-6.7078155279159546e-01</stageThreshold>
      <weakClassifiers>
        <_>
          <internalNodes>
            0 -1 70 1.6638461500406265e-02</internalNodes>
          <leafValues>
            5.2147239446640015e-01 -4.9549549818038940e-01</leafValues></_>
        <_>
          <internalNodes>
            0 -1 2 6.4919749274849892e-03</internalNodes>
          <leafValues>
            -2.1684843301773071e-01 5.7545030117034912e-01</leafValues></_>
        <_>
          <internalNodes>
            0 -1 154 1.1420270428061485e-02</internalNodes>
          <leafValues>
            -2.1786253154277802e-01 5.4993021488189697e-01</leafValues></_>
        <_>
          <internalNodes>
            0 -1 114 -4.1014896705746651e-03</internalNodes>
          <leafValues>
            4.3784034252166748e-01 -3.1659874320030212e-01</leafValues></_>
        <_>
          <internalNodes>
            0 -1 50 -6.5813660621643066e-03</internalNodes>
          <leafValues>
            5.8498024940490723e-01 -2.3338402807712555e-01</leafValues></_>
        <_>
          <internalNodes>
            0 -1 48 -4.3774074874818325e-03</internalNodes>
          <leafValues>
            5.0411337614059448e-01 -2.1964076161384583e-01</leafValues></_>
        <_>
          <internalNodes>
            0 -1 133 -1.3420400209724903e-02</internalNodes>
          <leafValues>
            4.8397579789161682e-01 -2.2995798289775848e-01</leafValues></_>
        <_>
          <internalNodes>
            0 -1 68 5.0360863097012043e-03</internalNodes>
          <leafValues>
            -1.7250306904315948e-01 7.3037648200988770e-01</leafValues></_>
        <_>
          <internalNodes>
            0 -1 122 -4.4632386416196823e-03</internalNodes>
          <leafValues>
            4.5623609423637390e-01 -2.4843716621398926e-01</leafValues></_>
        <_>
          <internalNodes>
            0 -1 215 4.4657750986516476e-03</internalNodes>
          <leafValues>
            -1.6916395723819733e-01 5.9832030534744263e-01</leafValues></_>
        <_>
          <internalNodes>
            0 -1 205 -5.3494097664952278e-03</internalNodes>
          <leafValues>
            6.3289964199066162e-01 -1.5575759112834930e-01</leafValues></_>
        <_>
          <internalNodes>
            0 -1 11 1.0468016564846039e-01</internalNodes>
          <leafValues>
            1.6732992231845856e-01 -7.0734828710556030e-01</leafValues></_>
        <_>
          <internalNodes>
            0 -1 57 9.3822990311309695e-04</internalNodes>
          <leafValues>
            -1.8941286206245422e-01 6.4061850309371948e-01</leafValues></_>
        <_>
          <internalNodes>
            0 -1 1 -1.0244971141219139e-02</internalNodes>
          <leafValues>
            5.8194065093994141e-01 -1.9995392858982086e-01</leafValues></_></weakClassifiers></_>
    <!-- stage 3 -->
    <_>
      <maxWeakCount>14</maxWeakCount>
      <stageThreshold>-6.6420036554336548e-01</stageThreshold>
      <weakClassifiers>
        <_>
          <internalNodes>
            0 -1 62 8.8575240224599838e-03</internalNodes>
          <leafValues>
            5.0847455859184265e-02 7.3983740806579590e-01</leafValues></_>
        <_>
          <internalNodes>
            0 -1 97 1.2944499030709267e-03</internalNodes>
          <leafValues>
            -1.4437626302242279e-01 6.6792798042297363e-01</leafValues></_>
        <_>
          <internalNodes>
            0 -1 10 -1.8152736127376556e-02</internalNodes>
          <leafValues>
            5.8598786592483521e-01 -2.1390283107757568e-01</leafValues></_>
        <_>
          <internalNodes>
            0 -1 105 5.2048754878342152e-03</internalNodes>
          <leafValues>
            -2.0458096265792847e-01 6.3299506902694702e-01</leafValues></_>
        <_>
          <internalNodes>
            0 -1 134 -1.6523264348506927e-03</internalNodes>
          <leafValues>
            6.5205556154251099e-01 -1.7665454745292664e-01</leafValues></_>
        <_>
          <internalNodes>
            0 -1 125 3.9300965145230293e-03</internalNodes>
          <leafValues>
            -2.5322163105010986e-01 4.8560306429862976e-01</leafValues></_>
        <_>
          <internalNodes>
            0 -1 150 -3.3331336453557014e-04</internalNodes>
          <leafValues>
            5.1103371381759644e-01 -2.6201045513153076e-01</leafValues></_>
        <_>
          <internalNodes>
            0 -1 157 -3.0273073352873325e-03</internalNodes>
          <leafValues>
            4.1806131601333618e-01 -2.7544021606445312e-01</leafValues></_>
        <_>
          <internalNodes>
            0 -1 197 -7.7848427463322878e-04</internalNodes>
          <leafValues>
            5.0216317176818848e-01 -2.5221854448318481e-01</leafValues></_>
        <_>
          <internalNodes>
            0 -1 58 -8.2971267402172089e-03</internalNodes>
          <leafValues>
            5.4307538270950317e-01 -2.1938963234424591e-01</leafValues></_>
        <_>
          <internalNodes>
            0 -1 91 -3.7853850517421961e-04</internalNodes>
          <leafValues>
            5.8440166711807251e-01 -1.6862836480140686e-01</leafValues></_>
        <_>
          <internalNodes>
            0 -1 73 7.4425031198188663e-04</internalNodes>
          <leafValues>
            -1.9816878437995911e-01 5.9111714363098145e-01</leafValues></_>
        <_>
          <internalNodes>
            0 -1 174 -1.4949045144021511e-03</internalNodes>
          <leafValues>
            4.1715195775032043e-01 -2.7535596489906311e-01</leafValues></_>
        <_>
          <internalNodes>
            0 -1 181 -5.7973149232566357e-03</internalNodes>
          <leafValues>
            5.9819245338439941e-01 -2.0697918534278870e-01</leafValues></_></weakClassifiers></_>
    <!-- stage 4 -->
    <_>
      <maxWeakCount>14</maxWeakCount>
      <stageThreshold>-4.9223688244819641e-01</stageThreshold>
      <weakClassifiers>
        <_>
          <internalNodes>
            0 -1 127 -1.2307340279221535e-02</internalNodes>
          <leafValues>
            8.3561640977859497e-01 1.7180617153644562e-01</leafValues></_>
        <_>
          <internalNodes>
            0 -1 160 1.6417076112702489e-03</internalNodes>
          <leafValues>
            -1.5813854336738586e-01 5.7288146018981934e-01</leafValues></_>
        <_>
          <internalNodes>
            0 -1 155 -2.3924321867525578e-03</internalNodes>
          <leafValues>
            5.0391072034835815e-01 -1.9313681125640869e-01</leafValues></_>
        <_>
          <internalNodes>
            0 -1 117 1.0091544128954411e-02</internalNodes>
          <leafValues>
            -1.4778202772140503e-01 7.0629036426544189e-01</leafValues></_>
        <_>
          <internalNodes>
            0 -1 90 -8.8676810264587402e-03</internalNodes>
          <leafValues>
            5.2349209785461426e-01 -1.9333727657794952e-01</leafValues></_>
        <_>
          <internalNodes>
            0 -1 88 -3.0324039980769157e-03</internalNodes>
          <leafValues>
            3.9844870567321777e-01 -2.6035001873970032e-01</leafValues></_>
        <_>
          <internalNodes>
            0 -1 33 -1.3488160911947489e-03</internalNodes>
          <leafValues>
            4.8319691419601440e-01 -2.0604452490806580e-01</leafValues></_>
        <_>
          <internalNodes>
            0 -1 55 -1.0020533576607704e-02</internalNodes>
          <leafValues>
            4.4040229916572571e-01 -2.1922452747821808e-01</leafValues></_>
        <_>
          <internalNodes>
            0 -1 179 -1.4253284316509962e-03</internalNodes>
          <leafValues>
            4.1234767436981201e-01 -2.2717812657356262e-01</leafValues></_>
        <_>
          <internalNodes>
            0 -1 161 -2.3102436680346727e-03</internalNodes>
          <leafValues>
            3.9287725090980530e-01 -2.5063687562942505e-01</leafValues></_>
        <_>
          <internalNodes>
            0 -1 149 -1.6657122178003192e-03</internalNodes>
          <leafValues>
            6.3286119699478149e-01 -1.5641877055168152e-01</leafValues></_>
        <_>
          <internalNodes>
            0 -1 143 -2.6386608369648457e-03</internalNodes>
          <leafValues>
            6.2171173095703125e-01 -1.3289834558963776e-01</leafValues></_>
        <_>
          <internalNodes>
            0 -1 32 1.8984694033861160e-02</internalNodes>
          <leafValues>
            -1.6035926342010498e-01 5.4919010400772095e-01</leafValues></_>
        <_>
          <internalNodes>
            0 -1 118 -9.2080943286418915e-03</internalNodes>
          <leafValues>
            3.5842213034629822e-01 -2.5625011324882507e-01</leafValues></_></weakClassifiers></_>
    <!-- stage 5 -->
    <_>
      <maxWeakCount>18</maxWeakCount>
      <stageThreshold>-7.3462021350860596e-01</stageThreshold>
      <weakClassifiers>
        <_>
          <internalNodes>
            0 -1 121 6.2873652204871178e-03</internalNodes>
          <leafValues>
            4.7853404283523560e-01 -2.3265306651592255e-01</leafValues></_>
        <_>
          <internalNodes>
            0 -1 169 1.7725221812725067e-02</internalNodes>
          <leafValues>
            -1.1080896854400635e-01 6.9201898574829102e-01</leafValues></_>
        <_>
          <internalNodes>
            0 -1 83 8.6288625607267022e-04</internalNodes>
          <leafValues>
            -1.3202892243862152e-01 6.4777797460556030e-01</leafValues></_>
        <_>
          <internalNodes>
            0 -1 89 1.0021794587373734e-03</internalNodes>
          <leafValues>
            -1.9404883682727814e-01 4.1740685701370239e-01</leafValues></_>
        <_>
          <internalNodes>
            0 -1 188 6.5075792372226715e-03</internalNodes>
          <leafValues>
            -2.0534668862819672e-01 4.3376633524894714e-01</leafValues></_>
        <_>
          <internalNodes>
            0 -1 59 -2.6720361784100533e-03</internalNodes>
          <leafValues>
            -7.8561407327651978e-01 1.3071323931217194e-01</leafValues></_>
        <_>
          <internalNodes>
            0 -1 173 -1.5390926273539662e-03</internalNodes>
          <leafValues>
            4.0990340709686279e-01 -2.2345310449600220e-01</leafValues></_>
        <_>
          <internalNodes>
            0 -1 126 9.8393559455871582e-03</internalNodes>
          <leafValues>
            -1.8325360119342804e-01 4.6978095173835754e-01</leafValues></_>
        <_>
          <internalNodes>
            0 -1 24 -7.9760914668440819e-03</internalNodes>
          <leafValues>
            4.2098701000213623e-01 -2.2306866943836212e-01</leafValues></_>
        <_>
          <internalNodes>
            0 -1 7 4.5054182410240173e-02</internalNodes>
          <leafValues>
            -1.2258578836917877e-01 6.4434909820556641e-01</leafValues></_>
        <_>
          <internalNodes>
            0 -1 164 -2.0131483674049377e-02</internalNodes>
          <leafValues>
            6.6314256191253662e-01 -1.1471229046583176e-01</leafValues></_>
        <_>
          <internalNodes>
            0 -1 85 1.0811379179358482e-02</internalNodes>
          <leafValues>
            -1.7515850067138672e-01 5.3945404291152954e-01</leafValues></_>
        <_>
          <internalNodes>
            0 -1 47 3.7920348346233368e-02</internalNodes>
          <leafValues>
            1.7055661976337433e-01 -6.3455432653427124e-01</leafValues></_>
        <_>
          <internalNodes>
            0 -1 180 -6.7210183478891850e-03</internalNodes>
          <leafValues>
            3.9605158567428589e-01 -2.3250527679920197e-01</leafValues></_>
        <_>
          <internalNodes>
            0 -1 27 5.0753506366163492e-04</internalNodes>
          <leafValues>
            1.8805412948131561e-01 -5.2863347530364990e-01</leafValues></_>
        <_>
          <internalNodes>
            0 -1 209 -1.6216498333960772e-03</internalNodes>
          <leafValues>
            7.1279513835906982e-01 -1.4076633751392365e-01</leafValues></_>
        <_>
          <internalNodes>
            0 -1 82 -1.0868518147617579e-03</internalNodes>
          <leafValues>
            5.9230339527130127e-01 -1.3516074419021606e-01</leafValues></_>
        <_>
          <internalNodes>
            0 -1 46 -2.4565581232309341e-02</internalNodes>
          <leafValues>
            6.4545005559921265e-01 -1.3813734054565430e-01</leafValues></_></weakClassifiers></_>
    <!-- stage 6 -->
    <_>
      <maxWeakCount>22</maxWeakCount>
      <stageThreshold>-5.9200620651245117e-01</stageThreshold>
      <weakClassifiers>
        <_>
          <internalNodes>
            0 -1 61 2.3677369579672813e-02</internalNodes>
          <leafValues>
            5.7283140718936920e-02 6.1969441175460815e-01</leafValues></_>
        <_>
          <internalNodes>
            0 -1 65 2.0228631794452667e-02</internalNodes>
          <leafValues>
            -1.0246107727289200e-01 6.2237858772277832e-01</leafValues></_>
        <_>
          <internalNodes>
            0 -1 145 -8.1987469457089901e-04</internalNodes>
          <leafValues>
            4.2278039455413818e-01 -1.6163849830627441e-01</leafValues></_>
        <_>
          <internalNodes>
            0 -1 123 -1.5359611716121435e-03</internalNodes>
          <leafValues>
            4.3106094002723694e-01 -1.8906041979789734e-01</leafValues></_>
        <_>
          <internalNodes>
            0 -1 136 -2.9573420761153102e-04</internalNodes>
          <leafValues>
            3.5163655877113342e-01 -2.2052225470542908e-01</leafValues></_>
        <_>
          <internalNodes>
            0 -1 111 -1.0268201585859060e-03</internalNodes>
          <leafValues>
            3.9791256189346313e-01 -1.9158582389354706e-01</leafValues></_>
        <_>
          <internalNodes>
            0 -1 53 4.1307201609015465e-03</internalNodes>
          <leafValues>
            -1.5747134387493134e-01 4.7586703300476074e-01</leafValues></_>
        <_>
          <internalNodes>
            0 -1 214 -3.6197716835886240e-03</internalNodes>
          <leafValues>
            6.1454278230667114e-01 -1.3548862934112549e-01</leafValues></_>
        <_>
          <internalNodes>
            0 -1 104 -5.9504373930394650e-03</internalNodes>
          <leafValues>
            3.4403020143508911e-01 -2.5119370222091675e-01</leafValues></_>
        <_>
          <internalNodes>
            0 -1 36 -3.6805702256970108e-04</internalNodes>
          <leafValues>
            -4.0004211664199829e-01 2.0539912581443787e-01</leafValues></_>
        <_>
          <internalNodes>
            0 -1 42 8.3853425458073616e-03</internalNodes>
          <leafValues>
            -1.3671995699405670e-01 5.9817677736282349e-01</leafValues></_>
        <_>
          <internalNodes>
            0 -1 16 -1.1333608999848366e-02</internalNodes>
          <leafValues>
            5.0514304637908936e-01 -1.3895671069622040e-01</leafValues></_>
        <_>
          <internalNodes>
            0 -1 158 3.6978314165025949e-03</internalNodes>
          <leafValues>
            -9.6075586974620819e-02 6.8898510932922363e-01</leafValues></_>
        <_>
          <internalNodes>
            0 -1 167 -2.9396812897175550e-04</internalNodes>
          <leafValues>
            3.4374338388442993e-01 -2.2228561341762543e-01</leafValues></_>
        <_>
          <internalNodes>
            0 -1 151 2.3371553979814053e-03</internalNodes>
          <leafValues>
            -1.1519541591405869e-01 5.8738988637924194e-01</leafValues></_>
        <_>
          <internalNodes>
            0 -1 138 -7.2575290687382221e-03</internalNodes>
          <leafValues>
            4.9067455530166626e-01 -1.6039086878299713e-01</leafValues></_>
        <_>
          <internalNodes>
            0 -1 31 -5.9906404931098223e-04</internalNodes>
          <leafValues>
            -5.5390006303787231e-01 1.4074511826038361e-01</leafValues></_>
        <_>
          <internalNodes>
            0 -1 195 3.9422113331966102e-04</internalNodes>
          <leafValues>
            -1.4735484123229980e-01 5.4955130815505981e-01</leafValues></_>
        <_>
          <internalNodes>
            0 -1 130 5.5927428184077144e-04</internalNodes>
          <leafValues>
            -1.7245894670486450e-01 4.2004328966140747e-01</leafValues></_>
        <_>
          <internalNodes>
            0 -1 56 -6.7702406086027622e-03</internalNodes>
          <leafValues>
            3.2250249385833740e-01 -2.4592122435569763e-01</leafValues></_>
        <_>
          <internalNodes>
            0 -1 25 -8.4447721019387245e-04</internalNodes>
          <leafValues>
            2.9776757955551147e-01 -2.7117538452148438e-01</leafValues></_>
        <_>
          <internalNodes>
            0 -1 159 2.2780457511544228e-03</internalNodes>
          <leafValues>
            -1.7989470064640045e-01 4.4495698809623718e-01</leafValues></_></weakClassifiers></_>
    <!-- stage 7 -->
    <_>
      <maxWeakCount>19</maxWeakCount>
      <stageThreshold>-4.9715152382850647e-01</stageThreshold>
      <weakClassifiers>
        <_>
          <internalNodes>
            0 -1 206 2.9472797177731991e-04</internalNodes>
          <leafValues>
            4.7216495871543884e-01 -2.5217390060424805e-01</leafValues></_>
        <_>
          <internalNodes>
            0 -1 29 -6.4578548073768616e-02</internalNodes>
          <leafValues>
            4.2568552494049072e-01 -1.9593398272991180e-01</leafValues></_>
        <_>
          <internalNodes>
            0 -1 74 -7.7894149580970407e-04</internalNodes>
          <leafValues>
            4.8258218169212341e-01 -1.5158867835998535e-01</leafValues></_>
        <_>
          <internalNodes>
            0 -1 166 -2.3272024467587471e-02</internalNodes>
          <leafValues>
            5.6303238868713379e-01 -1.7528684437274933e-01</leafValues></_>
        <_>
          <internalNodes>
            0 -1 35 3.9094689418561757e-04</internalNodes>
          <leafValues>
            1.6939859092235565e-01 -6.0347265005111694e-01</leafValues></_>
        <_>
          <internalNodes>
            0 -1 182 -1.8767982721328735e-02</internalNodes>
          <leafValues>
            4.1378650069236755e-01 -2.1088045835494995e-01</leafValues></_>
        <_>
          <internalNodes>
            0 -1 41 -3.0639052856713533e-03</internalNodes>
          <leafValues>
            4.4512915611267090e-01 -1.9323906302452087e-01</leafValues></_>
        <_>
          <internalNodes>
            0 -1 185 1.2666879221796989e-02</internalNodes>
          <leafValues>
            -2.0210562646389008e-01 4.1823312640190125e-01</leafValues></_>
        <_>
          <internalNodes>
            0 -1 13 5.8815570082515478e-04</internalNodes>
          <leafValues>
            -2.0376050472259521e-01 3.9204293489456177e-01</leafValues></_>
        <_>
          <internalNodes>
            0 -1 21 -1.3994018081575632e-04</internalNodes>
          <leafValues>
            -5.5496126413345337e-01 1.7089560627937317e-01</leafValues></_>
        <_>
          <internalNodes>
            0 -1 84 -2.1208705380558968e-02</internalNodes>
          <leafValues>
            4.5904079079627991e-01 -2.1609649062156677e-01</leafValues></_>
        <_>
          <internalNodes>
            0 -1 19 -2.2416576393879950e-04</internalNodes>
          <leafValues>
            -3.6962062120437622e-01 2.2315110266208649e-01</leafValues></_>
        <_>
          <internalNodes>
            0 -1 219 -6.1491766246035695e-05</internalNodes>
          <leafValues>
            -3.6276039481163025e-01 2.2560526430606842e-01</leafValues></_>
        <_>
          <internalNodes>
            0 -1 80 -2.0353153347969055e-02</internalNodes>
          <leafValues>
            5.5087232589721680e-01 -1.4728334546089172e-01</leafValues></_>
        <_>
          <internalNodes>
            0 -1 99 -2.8006075881421566e-03</internalNodes>
          <leafValues>
            3.9258608222007751e-01 -2.0754125714302063e-01</leafValues></_>
        <_>
          <internalNodes>
            0 -1 135 -1.0597188957035542e-03</internalNodes>
          <leafValues>
            4.0030929446220398e-01 -2.0139934122562408e-01</leafValues></_>
        <_>
          <internalNodes>
            0 -1 218 1.6760609287302941e-04</internalNodes>
          <leafValues>
            1.4660450816154480e-01 -5.6987845897674561e-01</leafValues></_>
        <_>
          <internalNodes>
            0 -1 176 3.0554472468793392e-03</internalNodes>
          <leafValues>
            -1.2886291742324829e-01 6.6296666860580444e-01</leafValues></_>
        <_>
          <internalNodes>
            0 -1 191 7.2453515604138374e-03</internalNodes>
          <leafValues>
            -1.4106698334217072e-01 5.6372529268264771e-01</leafValues></_></weakClassifiers></_>
    <!-- stage 8 -->
    <_>
      <maxWeakCount>18</maxWeakCount>
      <stageThreshold>-6.1087399721145630e-01</stageThreshold>
      <weakClassifiers>
        <_>
          <internalNodes>
            0 -1 20 8.8763725943863392e-04</internalNodes>
          <leafValues>
            4.7095435857772827e-01 -2.2881355881690979e-01</leafValues></_>
        <_>
          <internalNodes>
            0 -1 108 1.4955816790461540e-02</internalNodes>
          <leafValues>
            -6.1049286276102066e-02 8.5304135084152222e-01</leafValues></_>
        <_>
          <internalNodes>
            0 -1 94 1.0256456211209297e-02</internalNodes>
          <leafValues>
            -3.1921899318695068e-01 3.0756133794784546e-01</leafValues></_>
        <_>
          <internalNodes>
            0 -1 18 9.3721107987221330e-05</internalNodes>
          <leafValues>
            1.8674433231353760e-01 -4.2275792360305786e-01</leafValues></_>
        <_>
          <internalNodes>
            0 -1 146 -2.6343085337430239e-03</internalNodes>
          <leafValues>
            3.1085923314094543e-01 -2.4252898991107941e-01</leafValues></_>
        <_>
          <internalNodes>
            0 -1 129 1.8534176051616669e-03</internalNodes>
          <leafValues>
            -1.0659227520227432e-01 6.4803361892700195e-01</leafValues></_>
        <_>
          <internalNodes>
            0 -1 198 6.8029314279556274e-03</internalNodes>
          <leafValues>
            -2.3899130523204803e-01 3.8290846347808838e-01</leafValues></_>
        <_>
          <internalNodes>
            0 -1 77 -2.3661018349230289e-03</internalNodes>
          <leafValues>
            4.6829634904861450e-01 -1.6499143838882446e-01</leafValues></_>
        <_>
          <internalNodes>
            0 -1 171 -1.6212522750720382e-03</internalNodes>
          <leafValues>
            5.5651074647903442e-01 -1.4400926232337952e-01</leafValues></_>
        <_>
          <internalNodes>
            0 -1 22 -5.5464298930019140e-04</internalNodes>
          <leafValues>
            -6.0139358043670654e-01 1.4809696376323700e-01</leafValues></_>
        <_>
          <internalNodes>
            0 -1 207 -8.9600784704089165e-03</internalNodes>
          <leafValues>
            6.7211258411407471e-01 -1.3465750217437744e-01</leafValues></_>
        <_>
          <internalNodes>
            0 -1 52 -7.8619201667606831e-04</internalNodes>
          <leafValues>
            4.1985148191452026e-01 -1.9580437242984772e-01</leafValues></_>
        <_>
          <internalNodes>
            0 -1 96 -4.6211067819967866e-04</internalNodes>
          <leafValues>
            3.7599894404411316e-01 -2.1354867517948151e-01</leafValues></_>
        <_>
          <internalNodes>
            0 -1 23 -1.0536215268075466e-03</internalNodes>
          <leafValues>
            -6.2764143943786621e-01 1.4103761315345764e-01</leafValues></_>
        <_>
          <internalNodes>
            0 -1 223 -1.8173857824876904e-04</internalNodes>
          <leafValues>
            -5.4471510648727417e-01 1.1819976568222046e-01</leafValues></_>
        <_>
          <internalNodes>
            0 -1 17 -4.2071137577295303e-03</internalNodes>
          <leafValues>
            5.9775060415267944e-01 -1.4154545962810516e-01</leafValues></_>
        <_>
          <internalNodes>
            0 -1 38 4.4460192322731018e-02</internalNodes>
          <leafValues>
            -1.0277290642261505e-01 6.4037877321243286e-01</leafValues></_>
        <_>
          <internalNodes>
            0 -1 190 -1.0581917595118284e-03</internalNodes>
          <leafValues>
            5.0011616945266724e-01 -1.5509249269962311e-01</leafValues></_></weakClassifiers></_>
    <!-- stage 9 -->
    <_>
      <maxWeakCount>19</maxWeakCount>
      <stageThreshold>-6.4741283655166626e-01</stageThreshold>
      <weakClassifiers>
        <_>
          <internalNodes>
            0 -1 212 -5.2917009452357888e-04</internalNodes>
          <leafValues>
            -3.7142857909202576e-01 4.2641508579254150e-01</leafValues></_>
        <_>
          <internalNodes>
            0 -1 28 -6.1596095561981201e-02</internalNodes>
          <leafValues>
            3.3822670578956604e-01 -2.1696265041828156e-01</leafValues></_>
        <_>
          <internalNodes>
            0 -1 92 -1.8424079753458500e-03</internalNodes>
          <leafValues>
            3.3583453297615051e-01 -2.2935388982295990e-01</leafValues></_>
        <_>
          <internalNodes>
            0 -1 221 5.9122256061527878e-05</internalNodes>
          <leafValues>
            1.8804718554019928e-01 -3.8977909088134766e-01</leafValues></_>
        <_>
          <internalNodes>
            0 -1 200 1.6899617388844490e-02</internalNodes>
          <leafValues>
            -1.5312473475933075e-01 5.6514191627502441e-01</leafValues></_>
        <_>
          <internalNodes>
            0 -1 63 -3.9490200579166412e-03</internalNodes>
          <leafValues>
            1.6093970835208893e-01 -4.4618865847587585e-01</leafValues></_>
        <_>
          <internalNodes>
            0 -1 196 1.0180161334574223e-03</internalNodes>
          <leafValues>
            7.7975563704967499e-02 -7.8972363471984863e-01</leafValues></_>
        <_>
          <internalNodes>
            0 -1 202 -4.0527142118662596e-04</internalNodes>
          <leafValues>
            -4.3693822622299194e-01 1.3656362891197205e-01</leafValues></_>
        <_>
          <internalNodes>
            0 -1 112 -6.0374359600245953e-04</internalNodes>
          <leafValues>
            3.4254157543182373e-01 -2.0966637134552002e-01</leafValues></_>
        <_>
          <internalNodes>
            0 -1 113 2.5191428721882403e-04</internalNodes>
          <leafValues>
            -1.7293342947959900e-01 4.0599527955055237e-01</leafValues></_>
        <_>
          <internalNodes>
            0 -1 81 3.3201288897544146e-03</internalNodes>
          <leafValues>
            -8.5921667516231537e-02 8.1619554758071899e-01</leafValues></_>
        <_>
          <internalNodes>
            0 -1 64 -1.2423077598214149e-02</internalNodes>
          <leafValues>
            6.8543827533721924e-01 -9.7297720611095428e-02</leafValues></_>
        <_>
          <internalNodes>
            0 -1 39 8.4086379501968622e-04</internalNodes>
          <leafValues>
            2.0122106373310089e-01 -3.5875502228736877e-01</leafValues></_>
        <_>
          <internalNodes>
            0 -1 222 -1.5976766007952392e-04</internalNodes>
          <leafValues>
            -5.4490649700164795e-01 1.2242627888917923e-01</leafValues></_>
        <_>
          <internalNodes>
            0 -1 72 1.3252405449748039e-02</internalNodes>
          <leafValues>
            9.9369868636131287e-02 -7.3047232627868652e-01</leafValues></_>
        <_>
          <internalNodes>
            0 -1 115 -3.8915872573852539e-03</internalNodes>
          <leafValues>
            3.6208096146583557e-01 -2.1771253645420074e-01</leafValues></_>
        <_>
          <internalNodes>
            0 -1 116 7.5598629191517830e-03</internalNodes>
          <leafValues>
            -8.9537806808948517e-02 7.8351575136184692e-01</leafValues></_>
        <_>
          <internalNodes>
            0 -1 177 3.4381910227239132e-03</internalNodes>
          <leafValues>
            -7.6601311564445496e-02 8.8041901588439941e-01</leafValues></_>
        <_>
          <internalNodes>
            0 -1 6 -6.3052063342183828e-04</internalNodes>
          <leafValues>
            -6.1886459589004517e-01 1.3625626266002655e-01</leafValues></_></weakClassifiers></_>
    <!-- stage 10 -->
    <_>
      <maxWeakCount>21</maxWeakCount>
      <stageThreshold>-6.1913543939590454e-01</stageThreshold>
      <weakClassifiers>
        <_>
          <internalNodes>
            0 -1 101 1.2421406805515289e-02</internalNodes>
          <leafValues>
            1.1246200650930405e-01 6.0147601366043091e-01</leafValues></_>
        <_>
          <internalNodes>
            0 -1 128 2.1290421485900879e-02</internalNodes>
          <leafValues>
            -8.1747457385063171e-02 6.8585562705993652e-01</leafValues></_>
        <_>
          <internalNodes>
            0 -1 54 -2.0631729066371918e-01</internalNodes>
          <leafValues>
            -8.4767657518386841e-01 7.5340725481510162e-02</leafValues></_>
        <_>
          <internalNodes>
            0 -1 168 3.4729298204183578e-04</internalNodes>
          <leafValues>
            -1.7181491851806641e-01 3.9528119564056396e-01</leafValues></_>
        <_>
          <internalNodes>
            0 -1 44 3.6954261362552643e-02</internalNodes>
          <leafValues>
            -1.4063839614391327e-01 5.0009441375732422e-01</leafValues></_>
        <_>
          <internalNodes>
            0 -1 178 -6.4024311723187566e-04</internalNodes>
          <leafValues>
            3.5709822177886963e-01 -2.0010450482368469e-01</leafValues></_>
        <_>
          <internalNodes>
            0 -1 69 2.9722019098699093e-03</internalNodes>
          <leafValues>
            -1.1035307496786118e-01 5.7279378175735474e-01</leafValues></_>
        <_>
          <internalNodes>
            0 -1 106 1.4175416436046362e-04</internalNodes>
          <leafValues>
            -2.6742312312126160e-01 2.6163569092750549e-01</leafValues></_>
        <_>
          <internalNodes>
            0 -1 109 -2.1677331998944283e-02</internalNodes>
          <leafValues>
            -7.7882415056228638e-01 9.9487476050853729e-02</leafValues></_>
        <_>
          <internalNodes>
            0 -1 100 -9.7604002803564072e-04</internalNodes>
          <leafValues>
            4.7728353738784790e-01 -1.6449478268623352e-01</leafValues></_>
        <_>
          <internalNodes>
            0 -1 66 -2.3452100867871195e-04</internalNodes>
          <leafValues>
            3.9606827497482300e-01 -1.7076140642166138e-01</leafValues></_>
        <_>
          <internalNodes>
            0 -1 175 -2.1049296483397484e-03</internalNodes>
          <leafValues>
            6.1239576339721680e-01 -1.0266401618719101e-01</leafValues></_>
        <_>
          <internalNodes>
            0 -1 163 1.2497085332870483e-01</internalNodes>
          <leafValues>
            -7.8780673444271088e-02 7.7019715309143066e-01</leafValues></_>
        <_>
          <internalNodes>
            0 -1 194 -9.2233234317973256e-04</internalNodes>
          <leafValues>
            4.4411149621009827e-01 -1.6929812729358673e-01</leafValues></_>
        <_>
          <internalNodes>
            0 -1 152 -7.3987827636301517e-04</internalNodes>
          <leafValues>
            4.2912417650222778e-01 -1.7029248178005219e-01</leafValues></_>
        <_>
          <internalNodes>
            0 -1 75 -1.0894733713939786e-04</internalNodes>
          <leafValues>
            3.1329423189163208e-01 -2.1501849591732025e-01</leafValues></_>
        <_>
          <internalNodes>
            0 -1 102 -1.6719162464141846e-02</internalNodes>
          <leafValues>
            4.9763348698616028e-01 -1.4305293560028076e-01</leafValues></_>
        <_>
          <internalNodes>
            0 -1 139 -3.2660216093063354e-03</internalNodes>
          <leafValues>
            5.6557691097259521e-01 -1.3263823091983795e-01</leafValues></_>
        <_>
          <internalNodes>
            0 -1 192 1.7198601737618446e-02</internalNodes>
          <leafValues>
            -1.5331161022186279e-01 4.4602596759796143e-01</leafValues></_>
        <_>
          <internalNodes>
            0 -1 217 -1.6386956849601120e-04</internalNodes>
          <leafValues>
            -4.0722432732582092e-01 1.8262802064418793e-01</leafValues></_>
        <_>
          <internalNodes>
            0 -1 142 -1.2069962685927749e-03</internalNodes>
          <leafValues>
            3.4137752652168274e-01 -2.2538562119007111e-01</leafValues></_></weakClassifiers></_>
    <!-- stage 11 -->
    <_>
      <maxWeakCount>22</maxWeakCount>
      <stageThreshold>-6.6645938158035278e-01</stageThreshold>
      <weakClassifiers>
        <_>
          <internalNodes>
            0 -1 103 -7.9753892496228218e-03</internalNodes>
          <leafValues>
            4.9199083447456360e-01 -9.2024542391300201e-02</leafValues></_>
        <_>
          <internalNodes>
            0 -1 216 5.5394641822203994e-04</internalNodes>
          <leafValues>
            1.3437645137310028e-01 -6.1004865169525146e-01</leafValues></_>
        <_>
          <internalNodes>
            0 -1 76 -2.6915152557194233e-04</internalNodes>
          <leafValues>
            2.8837716579437256e-01 -2.3243030905723572e-01</leafValues></_>
        <_>
          <internalNodes>
            0 -1 119 4.5587126165628433e-02</internalNodes>
          <leafValues>
            -7.8162282705307007e-02 8.7940198183059692e-01</leafValues></_>
        <_>
          <internalNodes>
            0 -1 153 2.6222480461001396e-02</internalNodes>
          <leafValues>
            -1.8433515727519989e-01 3.7362831830978394e-01</leafValues></_>
        <_>
          <internalNodes>
            0 -1 12 1.3843074440956116e-02</internalNodes>
          <leafValues>
            -1.3316248357295990e-01 4.5695343613624573e-01</leafValues></_>
        <_>
          <internalNodes>
            0 -1 120 1.3497518375515938e-03</internalNodes>
          <leafValues>
            -2.2413067519664764e-01 2.8450569510459900e-01</leafValues></_>
        <_>
          <internalNodes>
            0 -1 107 1.0434172116219997e-02</internalNodes>
          <leafValues>
            -1.0908654332160950e-01 6.5364652872085571e-01</leafValues></_>
        <_>
          <internalNodes>
            0 -1 165 1.6914245206862688e-03</internalNodes>
          <leafValues>
            1.2481302022933960e-01 -6.3736736774444580e-01</leafValues></_>
        <_>
          <internalNodes>
            0 -1 45 -1.9048996269702911e-02</internalNodes>
          <leafValues>
            4.6095401048660278e-01 -1.4843346178531647e-01</leafValues></_>
        <_>
          <internalNodes>
            0 -1 78 9.5246796263381839e-04</internalNodes>
          <leafValues>
            -1.5191559493541718e-01 3.9514368772506714e-01</leafValues></_>
        <_>
          <internalNodes>
            0 -1 201 3.0906358733773232e-04</internalNodes>
          <leafValues>
            -1.9300414621829987e-01 3.4980997443199158e-01</leafValues></_>
        <_>
          <internalNodes>
            0 -1 220 1.0405329521745443e-03</internalNodes>
          <leafValues>
            -1.5212465822696686e-01 4.5670327544212341e-01</leafValues></_>
        <_>
          <internalNodes>
            0 -1 4 5.3099663928151131e-03</internalNodes>
          <leafValues>
            1.2101828306913376e-01 -6.0776948928833008e-01</leafValues></_>
        <_>
          <internalNodes>
            0 -1 95 6.3460133969783783e-02</internalNodes>
          <leafValues>
            6.1639387160539627e-02 -8.4767878055572510e-01</leafValues></_>
        <_>
          <internalNodes>
            0 -1 131 -1.7468027770519257e-02</internalNodes>
          <leafValues>
            -5.1623380184173584e-01 1.1879300326108932e-01</leafValues></_>
        <_>
          <internalNodes>
            0 -1 172 -1.2772706104442477e-03</internalNodes>
          <leafValues>
            5.1740270853042603e-01 -1.3171888887882233e-01</leafValues></_>
        <_>
          <internalNodes>
            0 -1 189 9.8898995202034712e-04</internalNodes>
          <leafValues>
            1.1138784885406494e-01 -6.7184805870056152e-01</leafValues></_>
        <_>
          <internalNodes>
            0 -1 14 -4.8763329687062651e-05</internalNodes>
          <leafValues>
            2.9747334122657776e-01 -2.3917382955551147e-01</leafValues></_>
        <_>
          <internalNodes>
            0 -1 93 1.6178509686142206e-03</internalNodes>
          <leafValues>
            -2.7434933185577393e-01 2.3488828539848328e-01</leafValues></_>
        <_>
          <internalNodes>
            0 -1 140 -1.2964711640961468e-04</internalNodes>
          <leafValues>
            3.2595050334930420e-01 -2.2211341559886932e-01</leafValues></_>
        <_>
          <internalNodes>
            0 -1 213 -1.5437300316989422e-04</internalNodes>
          <leafValues>
            -4.3673923611640930e-01 1.6062384843826294e-01</leafValues></_></weakClassifiers></_>
    <!-- stage 12 -->
    <_>
      <maxWeakCount>27</maxWeakCount>
      <stageThreshold>-7.9217118024826050e-01</stageThreshold>
      <weakClassifiers>
        <_>
          <internalNodes>
            0 -1 9 8.5149370133876801e-03</internalNodes>
          <leafValues>
            4.2196533083915710e-01 -2.3456789553165436e-01</leafValues></_>
        <_>
          <internalNodes>
            0 -1 187 2.1928704518359154e-04</internalNodes>
          <leafValues>
            -1.3119365274906158e-01 3.5887262225151062e-01</leafValues></_>
        <_>
          <internalNodes>
            0 -1 30 5.2270935848355293e-03</internalNodes>
          <leafValues>
            1.0513161122798920e-01 -5.2946341037750244e-01</leafValues></_>
        <_>
          <internalNodes>
            0 -1 51 4.1186891496181488e-02</internalNodes>
          <leafValues>
            -8.2718245685100555e-02 6.8850994110107422e-01</leafValues></_>
        <_>
          <internalNodes>
            0 -1 204 7.5533073395490646e-03</internalNodes>
          <leafValues>
            -1.3974301517009735e-01 5.6796246767044067e-01</leafValues></_>
        <_>
          <internalNodes>
            0 -1 203 -1.0603097034618258e-03</internalNodes>
          <leafValues>
            5.3219187259674072e-01 -9.0734444558620453e-02</leafValues></_>
        <_>
          <internalNodes>
            0 -1 71 1.3211436569690704e-02</internalNodes>
          <leafValues>
            -1.6075377166271210e-01 4.0491265058517456e-01</leafValues></_>
        <_>
          <internalNodes>
            0 -1 156 5.5581487686140463e-05</internalNodes>
          <leafValues>
            -1.7607514560222626e-01 3.3525937795639038e-01</leafValues></_>
        <_>
          <internalNodes>
            0 -1 40 -4.4163333950564265e-04</internalNodes>
          <leafValues>
            2.5594997406005859e-01 -2.3191730678081512e-01</leafValues></_>
        <_>
          <internalNodes>
            0 -1 67 -2.9472461901605129e-03</internalNodes>
          <leafValues>
            2.5383633375167847e-01 -2.3538927733898163e-01</leafValues></_>
        <_>
          <internalNodes>
            0 -1 148 8.8003947166725993e-04</internalNodes>
          <leafValues>
            -1.0178016126155853e-01 5.5528444051742554e-01</leafValues></_>
        <_>
          <internalNodes>
            0 -1 110 2.2944001480937004e-02</internalNodes>
          <leafValues>
            1.0844475030899048e-01 -5.9327560663223267e-01</leafValues></_>
        <_>
          <internalNodes>
            0 -1 193 6.5776798874139786e-04</internalNodes>
          <leafValues>
            -2.9025444388389587e-01 2.1002267301082611e-01</leafValues></_>
        <_>
          <internalNodes>
            0 -1 43 -6.5067328978329897e-04</internalNodes>
          <leafValues>
            -4.8424345254898071e-01 1.2950941920280457e-01</leafValues></_>
        <_>
          <internalNodes>
            0 -1 60 -2.3687593638896942e-02</internalNodes>
          <leafValues>
            4.4688346982002258e-01 -1.5017488598823547e-01</leafValues></_>
        <_>
          <internalNodes>
            0 -1 49 -1.9437799346633255e-04</internalNodes>
          <leafValues>
            2.6306807994842529e-01 -2.3875495791435242e-01</leafValues></_>
        <_>
          <internalNodes>
            0 -1 98 -2.1011260105296969e-04</internalNodes>
          <leafValues>
            3.2065558433532715e-01 -1.8571318686008453e-01</leafValues></_>
        <_>
          <internalNodes>
            0 -1 199 -8.1606768071651459e-04</internalNodes>
          <leafValues>
            3.0650901794433594e-01 -1.9360546767711639e-01</leafValues></_>
        <_>
          <internalNodes>
            0 -1 124 3.0926652252674103e-03</internalNodes>
          <leafValues>
            -1.8294726312160492e-01 3.4352037310600281e-01</leafValues></_>
        <_>
          <internalNodes>
            0 -1 79 2.5984555482864380e-02</internalNodes>
          <leafValues>
            -1.4560222625732422e-01 4.2226552963256836e-01</leafValues></_>
        <_>
          <internalNodes>
            0 -1 147 -8.7922260165214539e-02</internalNodes>
          <leafValues>
            7.4314445257186890e-01 -9.0928807854652405e-02</leafValues></_>
        <_>
          <internalNodes>
            0 -1 208 -6.0416953638195992e-03</internalNodes>
          <leafValues>
            5.9923470020294189e-01 -8.2482859492301941e-02</leafValues></_>
        <_>
          <internalNodes>
            0 -1 186 3.0983835458755493e-02</internalNodes>
          <leafValues>
            -1.1383271962404251e-01 5.0551468133926392e-01</leafValues></_>
        <_>
          <internalNodes>
            0 -1 132 1.4640861190855503e-03</internalNodes>
          <leafValues>
            -1.0038614273071289e-01 5.3393286466598511e-01</leafValues></_>
        <_>
          <internalNodes>
            0 -1 210 4.1041858494281769e-03</internalNodes>
          <leafValues>
            8.6257278919219971e-02 -8.2116496562957764e-01</leafValues></_>
        <_>
          <internalNodes>
            0 -1 3 -4.9020433798432350e-03</internalNodes>
          <leafValues>
            7.0717275142669678e-01 -1.0368589311838150e-01</leafValues></_>
        <_>
          <internalNodes>
            0 -1 5 1.9393938127905130e-03</internalNodes>
          <leafValues>
            -1.3409404456615448e-01 4.9252891540527344e-01</leafValues></_></weakClassifiers></_></stages>
  <features>
    <_>
      <rects>
        <_>
          0 6 18 10 -1.</_>
        <_>
          0 6 9 5 2.</_>
        <_>
          9 11 9 5 2.</_></rects>
      <tilted>0</tilted></_>
    <_>
      <rects>
        <_>
          0 15 6 32 -1.</_>
        <_>
          0 15 3 16 2.</_>
        <_>
          3 31 3 16 2.</_></rects>
      <tilted>0</tilted></_>
    <_>
      <rects>
        <_>
          0 23 12 5 -1.</_>
        <_>
          3 23 6 5 2.</_></rects>
      <tilted>0</tilted></_>
    <_>
      <rects>
        <_>
          0 24 2 28 -1.</_>
        <_>
          0 24 1 14 2.</_>
        <_>
          1 38 1 14 2.</_></rects>
      <tilted>0</tilted></_>
    <_>
      <rects>
        <_>
          0 24 13 6 -1.</_>
        <_>
          0 26 13 2 3.</_></rects>
      <tilted>0</tilted></_>
    <_>
      <rects>
        <_>
          0 28 2 22 -1.</_>
        <_>
          0 28 1 11 2.</_>
        <_>
          1 39 1 11 2.</_></rects>
      <tilted>0</tilted></_>
    <_>
      <rects>
        <_>
          0 40 2 4 -1.</_>
        <_>
          0 41 2 2 2.</_></rects>
      <tilted>0</tilted></_>
    <_>
      <rects>
        <_>
          0 42 18 9 -1.</_>
        <_>
          6 45 6 3 9.</_></rects>
      <tilted>0</tilted></_>
    <_>
      <rects>
        <_>
          0 43 20 5 -1.</_>
        <_>
          5 43 10 5 2.</_></rects>
      <tilted>0</tilted></_>
    <_>
      <rects>
        <_>
          0 49 28 6 -1.</_>
        <_>
          0 51 28 2 3.</_></rects>
      <tilted>0</tilted></_>
    <_>
      <rects>
        <_>
          1 7 10 20 -1.</_>
        <_>
          1 7 5 10 2.</_>
        <_>
          6 17 5 10 2.</_></rects>
      <tilted>0</tilted></_>
    <_>
      <rects>
        <_>
          1 16 26 34 -1.</_>
        <_>
          14 16 13 34 2.</_></rects>
      <tilted>0</tilted></_>
    <_>
      <rects>
        <_>
          1 22 6 31 -1.</_>
        <_>
          3 22 2 31 3.</_></rects>
      <tilted>0</tilted></_>
    <_>
      <rects>
        <_>
          1 30 4 4 -1.</_>
        <_>
          2 30 2 4 2.</_></rects>
      <tilted>0</tilted></_>
    <_>
      <rects>
        <_>
          1 33 2 6 -1.</_>
        <_>
          1 33 1 3 2.</_>
        <_>
          2 36 1 3 2.</_></rects>
      <tilted>0</tilted></_>
    <_>
      <rects>
        <_>
          1 33 8 10 -1.</_>
        <_>
          5 33 4 10 2.</_></rects>
      <tilted>0</tilted></_>
    <_>
      <rects>
        <_>
          1 39 6 12 -1.</_>
        <_>
          4 39 3 12 2.</_></rects>
      <tilted>0</tilted></_>
    <_>
      <rects>
        <_>
          1 39 16 4 -1.</_>
        <_>
          1 39 8 2 2.</_>
        <_>
          9 41 8 2 2.</_></rects>
      <tilted>0</tilted></_>
    <_>
      <rects>
        <_>
          1 41 1 3 -1.</_>
        <_>
          1 42 1 1 3.</_></rects>
      <tilted>0</tilted></_>
    <_>
      <rects>
        <_>
          1 44 5 2 -1.</_>
        <_>
          1 45 5 1 2.</_></rects>
      <tilted>0</tilted></_>
    <_>
      <rects>
        <_>
          2 0 16 3 -1.</_>
        <_>
          2 1 16 1 3.</_></rects>
      <tilted>0</tilted></_>
    <_>
      <rects>
        <_>
          2 8 2 2 -1.</_>
        <_>
          2 8 1 1 2.</_>
        <_>
          3 9 1 1 2.</_></rects>
      <tilted>0</tilted></_>
    <_>
      <rects>
        <_>
          2 23 4 3 -1.</_>
        <_>
          2 24 4 1 3.</_></rects>
      <tilted>0</tilted></_>
    <_>
      <rects>
        <_>
          2 24 10 2 -1.</_>
        <_>
          2 25 10 1 2.</_></rects>
      <tilted>0</tilted></_>
    <_>
      <rects>
        <_>
          2 31 6 11 -1.</_>
        <_>
          5 31 3 11 2.</_></rects>
      <tilted>0</tilted></_>
    <_>
      <rects>
        <_>
          3 10 4 18 -1.</_>
        <_>
          3 10 2 9 2.</_>
        <_>
          5 19 2 9 2.</_></rects>
      <tilted>0</tilted></_>
    <_>
      <rects>
        <_>
          3 15 24 30 -1.</_>
        <_>
          9 15 12 30 2.</_></rects>
      <tilted>0</tilted></_>
    <_>
      <rects>
        <_>
          3 17 4 3 -1.</_>
        <_>
          3 18 4 1 3.</_></rects>
      <tilted>0</tilted></_>
    <_>
      <rects>
        <_>
          3 17 24 26 -1.</_>
        <_>
          9 17 12 26 2.</_></rects>
      <tilted>0</tilted></_>
    <_>
      <rects>
        <_>
          3 18 24 25 -1.</_>
        <_>
          9 18 12 25 2.</_></rects>
      <tilted>0</tilted></_>
    <_>
      <rects>
        <_>
          3 20 9 8 -1.</_>
        <_>
          3 22 9 4 2.</_></rects>
      <tilted>0</tilted></_>
    <_>
      <rects>
        <_>
          3 22 6 3 -1.</_>
        <_>
          3 23 6 1 3.</_></rects>
      <tilted>0</tilted></_>
    <_>
      <rects>
        <_>
          3 29 8 28 -1.</_>
        <_>
          3 29 4 14 2.</_>
        <_>
          7 43 4 14 2.</_></rects>
      <tilted>0</tilted></_>
    <_>
      <rects>
        <_>
          3 33 6 2 -1.</_>
        <_>
          5 33 2 2 3.</_></rects>
      <tilted>0</tilted></_>
    <_>
      <rects>
        <_>
          3 38 6 4 -1.</_>
        <_>
          5 38 2 4 3.</_></rects>
      <tilted>0</tilted></_>
    <_>
      <rects>
        <_>
          3 42 2 3 -1.</_>
        <_>
          3 43 2 1 3.</_></rects>
      <tilted>0</tilted></_>
    <_>
      <rects>
        <_>
          4 8 1 4 -1.</_>
        <_>
          3 9 1 2 2.</_></rects>
      <tilted>1</tilted></_>
    <_>
      <rects>
        <_>
          4 16 24 9 -1.</_>
        <_>
          10 16 12 9 2.</_></rects>
      <tilted>0</tilted></_>
    <_>
      <rects>
        <_>
          4 22 10 32 -1.</_>
        <_>
          4 22 5 16 2.</_>
        <_>
          9 38 5 16 2.</_></rects>
      <tilted>0</tilted></_>
    <_>
      <rects>
        <_>
          4 27 24 3 -1.</_>
        <_>
          4 28 24 1 3.</_></rects>
      <tilted>0</tilted></_>
    <_>
      <rects>
        <_>
          4 31 4 10 -1.</_>
        <_>
          5 31 2 10 2.</_></rects>
      <tilted>0</tilted></_>
    <_>
      <rects>
        <_>
          4 32 4 21 -1.</_>
        <_>
          5 32 2 21 2.</_></rects>
      <tilted>0</tilted></_>
    <_>
      <rects>
        <_>
          4 42 12 4 -1.</_>
        <_>
          4 42 12 2 2.</_></rects>
      <tilted>1</tilted></_>
    <_>
      <rects>
        <_>
          4 57 10 2 -1.</_>
        <_>
          4 57 5 1 2.</_>
        <_>
          9 58 5 1 2.</_></rects>
      <tilted>0</tilted></_>
    <_>
      <rects>
        <_>
          5 3 24 14 -1.</_>
        <_>
          5 10 24 7 2.</_></rects>
      <tilted>0</tilted></_>
    <_>
      <rects>
        <_>
          5 10 8 50 -1.</_>
        <_>
          5 10 4 25 2.</_>
        <_>
          9 35 4 25 2.</_></rects>
      <tilted>0</tilted></_>
    <_>
      <rects>
        <_>
          5 14 8 44 -1.</_>
        <_>
          5 14 4 22 2.</_>
        <_>
          9 36 4 22 2.</_></rects>
      <tilted>0</tilted></_>
    <_>
      <rects>
        <_>
          5 23 20 18 -1.</_>
        <_>
          15 23 10 18 2.</_></rects>
      <tilted>0</tilted></_>
    <_>
      <rects>
        <_>
          5 24 8 10 -1.</_>
        <_>
          7 24 4 10 2.</_></rects>
      <tilted>0</tilted></_>
    <_>
      <rects>
        <_>
          5 40 6 1 -1.</_>
        <_>
          7 40 2 1 3.</_></rects>
      <tilted>0</tilted></_>
    <_>
      <rects>
        <_>
          6 6 10 8 -1.</_>
        <_>
          6 6 5 4 2.</_>
        <_>
          11 10 5 4 2.</_></rects>
      <tilted>0</tilted></_>
    <_>
      <rects>
        <_>
          6 7 24 6 -1.</_>
        <_>
          12 7 12 6 2.</_></rects>
      <tilted>0</tilted></_>
    <_>
      <rects>
        <_>
          6 13 2 6 -1.</_>
        <_>
          6 13 1 6 2.</_></rects>
      <tilted>1</tilted></_>
    <_>
      <rects>
        <_>
          6 13 6 3 -1.</_>
        <_>
          8 15 2 3 3.</_></rects>
      <tilted>1</tilted></_>
    <_>
      <rects>
        <_>
          6 16 12 39 -1.</_>
        <_>
          10 29 4 13 9.</_></rects>
      <tilted>0</tilted></_>
    <_>
      <rects>
        <_>
          6 23 9 12 -1.</_>
        <_>
          9 23 3 12 3.</_></rects>
      <tilted>0</tilted></_>
    <_>
      <rects>
        <_>
          6 29 9 12 -1.</_>
        <_>
          9 33 3 4 9.</_></rects>
      <tilted>0</tilted></_>
    <_>
      <rects>
        <_>
          6 32 3 2 -1.</_>
        <_>
          7 32 1 2 3.</_></rects>
      <tilted>0</tilted></_>
    <_>
      <rects>
        <_>
          6 45 12 6 -1.</_>
        <_>
          10 47 4 2 9.</_></rects>
      <tilted>0</tilted></_>
    <_>
      <rects>
        <_>
          6 45 17 3 -1.</_>
        <_>
          6 46 17 1 3.</_></rects>
      <tilted>0</tilted></_>
    <_>
      <rects>
        <_>
          6 46 21 6 -1.</_>
        <_>
          13 48 7 2 9.</_></rects>
      <tilted>0</tilted></_>
    <_>
      <rects>
        <_>
          7 0 15 24 -1.</_>
        <_>
          7 6 15 12 2.</_></rects>
      <tilted>0</tilted></_>
    <_>
      <rects>
        <_>
          7 0 17 10 -1.</_>
        <_>
          7 5 17 5 2.</_></rects>
      <tilted>0</tilted></_>
    <_>
      <rects>
        <_>
          7 3 14 34 -1.</_>
        <_>
          7 20 14 17 2.</_></rects>
      <tilted>0</tilted></_>
    <_>
      <rects>
        <_>
          7 7 4 7 -1.</_>
        <_>
          7 7 2 7 2.</_></rects>
      <tilted>1</tilted></_>
    <_>
      <rects>
        <_>
          7 20 6 38 -1.</_>
        <_>
          7 20 3 19 2.</_>
        <_>
          10 39 3 19 2.</_></rects>
      <tilted>0</tilted></_>
    <_>
      <rects>
        <_>
          7 23 2 4 -1.</_>
        <_>
          7 23 1 2 2.</_>
        <_>
          8 25 1 2 2.</_></rects>
      <tilted>0</tilted></_>
    <_>
      <rects>
        <_>
          7 24 6 9 -1.</_>
        <_>
          9 24 2 9 3.</_></rects>
      <tilted>0</tilted></_>
    <_>
      <rects>
        <_>
          7 39 2 6 -1.</_>
        <_>
          5 41 2 2 3.</_></rects>
      <tilted>1</tilted></_>
    <_>
      <rects>
        <_>
          7 41 4 4 -1.</_>
        <_>
          6 42 4 2 2.</_></rects>
      <tilted>1</tilted></_>
    <_>
      <rects>
        <_>
          8 4 15 32 -1.</_>
        <_>
          8 20 15 16 2.</_></rects>
      <tilted>0</tilted></_>
    <_>
      <rects>
        <_>
          8 7 14 14 -1.</_>
        <_>
          8 7 7 7 2.</_>
        <_>
          15 14 7 7 2.</_></rects>
      <tilted>0</tilted></_>
    <_>
      <rects>
        <_>
          8 8 12 7 -1.</_>
        <_>
          11 8 6 7 2.</_></rects>
      <tilted>0</tilted></_>
    <_>
      <rects>
        <_>
          8 14 2 10 -1.</_>
        <_>
          8 14 1 5 2.</_>
        <_>
          9 19 1 5 2.</_></rects>
      <tilted>0</tilted></_>
    <_>
      <rects>
        <_>
          8 18 3 1 -1.</_>
        <_>
          9 19 1 1 3.</_></rects>
      <tilted>1</tilted></_>
    <_>
      <rects>
        <_>
          8 22 2 4 -1.</_>
        <_>
          8 22 1 2 2.</_>
        <_>
          9 24 1 2 2.</_></rects>
      <tilted>0</tilted></_>
    <_>
      <rects>
        <_>
          8 23 6 1 -1.</_>
        <_>
          10 23 2 1 3.</_></rects>
      <tilted>0</tilted></_>
    <_>
      <rects>
        <_>
          8 26 4 8 -1.</_>
        <_>
          9 26 2 8 2.</_></rects>
      <tilted>0</tilted></_>
    <_>
      <rects>
        <_>
          8 36 3 4 -1.</_>
        <_>
          9 36 1 4 3.</_></rects>
      <tilted>0</tilted></_>
    <_>
      <rects>
        <_>
          8 46 21 10 -1.</_>
        <_>
          15 46 7 10 3.</_></rects>
      <tilted>0</tilted></_>
    <_>
      <rects>
        <_>
          9 16 9 6 -1.</_>
        <_>
          12 19 3 6 3.</_></rects>
      <tilted>1</tilted></_>
    <_>
      <rects>
        <_>
          9 21 3 2 -1.</_>
        <_>
          10 22 1 2 3.</_></rects>
      <tilted>1</tilted></_>
    <_>
      <rects>
        <_>
          9 30 2 10 -1.</_>
        <_>
          9 30 1 5 2.</_>
        <_>
          10 35 1 5 2.</_></rects>
      <tilted>0</tilted></_>
    <_>
      <rects>
        <_>
          9 37 2 6 -1.</_>
        <_>
          9 37 1 3 2.</_>
        <_>
          10 40 1 3 2.</_></rects>
      <tilted>0</tilted></_>
    <_>
      <rects>
        <_>
          9 41 18 6 -1.</_>
        <_>
          15 43 6 2 9.</_></rects>
      <tilted>0</tilted></_>
    <_>
      <rects>
        <_>
          9 45 10 8 -1.</_>
        <_>
          14 45 5 8 2.</_></rects>
      <tilted>0</tilted></_>
    <_>
      <rects>
        <_>
          10 1 12 10 -1.</_>
        <_>
          14 5 4 10 3.</_></rects>
      <tilted>1</tilted></_>
    <_>
      <rects>
        <_>
          10 9 12 10 -1.</_>
        <_>
          10 9 6 5 2.</_>
        <_>
          16 14 6 5 2.</_></rects>
      <tilted>0</tilted></_>
    <_>
      <rects>
        <_>
          10 9 8 6 -1.</_>
        <_>
          10 12 8 3 2.</_></rects>
      <tilted>0</tilted></_>
    <_>
      <rects>
        <_>
          10 19 4 6 -1.</_>
        <_>
          10 19 2 3 2.</_>
        <_>
          12 22 2 3 2.</_></rects>
      <tilted>0</tilted></_>
    <_>
      <rects>
        <_>
          10 33 9 8 -1.</_>
        <_>
          8 35 9 4 2.</_></rects>
      <tilted>1</tilted></_>
    <_>
      <rects>
        <_>
          10 35 2 6 -1.</_>
        <_>
          10 35 1 3 2.</_>
        <_>
          11 38 1 3 2.</_></rects>
      <tilted>0</tilted></_>
    <_>
      <rects>
        <_>
          10 37 2 6 -1.</_>
        <_>
          8 39 2 2 3.</_></rects>
      <tilted>1</tilted></_>
    <_>
      <rects>
        <_>
          10 40 18 16 -1.</_>
        <_>
          10 44 18 8 2.</_></rects>
      <tilted>0</tilted></_>
    <_>
      <rects>
        <_>
          11 9 6 8 -1.</_>
        <_>
          11 9 3 8 2.</_></rects>
      <tilted>1</tilted></_>
    <_>
      <rects>
        <_>
          11 16 6 27 -1.</_>
        <_>
          13 25 2 9 9.</_></rects>
      <tilted>0</tilted></_>
    <_>
      <rects>
        <_>
          11 17 2 5 -1.</_>
        <_>
          12 17 1 5 2.</_></rects>
      <tilted>0</tilted></_>
    <_>
      <rects>
        <_>
          11 18 4 6 -1.</_>
        <_>
          11 18 2 3 2.</_>
        <_>
          13 21 2 3 2.</_></rects>
      <tilted>0</tilted></_>
    <_>
      <rects>
        <_>
          11 20 3 2 -1.</_>
        <_>
          12 20 1 2 3.</_></rects>
      <tilted>0</tilted></_>
    <_>
      <rects>
        <_>
          11 21 8 3 -1.</_>
        <_>
          13 23 4 3 2.</_></rects>
      <tilted>1</tilted></_>
    <_>
      <rects>
        <_>
          11 30 4 3 -1.</_>
        <_>
          12 30 2 3 2.</_></rects>
      <tilted>0</tilted></_>
    <_>
      <rects>
        <_>
          11 36 8 24 -1.</_>
        <_>
          11 42 8 12 2.</_></rects>
      <tilted>0</tilted></_>
    <_>
      <rects>
        <_>
          11 44 14 8 -1.</_>
        <_>
          18 44 7 8 2.</_></rects>
      <tilted>0</tilted></_>
    <_>
      <rects>
        <_>
          12 3 6 57 -1.</_>
        <_>
          12 22 6 19 3.</_></rects>
      <tilted>0</tilted></_>
    <_>
      <rects>
        <_>
          12 4 2 18 -1.</_>
        <_>
          12 13 2 9 2.</_></rects>
      <tilted>0</tilted></_>
    <_>
      <rects>
        <_>
          12 5 12 8 -1.</_>
        <_>
          12 5 6 4 2.</_>
        <_>
          18 9 6 4 2.</_></rects>
      <tilted>0</tilted></_>
    <_>
      <rects>
        <_>
          12 7 2 5 -1.</_>
        <_>
          12 7 1 5 2.</_></rects>
      <tilted>1</tilted></_>
    <_>
      <rects>
        <_>
          12 7 7 10 -1.</_>
        <_>
          12 12 7 5 2.</_></rects>
      <tilted>0</tilted></_>
    <_>
      <rects>
        <_>
          12 12 6 6 -1.</_>
        <_>
          14 14 2 6 3.</_></rects>
      <tilted>1</tilted></_>
    <_>
      <rects>
        <_>
          12 22 4 8 -1.</_>
        <_>
          12 22 4 4 2.</_></rects>
      <tilted>1</tilted></_>
    <_>
      <rects>
        <_>
          12 22 18 4 -1.</_>
        <_>
          18 28 6 4 3.</_></rects>
      <tilted>1</tilted></_>
    <_>
      <rects>
        <_>
          12 27 3 9 -1.</_>
        <_>
          13 27 1 9 3.</_></rects>
      <tilted>0</tilted></_>
    <_>
      <rects>
        <_>
          12 30 3 5 -1.</_>
        <_>
          13 30 1 5 3.</_></rects>
      <tilted>0</tilted></_>
    <_>
      <rects>
        <_>
          12 32 3 2 -1.</_>
        <_>
          13 32 1 2 3.</_></rects>
      <tilted>0</tilted></_>
    <_>
      <rects>
        <_>
          12 36 6 12 -1.</_>
        <_>
          12 40 6 4 3.</_></rects>
      <tilted>0</tilted></_>
    <_>
      <rects>
        <_>
          12 37 3 15 -1.</_>
        <_>
          12 42 3 5 3.</_></rects>
      <tilted>0</tilted></_>
    <_>
      <rects>
        <_>
          12 38 3 12 -1.</_>
        <_>
          12 41 3 6 2.</_></rects>
      <tilted>0</tilted></_>
    <_>
      <rects>
        <_>
          12 38 3 16 -1.</_>
        <_>
          12 42 3 8 2.</_></rects>
      <tilted>0</tilted></_>
    <_>
      <rects>
        <_>
          12 38 18 16 -1.</_>
        <_>
          12 38 9 8 2.</_>
        <_>
          21 46 9 8 2.</_></rects>
      <tilted>0</tilted></_>
    <_>
      <rects>
        <_>
          12 40 8 10 -1.</_>
        <_>
          12 40 8 5 2.</_></rects>
      <tilted>1</tilted></_>
    <_>
      <rects>
        <_>
          12 46 6 6 -1.</_>
        <_>
          12 49 6 3 2.</_></rects>
      <tilted>0</tilted></_>
    <_>
      <rects>
        <_>
          13 1 5 51 -1.</_>
        <_>
          13 18 5 17 3.</_></rects>
      <tilted>0</tilted></_>
    <_>
      <rects>
        <_>
          13 9 3 15 -1.</_>
        <_>
          13 14 3 5 3.</_></rects>
      <tilted>0</tilted></_>
    <_>
      <rects>
        <_>
          13 26 3 10 -1.</_>
        <_>
          14 26 1 10 3.</_></rects>
      <tilted>0</tilted></_>
    <_>
      <rects>
        <_>
          13 34 2 12 -1.</_>
        <_>
          10 37 2 6 2.</_></rects>
      <tilted>1</tilted></_>
    <_>
      <rects>
        <_>
          13 42 5 8 -1.</_>
        <_>
          13 46 5 4 2.</_></rects>
      <tilted>0</tilted></_>
    <_>
      <rects>
        <_>
          14 0 6 11 -1.</_>
        <_>
          16 2 2 11 3.</_></rects>
      <tilted>1</tilted></_>
    <_>
      <rects>
        <_>
          14 0 4 13 -1.</_>
        <_>
          14 0 2 13 2.</_></rects>
      <tilted>1</tilted></_>
    <_>
      <rects>
        <_>
          14 0 5 16 -1.</_>
        <_>
          14 4 5 8 2.</_></rects>
      <tilted>0</tilted></_>
    <_>
      <rects>
        <_>
          14 1 2 4 -1.</_>
        <_>
          14 3 2 2 2.</_></rects>
      <tilted>0</tilted></_>
    <_>
      <rects>
        <_>
          14 15 2 10 -1.</_>
        <_>
          14 15 1 5 2.</_>
        <_>
          15 20 1 5 2.</_></rects>
      <tilted>0</tilted></_>
    <_>
      <rects>
        <_>
          14 16 4 27 -1.</_>
        <_>
          14 25 4 9 3.</_></rects>
      <tilted>0</tilted></_>
    <_>
      <rects>
        <_>
          14 23 2 8 -1.</_>
        <_>
          14 23 1 4 2.</_>
        <_>
          15 27 1 4 2.</_></rects>
      <tilted>0</tilted></_>
    <_>
      <rects>
        <_>
          14 24 12 14 -1.</_>
        <_>
          18 24 4 14 3.</_></rects>
      <tilted>0</tilted></_>
    <_>
      <rects>
        <_>
          14 25 4 10 -1.</_>
        <_>
          14 25 2 5 2.</_>
        <_>
          16 30 2 5 2.</_></rects>
      <tilted>0</tilted></_>
    <_>
      <rects>
        <_>
          14 27 6 3 -1.</_>
        <_>
          13 28 6 1 3.</_></rects>
      <tilted>1</tilted></_>
    <_>
      <rects>
        <_>
          14 30 3 2 -1.</_>
        <_>
          15 30 1 2 3.</_></rects>
      <tilted>0</tilted></_>
    <_>
      <rects>
        <_>
          14 35 7 18 -1.</_>
        <_>
          14 44 7 9 2.</_></rects>
      <tilted>0</tilted></_>
    <_>
      <rects>
        <_>
          14 36 4 8 -1.</_>
        <_>
          12 38 4 4 2.</_></rects>
      <tilted>1</tilted></_>
    <_>
      <rects>
        <_>
          14 42 2 12 -1.</_>
        <_>
          14 46 2 4 3.</_></rects>
      <tilted>0</tilted></_>
    <_>
      <rects>
        <_>
          14 46 1 8 -1.</_>
        <_>
          14 48 1 4 2.</_></rects>
      <tilted>0</tilted></_>
    <_>
      <rects>
        <_>
          15 6 12 14 -1.</_>
        <_>
          15 6 6 7 2.</_>
        <_>
          21 13 6 7 2.</_></rects>
      <tilted>0</tilted></_>
    <_>
      <rects>
        <_>
          15 8 4 9 -1.</_>
        <_>
          15 11 4 3 3.</_></rects>
      <tilted>0</tilted></_>
    <_>
      <rects>
        <_>
          15 19 4 10 -1.</_>
        <_>
          15 19 2 5 2.</_>
        <_>
          17 24 2 5 2.</_></rects>
      <tilted>0</tilted></_>
    <_>
      <rects>
        <_>
          15 23 12 19 -1.</_>
        <_>
          19 23 4 19 3.</_></rects>
      <tilted>0</tilted></_>
    <_>
      <rects>
        <_>
          15 27 3 7 -1.</_>
        <_>
          16 27 1 7 3.</_></rects>
      <tilted>0</tilted></_>
    <_>
      <rects>
        <_>
          15 33 4 15 -1.</_>
        <_>
          15 38 4 5 3.</_></rects>
      <tilted>0</tilted></_>
    <_>
      <rects>
        <_>
          15 37 15 22 -1.</_>
        <_>
          20 37 5 22 3.</_></rects>
      <tilted>0</tilted></_>
    <_>
      <rects>
        <_>
          15 43 1 4 -1.</_>
        <_>
          15 45 1 2 2.</_></rects>
      <tilted>0</tilted></_>
    <_>
      <rects>
        <_>
          16 10 4 6 -1.</_>
        <_>
          16 10 2 3 2.</_>
        <_>
          18 13 2 3 2.</_></rects>
      <tilted>0</tilted></_>
    <_>
      <rects>
        <_>
          16 14 1 4 -1.</_>
        <_>
          16 16 1 2 2.</_></rects>
      <tilted>0</tilted></_>
    <_>
      <rects>
        <_>
          16 16 6 6 -1.</_>
        <_>
          16 16 3 3 2.</_>
        <_>
          19 19 3 3 2.</_></rects>
      <tilted>0</tilted></_>
    <_>
      <rects>
        <_>
          16 27 3 5 -1.</_>
        <_>
          17 27 1 5 3.</_></rects>
      <tilted>0</tilted></_>
    <_>
      <rects>
        <_>
          17 2 10 24 -1.</_>
        <_>
          17 2 5 12 2.</_>
        <_>
          22 14 5 12 2.</_></rects>
      <tilted>0</tilted></_>
    <_>
      <rects>
        <_>
          17 10 12 12 -1.</_>
        <_>
          17 10 6 6 2.</_>
        <_>
          23 16 6 6 2.</_></rects>
      <tilted>0</tilted></_>
    <_>
      <rects>
        <_>
          17 17 4 10 -1.</_>
        <_>
          17 17 2 5 2.</_>
        <_>
          19 22 2 5 2.</_></rects>
      <tilted>0</tilted></_>
    <_>
      <rects>
        <_>
          17 18 2 2 -1.</_>
        <_>
          17 18 1 1 2.</_>
        <_>
          18 19 1 1 2.</_></rects>
      <tilted>0</tilted></_>
    <_>
      <rects>
        <_>
          17 27 8 8 -1.</_>
        <_>
          19 27 4 8 2.</_></rects>
      <tilted>0</tilted></_>
    <_>
      <rects>
        <_>
          17 43 6 6 -1.</_>
        <_>
          17 43 3 3 2.</_>
        <_>
          20 46 3 3 2.</_></rects>
      <tilted>0</tilted></_>
    <_>
      <rects>
        <_>
          18 2 9 4 -1.</_>
        <_>
          17 3 9 2 2.</_></rects>
      <tilted>1</tilted></_>
    <_>
      <rects>
        <_>
          18 12 8 4 -1.</_>
        <_>
          18 12 4 2 2.</_>
        <_>
          22 14 4 2 2.</_></rects>
      <tilted>0</tilted></_>
    <_>
      <rects>
        <_>
          18 27 6 9 -1.</_>
        <_>
          20 27 2 9 3.</_></rects>
      <tilted>0</tilted></_>
    <_>
      <rects>
        <_>
          18 29 8 9 -1.</_>
        <_>
          20 29 4 9 2.</_></rects>
      <tilted>0</tilted></_>
    <_>
      <rects>
        <_>
          18 33 12 24 -1.</_>
        <_>
          22 41 4 8 9.</_></rects>
      <tilted>0</tilted></_>
    <_>
      <rects>
        <_>
          19 7 7 9 -1.</_>
        <_>
          16 10 7 3 3.</_></rects>
      <tilted>1</tilted></_>
    <_>
      <rects>
        <_>
          19 19 11 3 -1.</_>
        <_>
          19 20 11 1 3.</_></rects>
      <tilted>0</tilted></_>
    <_>
      <rects>
        <_>
          19 20 8 40 -1.</_>
        <_>
          21 20 4 40 2.</_></rects>
      <tilted>0</tilted></_>
    <_>
      <rects>
        <_>
          19 31 4 3 -1.</_>
        <_>
          20 31 2 3 2.</_></rects>
      <tilted>0</tilted></_>
    <_>
      <rects>
        <_>
          19 39 3 2 -1.</_>
        <_>
          20 39 1 2 3.</_></rects>
      <tilted>0</tilted></_>
    <_>
      <rects>
        <_>
          20 4 6 14 -1.</_>
        <_>
          20 11 6 7 2.</_></rects>
      <tilted>0</tilted></_>
    <_>
      <rects>
        <_>
          20 9 8 12 -1.</_>
        <_>
          20 9 4 6 2.</_>
        <_>
          24 15 4 6 2.</_></rects>
      <tilted>0</tilted></_>
    <_>
      <rects>
        <_>
          20 20 2 4 -1.</_>
        <_>
          19 21 2 2 2.</_></rects>
      <tilted>1</tilted></_>
    <_>
      <rects>
        <_>
          20 23 2 8 -1.</_>
        <_>
          20 23 1 4 2.</_>
        <_>
          21 27 1 4 2.</_></rects>
      <tilted>0</tilted></_>
    <_>
      <rects>
        <_>
          20 34 4 5 -1.</_>
        <_>
          21 35 2 5 2.</_></rects>
      <tilted>1</tilted></_>
    <_>
      <rects>
        <_>
          20 36 6 5 -1.</_>
        <_>
          22 36 2 5 3.</_></rects>
      <tilted>0</tilted></_>
    <_>
      <rects>
        <_>
          21 21 2 3 -1.</_>
        <_>
          20 22 2 1 3.</_></rects>
      <tilted>1</tilted></_>
    <_>
      <rects>
        <_>
          21 24 4 7 -1.</_>
        <_>
          22 24 2 7 2.</_></rects>
      <tilted>0</tilted></_>
    <_>
      <rects>
        <_>
          21 29 4 4 -1.</_>
        <_>
          22 29 2 4 2.</_></rects>
      <tilted>0</tilted></_>
    <_>
      <rects>
        <_>
          21 37 3 3 -1.</_>
        <_>
          22 38 1 3 3.</_></rects>
      <tilted>1</tilted></_>
    <_>
      <rects>
        <_>
          21 37 6 3 -1.</_>
        <_>
          23 37 2 3 3.</_></rects>
      <tilted>0</tilted></_>
    <_>
      <rects>
        <_>
          21 37 8 2 -1.</_>
        <_>
          21 37 4 2 2.</_></rects>
      <tilted>1</tilted></_>
    <_>
      <rects>
        <_>
          21 46 6 8 -1.</_>
        <_>
          21 50 6 4 2.</_></rects>
      <tilted>0</tilted></_>
    <_>
      <rects>
        <_>
          22 0 8 53 -1.</_>
        <_>
          26 0 4 53 2.</_></rects>
      <tilted>0</tilted></_>
    <_>
      <rects>
        <_>
          22 2 8 44 -1.</_>
        <_>
          22 2 4 22 2.</_>
        <_>
          26 24 4 22 2.</_></rects>
      <tilted>0</tilted></_>
    <_>
      <rects>
        <_>
          22 4 8 40 -1.</_>
        <_>
          22 4 4 20 2.</_>
        <_>
          26 24 4 20 2.</_></rects>
      <tilted>0</tilted></_>
    <_>
      <rects>
        <_>
          22 11 8 6 -1.</_>
        <_>
          22 11 8 3 2.</_></rects>
      <tilted>1</tilted></_>
    <_>
      <rects>
        <_>
          22 16 6 44 -1.</_>
        <_>
          22 27 6 22 2.</_></rects>
      <tilted>0</tilted></_>
    <_>
      <rects>
        <_>
          22 26 2 4 -1.</_>
        <_>
          22 26 1 2 2.</_>
        <_>
          23 28 1 2 2.</_></rects>
      <tilted>0</tilted></_>
    <_>
      <rects>
        <_>
          22 28 8 14 -1.</_>
        <_>
          22 28 4 7 2.</_>
        <_>
          26 35 4 7 2.</_></rects>
      <tilted>0</tilted></_>
    <_>
      <rects>
        <_>
          22 30 3 4 -1.</_>
        <_>
          22 31 3 2 2.</_></rects>
      <tilted>0</tilted></_>
    <_>
      <rects>
        <_>
          22 32 3 5 -1.</_>
        <_>
          23 32 1 5 3.</_></rects>
      <tilted>0</tilted></_>
    <_>
      <rects>
        <_>
          22 44 2 10 -1.</_>
        <_>
          22 44 2 5 2.</_></rects>
      <tilted>1</tilted></_>
    <_>
      <rects>
        <_>
          23 1 2 22 -1.</_>
        <_>
          23 1 2 11 2.</_></rects>
      <tilted>1</tilted></_>
    <_>
      <rects>
        <_>
          23 11 4 4 -1.</_>
        <_>
          23 11 4 2 2.</_></rects>
      <tilted>1</tilted></_>
    <_>
      <rects>
        <_>
          23 19 3 3 -1.</_>
        <_>
          22 20 3 1 3.</_></rects>
      <tilted>1</tilted></_>
    <_>
      <rects>
        <_>
          23 25 2 4 -1.</_>
        <_>
          23 25 1 2 2.</_>
        <_>
          24 27 1 2 2.</_></rects>
      <tilted>0</tilted></_>
    <_>
      <rects>
        <_>
          23 29 4 3 -1.</_>
        <_>
          23 30 4 1 3.</_></rects>
      <tilted>0</tilted></_>
    <_>
      <rects>
        <_>
          23 32 4 6 -1.</_>
        <_>
          24 32 2 6 2.</_></rects>
      <tilted>0</tilted></_>
    <_>
      <rects>
        <_>
          23 32 6 11 -1.</_>
        <_>
          26 32 3 11 2.</_></rects>
      <tilted>0</tilted></_>
    <_>
      <rects>
        <_>
          23 38 3 4 -1.</_>
        <_>
          24 39 1 4 3.</_></rects>
      <tilted>1</tilted></_>
    <_>
      <rects>
        <_>
          24 7 4 34 -1.</_>
        <_>
          24 7 2 17 2.</_>
        <_>
          26 24 2 17 2.</_></rects>
      <tilted>0</tilted></_>
    <_>
      <rects>
        <_>
          24 9 2 3 -1.</_>
        <_>
          23 10 2 1 3.</_></rects>
      <tilted>1</tilted></_>
    <_>
      <rects>
        <_>
          24 57 5 3 -1.</_>
        <_>
          24 58 5 1 3.</_></rects>
      <tilted>0</tilted></_>
    <_>
      <rects>
        <_>
          25 25 1 3 -1.</_>
        <_>
          24 26 1 1 3.</_></rects>
      <tilted>1</tilted></_>
    <_>
      <rects>
        <_>
          25 33 4 4 -1.</_>
        <_>
          25 33 4 2 2.</_></rects>
      <tilted>1</tilted></_>
    <_>
      <rects>
        <_>
          25 38 4 4 -1.</_>
        <_>
          25 38 2 4 2.</_></rects>
      <tilted>1</tilted></_>
    <_>
      <rects>
        <_>
          25 57 3 3 -1.</_>
        <_>
          25 58 3 1 3.</_></rects>
      <tilted>0</tilted></_>
    <_>
      <rects>
        <_>
          26 10 4 4 -1.</_>
        <_>
          26 10 4 2 2.</_></rects>
      <tilted>1</tilted></_>
    <_>
      <rects>
        <_>
          26 11 4 16 -1.</_>
        <_>
          26 11 2 8 2.</_>
        <_>
          28 19 2 8 2.</_></rects>
      <tilted>0</tilted></_>
    <_>
      <rects>
        <_>
          26 18 2 6 -1.</_>
        <_>
          27 18 1 6 2.</_></rects>
      <tilted>0</tilted></_>
    <_>
      <rects>
        <_>
          26 25 4 3 -1.</_>
        <_>
          27 26 2 3 2.</_></rects>
      <tilted>1</tilted></_>
    <_>
      <rects>
        <_>
          26 37 1 10 -1.</_>
        <_>
          26 37 1 5 2.</_></rects>
      <tilted>1</tilted></_>
    <_>
      <rects>
        <_>
          26 41 3 3 -1.</_>
        <_>
          26 42 3 1 3.</_></rects>
      <tilted>0</tilted></_>
    <_>
      <rects>
        <_>
          27 2 3 2 -1.</_>
        <_>
          27 3 3 1 2.</_></rects>
      <tilted>0</tilted></_>
    <_>
      <rects>
        <_>
          27 12 2 4 -1.</_>
        <_>
          27 12 2 2 2.</_></rects>
      <tilted>1</tilted></_>
    <_>
      <rects>
        <_>
          27 21 3 6 -1.</_>
        <_>
          25 23 3 2 3.</_></rects>
      <tilted>1</tilted></_>
    <_>
      <rects>
        <_>
          27 34 3 3 -1.</_>
        <_>
          27 35 3 1 3.</_></rects>
      <tilted>0</tilted></_>
    <_>
      <rects>
        <_>
          27 37 3 3 -1.</_>
        <_>
          27 38 3 1 3.</_></rects>
      <tilted>0</tilted></_>
    <_>
      <rects>
        <_>
          27 42 2 2 -1.</_>
        <_>
          27 42 1 1 2.</_>
        <_>
          28 43 1 1 2.</_></rects>
      <tilted>0</tilted></_>
    <_>
      <rects>
        <_>
          28 2 2 4 -1.</_>
        <_>
          28 3 2 2 2.</_></rects>
      <tilted>0</tilted></_>
    <_>
      <rects>
        <_>
          28 29 2 10 -1.</_>
        <_>
          29 29 1 10 2.</_></rects>
      <tilted>0</tilted></_>
    <_>
      <rects>
        <_>
          28 41 1 3 -1.</_>
        <_>
          28 42 1 1 3.</_></rects>
      <tilted>0</tilted></_>
    <_>
      <rects>
        <_>
          29 1 1 3 -1.</_>
        <_>
          29 2 1 1 3.</_></rects>
      <tilted>0</tilted></_>
    <_>
      <rects>
        <_>
          29 10 1 3 -1.</_>
        <_>
          29 11 1 1 3.</_></rects>
      <tilted>0</tilted></_></features></cascade>
</opencv_storage>
