<?xml version="1.0"?>
<opencv_storage>
<stage1>
  <maxWeakCount>5</maxWeakCount>
  <stageThreshold>-2.6912409067153931e-01</stageThreshold>
  <weakClassifiers>
    <_>
      <internalNodes>
        0 -1 5023165 5.6383172050118446e-03</internalNodes>
      <leafValues>
        -3.5593220591545105e-01 7.8021979331970215e-01</leafValues></_>
    <_>
      <internalNodes>
        0 -1 3121145 -9.2214485630393028e-03</internalNodes>
      <leafValues>
        5.8361965417861938e-01 -6.0101544857025146e-01</leafValues></_>
    <_>
      <internalNodes>
        0 -1 6215671 6.2368460930883884e-04</internalNodes>
      <leafValues>
        -5.0078809261322021e-01 6.8181836605072021e-01</leafValues></_>
    <_>
      <internalNodes>
        0 -1 5274270 9.6843880601227283e-04</internalNodes>
      <leafValues>
        -5.0350165367126465e-01 5.8565318584442139e-01</leafValues></_>
    <_>
      <internalNodes>
        0 -1 5908420 -2.5740880519151688e-03</internalNodes>
      <leafValues>
        6.0295850038528442e-01 -5.0060027837753296e-01</leafValues></_></weakClassifiers></stage1>
</opencv_storage>
