<?xml version="1.0"?>
<opencv_storage>
<stage12>
  <maxWeakCount>5</maxWeakCount>
  <stageThreshold>-1.9638240337371826e-01</stageThreshold>
  <weakClassifiers>
    <_>
      <internalNodes>
        0 -1 5800270 3.6067657172679901e-02</internalNodes>
      <leafValues>
        5.4687500000000000e-01 -9.0909093618392944e-01</leafValues></_>
    <_>
      <internalNodes>
        0 -1 4211660 1.5069692744873464e-04</internalNodes>
      <leafValues>
        -4.0622282028198242e-01 8.1460446119308472e-01</leafValues></_>
    <_>
      <internalNodes>
        0 -1 5720104 1.9964110106229782e-03</internalNodes>
      <leafValues>
        -5.2499753236770630e-01 6.5726161003112793e-01</leafValues></_>
    <_>
      <internalNodes>
        0 -1 7458144 7.7722768764942884e-05</internalNodes>
      <leafValues>
        7.1499389410018921e-01 -4.6301513910293579e-01</leafValues></_>
    <_>
      <internalNodes>
        0 -1 5260567 -2.9993630014359951e-03</internalNodes>
      <leafValues>
        7.9972445964813232e-01 -5.2703094482421875e-01</leafValues></_></weakClassifiers></stage12>
</opencv_storage>
