<?xml version="1.0"?>
<opencv_storage>
<cascade>
  <stageType>BOOST</stageType>
  <featureType>HAAR</featureType>
  <height>40</height>
  <width>80</width>
  <stageParams>
    <boostType>GAB</boostType>
    <minHitRate>9.9000000953674316e-01</minHitRate>
    <maxFalseAlarm>5.0000000000000000e-01</maxFalseAlarm>
    <weightTrimRate>9.4999999999999996e-01</weightTrimRate>
    <maxDepth>1</maxDepth>
    <maxWeakCount>100</maxWeakCount></stageParams>
  <featureParams>
    <maxCatCount>0</maxCatCount>
    <featSize>1</featSize>
    <mode>ALL</mode></featureParams>
  <stageNum>9</stageNum>
  <stages>
    <!-- stage 0 -->
    <_>
      <maxWeakCount>3</maxWeakCount>
      <stageThreshold>-2.1610167622566223e-01</stageThreshold>
      <weakClassifiers>
        <_>
          <internalNodes>
            0 -1 20 -2.0550750195980072e-02</internalNodes>
          <leafValues>
            7.9240506887435913e-01 -5.5121952295303345e-01</leafValues></_>
        <_>
          <internalNodes>
            0 -1 5 9.8107531666755676e-03</internalNodes>
          <leafValues>
            -3.9359292387962341e-01 8.2370513677597046e-01</leafValues></_>
        <_>
          <internalNodes>
            0 -1 43 2.2414720151573420e-03</internalNodes>
          <leafValues>
            -4.8858731985092163e-01 8.0429267883300781e-01</leafValues></_></weakClassifiers></_>
    <!-- stage 1 -->
    <_>
      <maxWeakCount>5</maxWeakCount>
      <stageThreshold>-2.6912409067153931e-01</stageThreshold>
      <weakClassifiers>
        <_>
          <internalNodes>
            0 -1 26 5.6383172050118446e-03</internalNodes>
          <leafValues>
            -3.5593220591545105e-01 7.8021979331970215e-01</leafValues></_>
        <_>
          <internalNodes>
            0 -1 9 -9.2214485630393028e-03</internalNodes>
          <leafValues>
            5.8361965417861938e-01 -6.0101544857025146e-01</leafValues></_>
        <_>
          <internalNodes>
            0 -1 46 6.2368460930883884e-04</internalNodes>
          <leafValues>
            -5.0078809261322021e-01 6.8181836605072021e-01</leafValues></_>
        <_>
          <internalNodes>
            0 -1 31 9.6843880601227283e-04</internalNodes>
          <leafValues>
            -5.0350165367126465e-01 5.8565318584442139e-01</leafValues></_>
        <_>
          <internalNodes>
            0 -1 38 -2.5740880519151688e-03</internalNodes>
          <leafValues>
            6.0295850038528442e-01 -5.0060027837753296e-01</leafValues></_></weakClassifiers></_>
    <!-- stage 2 -->
    <_>
      <maxWeakCount>6</maxWeakCount>
      <stageThreshold>-1.1365550756454468e+00</stageThreshold>
      <weakClassifiers>
        <_>
          <internalNodes>
            0 -1 19 9.3649486079812050e-03</internalNodes>
          <leafValues>
            -4.0127387642860413e-01 5.9367948770523071e-01</leafValues></_>
        <_>
          <internalNodes>
            0 -1 45 3.6083310842514038e-03</internalNodes>
          <leafValues>
            -2.6949691772460938e-01 7.5996243953704834e-01</leafValues></_>
        <_>
          <internalNodes>
            0 -1 48 3.4796171821653843e-03</internalNodes>
          <leafValues>
            -2.3714633285999298e-01 8.3213114738464355e-01</leafValues></_>
        <_>
          <internalNodes>
            0 -1 25 4.5642262557521462e-04</internalNodes>
          <leafValues>
            -6.4335638284683228e-01 3.5760155320167542e-01</leafValues></_>
        <_>
          <internalNodes>
            0 -1 10 -1.3067757710814476e-02</internalNodes>
          <leafValues>
            6.5205323696136475e-01 -3.3668166399002075e-01</leafValues></_>
        <_>
          <internalNodes>
            0 -1 1 8.8286340236663818e-02</internalNodes>
          <leafValues>
            -2.7805930376052856e-01 8.5864555835723877e-01</leafValues></_></weakClassifiers></_>
    <!-- stage 3 -->
    <_>
      <maxWeakCount>6</maxWeakCount>
      <stageThreshold>-1.1036222428083420e-01</stageThreshold>
      <weakClassifiers>
        <_>
          <internalNodes>
            0 -1 16 -3.1086823437362909e-03</internalNodes>
          <leafValues>
            8.1684982776641846e-01 -7.0336394011974335e-02</leafValues></_>
        <_>
          <internalNodes>
            0 -1 30 4.5465184375643730e-03</internalNodes>
          <leafValues>
            -3.3743953704833984e-01 5.0980257987976074e-01</leafValues></_>
        <_>
          <internalNodes>
            0 -1 44 -5.5108456872403622e-03</internalNodes>
          <leafValues>
            6.9117510318756104e-01 -2.7733635902404785e-01</leafValues></_>
        <_>
          <internalNodes>
            0 -1 40 -1.6732022166252136e-02</internalNodes>
          <leafValues>
            6.2239742279052734e-01 -4.0415722131729126e-01</leafValues></_>
        <_>
          <internalNodes>
            0 -1 3 3.4508615732192993e-02</internalNodes>
          <leafValues>
            -2.6166430115699768e-01 8.5022419691085815e-01</leafValues></_>
        <_>
          <internalNodes>
            0 -1 6 -1.1661475524306297e-02</internalNodes>
          <leafValues>
            5.4915273189544678e-01 -4.9385672807693481e-01</leafValues></_></weakClassifiers></_>
    <!-- stage 4 -->
    <_>
      <maxWeakCount>7</maxWeakCount>
      <stageThreshold>-1.9126047194004059e-01</stageThreshold>
      <weakClassifiers>
        <_>
          <internalNodes>
            0 -1 33 2.6469662785530090e-02</internalNodes>
          <leafValues>
            4.5454546809196472e-02 8.9215683937072754e-01</leafValues></_>
        <_>
          <internalNodes>
            0 -1 27 7.5283899903297424e-02</internalNodes>
          <leafValues>
            -1.2577244639396667e-01 8.5727864503860474e-01</leafValues></_>
        <_>
          <internalNodes>
            0 -1 23 7.3533295653760433e-03</internalNodes>
          <leafValues>
            -3.2652515172958374e-01 5.3238445520401001e-01</leafValues></_>
        <_>
          <internalNodes>
            0 -1 7 1.7919577658176422e-02</internalNodes>
          <leafValues>
            -4.1549402475357056e-01 5.1605534553527832e-01</leafValues></_>
        <_>
          <internalNodes>
            0 -1 42 -1.5647979453206062e-03</internalNodes>
          <leafValues>
            5.0064277648925781e-01 -4.0483954548835754e-01</leafValues></_>
        <_>
          <internalNodes>
            0 -1 22 -9.1223185881972313e-03</internalNodes>
          <leafValues>
            7.0333254337310791e-01 -2.7331721782684326e-01</leafValues></_>
        <_>
          <internalNodes>
            0 -1 18 4.6243332326412201e-02</internalNodes>
          <leafValues>
            -3.9637857675552368e-01 5.0835955142974854e-01</leafValues></_></weakClassifiers></_>
    <!-- stage 5 -->
    <_>
      <maxWeakCount>6</maxWeakCount>
      <stageThreshold>-3.4615418314933777e-01</stageThreshold>
      <weakClassifiers>
        <_>
          <internalNodes>
            0 -1 21 2.7791416505351663e-04</internalNodes>
          <leafValues>
            6.0086768865585327e-01 -5.5395680665969849e-01</leafValues></_>
        <_>
          <internalNodes>
            0 -1 50 -8.1244688772130758e-05</internalNodes>
          <leafValues>
            -6.2279379367828369e-01 3.4612965583801270e-01</leafValues></_>
        <_>
          <internalNodes>
            0 -1 32 1.9754443317651749e-02</internalNodes>
          <leafValues>
            2.6043075323104858e-01 -7.7085620164871216e-01</leafValues></_>
        <_>
          <internalNodes>
            0 -1 0 2.9863983392715454e-02</internalNodes>
          <leafValues>
            -4.0725296735763550e-01 5.0821161270141602e-01</leafValues></_>
        <_>
          <internalNodes>
            0 -1 41 -5.8540413156151772e-03</internalNodes>
          <leafValues>
            6.7442876100540161e-01 -3.7059852480888367e-01</leafValues></_>
        <_>
          <internalNodes>
            0 -1 2 -4.3776509119197726e-04</internalNodes>
          <leafValues>
            -5.9503126144409180e-01 4.3255266547203064e-01</leafValues></_></weakClassifiers></_>
    <!-- stage 6 -->
    <_>
      <maxWeakCount>7</maxWeakCount>
      <stageThreshold>-3.9667525887489319e-01</stageThreshold>
      <weakClassifiers>
        <_>
          <internalNodes>
            0 -1 13 4.1858278214931488e-02</internalNodes>
          <leafValues>
            4.8679244518280029e-01 -8.2857143878936768e-01</leafValues></_>
        <_>
          <internalNodes>
            0 -1 28 1.5919127035886049e-03</internalNodes>
          <leafValues>
            -4.9323189258575439e-01 4.3798878788948059e-01</leafValues></_>
        <_>
          <internalNodes>
            0 -1 4 4.6883437782526016e-02</internalNodes>
          <leafValues>
            -2.2249697148799896e-01 7.9033094644546509e-01</leafValues></_>
        <_>
          <internalNodes>
            0 -1 14 1.0611969046294689e-02</internalNodes>
          <leafValues>
            -3.0899357795715332e-01 6.3756352663040161e-01</leafValues></_>
        <_>
          <internalNodes>
            0 -1 39 -1.9459900795482099e-04</internalNodes>
          <leafValues>
            5.4892671108245850e-01 -3.5146871209144592e-01</leafValues></_>
        <_>
          <internalNodes>
            0 -1 51 1.6097257321234792e-04</internalNodes>
          <leafValues>
            2.9244932532310486e-01 -6.1515641212463379e-01</leafValues></_>
        <_>
          <internalNodes>
            0 -1 15 -4.6805210411548615e-02</internalNodes>
          <leafValues>
            -8.8556861877441406e-01 2.0027412474155426e-01</leafValues></_></weakClassifiers></_>
    <!-- stage 7 -->
    <_>
      <maxWeakCount>5</maxWeakCount>
      <stageThreshold>-2.5965902209281921e-01</stageThreshold>
      <weakClassifiers>
        <_>
          <internalNodes>
            0 -1 17 -5.8542201295495033e-03</internalNodes>
          <leafValues>
            6.0975611209869385e-01 -5.0335568189620972e-01</leafValues></_>
        <_>
          <internalNodes>
            0 -1 8 2.3455999325960875e-03</internalNodes>
          <leafValues>
            -5.0855612754821777e-01 4.2223531007766724e-01</leafValues></_>
        <_>
          <internalNodes>
            0 -1 29 3.6854771315120161e-04</internalNodes>
          <leafValues>
            -4.3848559260368347e-01 4.6156328916549683e-01</leafValues></_>
        <_>
          <internalNodes>
            0 -1 49 -4.6817641705274582e-03</internalNodes>
          <leafValues>
            7.1585202217102051e-01 -2.9089304804801941e-01</leafValues></_>
        <_>
          <internalNodes>
            0 -1 12 -2.0487709844019264e-04</internalNodes>
          <leafValues>
            5.5670046806335449e-01 -3.4920883178710938e-01</leafValues></_></weakClassifiers></_>
    <!-- stage 8 -->
    <_>
      <maxWeakCount>7</maxWeakCount>
      <stageThreshold>-5.9950041770935059e-01</stageThreshold>
      <weakClassifiers>
        <_>
          <internalNodes>
            0 -1 37 -4.6363189816474915e-02</internalNodes>
          <leafValues>
            -6.3440859317779541e-01 5.1084810495376587e-01</leafValues></_>
        <_>
          <internalNodes>
            0 -1 11 -7.4454783461987972e-03</internalNodes>
          <leafValues>
            6.3578206300735474e-01 -2.9370558261871338e-01</leafValues></_>
        <_>
          <internalNodes>
            0 -1 47 -4.9933660775423050e-03</internalNodes>
          <leafValues>
            5.3798758983612061e-01 -3.0042585730552673e-01</leafValues></_>
        <_>
          <internalNodes>
            0 -1 24 6.7017134279012680e-04</internalNodes>
          <leafValues>
            -6.7367541790008545e-01 2.7609539031982422e-01</leafValues></_>
        <_>
          <internalNodes>
            0 -1 35 2.8525036759674549e-03</internalNodes>
          <leafValues>
            -3.1271964311599731e-01 6.7182832956314087e-01</leafValues></_>
        <_>
          <internalNodes>
            0 -1 34 -2.8881132602691650e-03</internalNodes>
          <leafValues>
            7.3756945133209229e-01 -2.6562237739562988e-01</leafValues></_>
        <_>
          <internalNodes>
            0 -1 36 -9.9314860999584198e-03</internalNodes>
          <leafValues>
            7.4075168371200562e-01 -2.1397043764591217e-01</leafValues></_></weakClassifiers></_></stages>
  <features>
    <_>
      <rects>
        <_>
          0 5 80 6 -1.</_>
        <_>
          20 5 40 6 2.</_></rects>
      <tilted>0</tilted></_>
    <_>
      <rects>
        <_>
          1 24 76 12 -1.</_>
        <_>
          20 24 38 12 2.</_></rects>
      <tilted>0</tilted></_>
    <_>
      <rects>
        <_>
          6 11 3 18 -1.</_>
        <_>
          7 11 1 18 3.</_></rects>
      <tilted>0</tilted></_>
    <_>
      <rects>
        <_>
          7 5 68 5 -1.</_>
        <_>
          24 5 34 5 2.</_></rects>
      <tilted>0</tilted></_>
    <_>
      <rects>
        <_>
          10 11 22 24 -1.</_>
        <_>
          21 11 11 24 2.</_></rects>
      <tilted>0</tilted></_>
    <_>
      <rects>
        <_>
          15 26 40 10 -1.</_>
        <_>
          15 26 20 5 2.</_>
        <_>
          35 31 20 5 2.</_></rects>
      <tilted>0</tilted></_>
    <_>
      <rects>
        <_>
          17 10 28 5 -1.</_>
        <_>
          31 10 14 5 2.</_></rects>
      <tilted>0</tilted></_>
    <_>
      <rects>
        <_>
          17 26 32 14 -1.</_>
        <_>
          17 26 16 7 2.</_>
        <_>
          33 33 16 7 2.</_></rects>
      <tilted>0</tilted></_>
    <_>
      <rects>
        <_>
          18 28 34 6 -1.</_>
        <_>
          18 28 17 3 2.</_>
        <_>
          35 31 17 3 2.</_></rects>
      <tilted>0</tilted></_>
    <_>
      <rects>
        <_>
          20 11 26 16 -1.</_>
        <_>
          33 11 13 16 2.</_></rects>
      <tilted>0</tilted></_>
    <_>
      <rects>
        <_>
          23 1 18 14 -1.</_>
        <_>
          23 1 9 7 2.</_>
        <_>
          32 8 9 7 2.</_></rects>
      <tilted>0</tilted></_>
    <_>
      <rects>
        <_>
          23 1 24 10 -1.</_>
        <_>
          23 1 12 5 2.</_>
        <_>
          35 6 12 5 2.</_></rects>
      <tilted>0</tilted></_>
    <_>
      <rects>
        <_>
          24 20 6 2 -1.</_>
        <_>
          26 20 2 2 3.</_></rects>
      <tilted>0</tilted></_>
    <_>
      <rects>
        <_>
          27 19 26 17 -1.</_>
        <_>
          40 19 13 17 2.</_></rects>
      <tilted>0</tilted></_>
    <_>
      <rects>
        <_>
          27 27 16 8 -1.</_>
        <_>
          27 31 16 4 2.</_></rects>
      <tilted>0</tilted></_>
    <_>
      <rects>
        <_>
          28 3 16 30 -1.</_>
        <_>
          28 18 16 15 2.</_></rects>
      <tilted>0</tilted></_>
    <_>
      <rects>
        <_>
          29 17 12 4 -1.</_>
        <_>
          32 17 6 4 2.</_></rects>
      <tilted>0</tilted></_>
    <_>
      <rects>
        <_>
          31 3 19 22 -1.</_>
        <_>
          31 14 19 11 2.</_></rects>
      <tilted>0</tilted></_>
    <_>
      <rects>
        <_>
          31 13 48 23 -1.</_>
        <_>
          47 13 16 23 3.</_></rects>
      <tilted>0</tilted></_>
    <_>
      <rects>
        <_>
          32 13 18 26 -1.</_>
        <_>
          32 26 18 13 2.</_></rects>
      <tilted>0</tilted></_>
    <_>
      <rects>
        <_>
          33 2 16 36 -1.</_>
        <_>
          33 11 16 18 2.</_></rects>
      <tilted>0</tilted></_>
    <_>
      <rects>
        <_>
          33 2 17 26 -1.</_>
        <_>
          33 15 17 13 2.</_></rects>
      <tilted>0</tilted></_>
    <_>
      <rects>
        <_>
          33 11 21 3 -1.</_>
        <_>
          40 11 7 3 3.</_></rects>
      <tilted>0</tilted></_>
    <_>
      <rects>
        <_>
          34 0 9 25 -1.</_>
        <_>
          37 3 3 25 3.</_></rects>
      <tilted>1</tilted></_>
    <_>
      <rects>
        <_>
          34 3 16 1 -1.</_>
        <_>
          34 3 8 1 2.</_></rects>
      <tilted>1</tilted></_>
    <_>
      <rects>
        <_>
          34 15 12 9 -1.</_>
        <_>
          38 18 4 3 9.</_></rects>
      <tilted>0</tilted></_>
    <_>
      <rects>
        <_>
          35 14 9 12 -1.</_>
        <_>
          38 18 3 4 9.</_></rects>
      <tilted>0</tilted></_>
    <_>
      <rects>
        <_>
          35 28 30 12 -1.</_>
        <_>
          45 32 10 4 9.</_></rects>
      <tilted>0</tilted></_>
    <_>
      <rects>
        <_>
          36 16 9 6 -1.</_>
        <_>
          39 16 3 6 3.</_></rects>
      <tilted>0</tilted></_>
    <_>
      <rects>
        <_>
          36 17 4 5 -1.</_>
        <_>
          38 17 2 5 2.</_></rects>
      <tilted>0</tilted></_>
    <_>
      <rects>
        <_>
          37 13 6 12 -1.</_>
        <_>
          39 17 2 4 9.</_></rects>
      <tilted>0</tilted></_>
    <_>
      <rects>
        <_>
          37 27 5 6 -1.</_>
        <_>
          37 30 5 3 2.</_></rects>
      <tilted>0</tilted></_>
    <_>
      <rects>
        <_>
          38 4 18 8 -1.</_>
        <_>
          38 4 9 8 2.</_></rects>
      <tilted>1</tilted></_>
    <_>
      <rects>
        <_>
          40 17 21 10 -1.</_>
        <_>
          47 17 7 10 3.</_></rects>
      <tilted>0</tilted></_>
    <_>
      <rects>
        <_>
          41 24 6 12 -1.</_>
        <_>
          41 24 3 6 2.</_>
        <_>
          44 30 3 6 2.</_></rects>
      <tilted>0</tilted></_>
    <_>
      <rects>
        <_>
          42 34 16 4 -1.</_>
        <_>
          46 34 8 4 2.</_></rects>
      <tilted>0</tilted></_>
    <_>
      <rects>
        <_>
          43 26 10 14 -1.</_>
        <_>
          43 26 5 7 2.</_>
        <_>
          48 33 5 7 2.</_></rects>
      <tilted>0</tilted></_>
    <_>
      <rects>
        <_>
          44 2 14 22 -1.</_>
        <_>
          44 2 14 11 2.</_></rects>
      <tilted>1</tilted></_>
    <_>
      <rects>
        <_>
          44 4 6 8 -1.</_>
        <_>
          44 8 6 4 2.</_></rects>
      <tilted>0</tilted></_>
    <_>
      <rects>
        <_>
          45 19 3 2 -1.</_>
        <_>
          46 19 1 2 3.</_></rects>
      <tilted>0</tilted></_>
    <_>
      <rects>
        <_>
          45 21 10 7 -1.</_>
        <_>
          45 21 5 7 2.</_></rects>
      <tilted>1</tilted></_>
    <_>
      <rects>
        <_>
          46 0 1 40 -1.</_>
        <_>
          46 10 1 20 2.</_></rects>
      <tilted>0</tilted></_>
    <_>
      <rects>
        <_>
          46 7 10 8 -1.</_>
        <_>
          46 9 10 4 2.</_></rects>
      <tilted>0</tilted></_>
    <_>
      <rects>
        <_>
          46 15 4 11 -1.</_>
        <_>
          48 15 2 11 2.</_></rects>
      <tilted>0</tilted></_>
    <_>
      <rects>
        <_>
          46 15 6 20 -1.</_>
        <_>
          46 15 3 10 2.</_>
        <_>
          49 25 3 10 2.</_></rects>
      <tilted>0</tilted></_>
    <_>
      <rects>
        <_>
          46 17 4 8 -1.</_>
        <_>
          48 17 2 8 2.</_></rects>
      <tilted>0</tilted></_>
    <_>
      <rects>
        <_>
          47 14 2 11 -1.</_>
        <_>
          48 14 1 11 2.</_></rects>
      <tilted>0</tilted></_>
    <_>
      <rects>
        <_>
          47 22 7 15 -1.</_>
        <_>
          47 27 7 5 3.</_></rects>
      <tilted>0</tilted></_>
    <_>
      <rects>
        <_>
          51 5 1 8 -1.</_>
        <_>
          51 5 1 4 2.</_></rects>
      <tilted>1</tilted></_>
    <_>
      <rects>
        <_>
          54 6 9 8 -1.</_>
        <_>
          52 8 9 4 2.</_></rects>
      <tilted>1</tilted></_>
    <_>
      <rects>
        <_>
          65 2 4 1 -1.</_>
        <_>
          66 2 2 1 2.</_></rects>
      <tilted>0</tilted></_>
    <_>
      <rects>
        <_>
          70 1 6 2 -1.</_>
        <_>
          73 1 3 2 2.</_></rects>
      <tilted>0</tilted></_></features></cascade>
</opencv_storage>
