<?xml version="1.0"?>
<opencv_storage>
<stage3>
  <maxWeakCount>6</maxWeakCount>
  <stageThreshold>-1.1036222428083420e-01</stageThreshold>
  <weakClassifiers>
    <_>
      <internalNodes>
        0 -1 4329488 -3.1086823437362909e-03</internalNodes>
      <leafValues>
        8.1684982776641846e-01 -7.0336394011974335e-02</leafValues></_>
    <_>
      <internalNodes>
        0 -1 5238487 4.5465184375643730e-03</internalNodes>
      <leafValues>
        -3.3743953704833984e-01 5.0980257987976074e-01</leafValues></_>
    <_>
      <internalNodes>
        0 -1 6130528 -5.5108456872403622e-03</internalNodes>
      <leafValues>
        6.9117510318756104e-01 -2.7733635902404785e-01</leafValues></_>
    <_>
      <internalNodes>
        0 -1 6055011 -1.6732022166252136e-02</internalNodes>
      <leafValues>
        6.2239742279052734e-01 -4.0415722131729126e-01</leafValues></_>
    <_>
      <internalNodes>
        0 -1 1151537 3.4508615732192993e-02</internalNodes>
      <leafValues>
        -2.6166430115699768e-01 8.5022419691085815e-01</leafValues></_>
    <_>
      <internalNodes>
        0 -1 2690074 -1.1661475524306297e-02</internalNodes>
      <leafValues>
        5.4915273189544678e-01 -4.9385672807693481e-01</leafValues></_></weakClassifiers></stage3>
</opencv_storage>
