<?xml version="1.0"?>
<opencv_storage>
<stage8>
  <maxWeakCount>7</maxWeakCount>
  <stageThreshold>-5.9950041770935059e-01</stageThreshold>
  <weakClassifiers>
    <_>
      <internalNodes>
        0 -1 5900775 -4.6363189816474915e-02</internalNodes>
      <leafValues>
        -6.3440859317779541e-01 5.1084810495376587e-01</leafValues></_>
    <_>
      <internalNodes>
        0 -1 3473551 -7.4454783461987972e-03</internalNodes>
      <leafValues>
        6.3578206300735474e-01 -2.9370558261871338e-01</leafValues></_>
    <_>
      <internalNodes>
        0 -1 6234763 -4.9933660775423050e-03</internalNodes>
      <leafValues>
        5.3798758983612061e-01 -3.0042585730552673e-01</leafValues></_>
    <_>
      <internalNodes>
        0 -1 4860719 6.7017134279012680e-04</internalNodes>
      <leafValues>
        -6.7367541790008545e-01 2.7609539031982422e-01</leafValues></_>
    <_>
      <internalNodes>
        0 -1 5790155 2.8525036759674549e-03</internalNodes>
      <leafValues>
        -3.1271964311599731e-01 6.7182832956314087e-01</leafValues></_>
    <_>
      <internalNodes>
        0 -1 5681017 -2.8881132602691650e-03</internalNodes>
      <leafValues>
        7.3756945133209229e-01 -2.6562237739562988e-01</leafValues></_>
    <_>
      <internalNodes>
        0 -1 5877719 -9.9314860999584198e-03</internalNodes>
      <leafValues>
        7.4075168371200562e-01 -2.1397043764591217e-01</leafValues></_></weakClassifiers></stage8>
</opencv_storage>
